
\data\
ngram 1=27812

\1-grams:
-0.7948884	</s>
-99	<s>
-4.223597	a
-4.96396	aaa
-4.787869	aaah
-4.787869	aah
-4.56602	ab
-4.486839	aba
-4.96396	abanın
-4.96396	abartmaya
-4.96396	abartıyorsun
-4.96396	abaza
-4.486839	abdal
-4.66293	abdala
-4.66293	abdalın
-4.96396	abdest
-4.96396	abdestle
-4.96396	abdestsiz
-4.96396	abdomen
-4.787869	abdominal
-4.96396	abdullah
-4.96396	abdurrahman
-4.66293	abi
-4.96396	abim
-4.66293	abla
-4.787869	ablacığım
-4.96396	ablası
-4.96396	ablasına
-4.787869	aborjin
-4.96396	aca
-3.720922	acaba
-4.96396	acar
-4.3619	acayip
-3.631522	acele
-4.96396	aceleci
-4.56602	acelem
-4.96396	acelemiz
-4.96396	acelen
-4.96396	aceleye
-4.56602	acemi
-4.787869	acemilik
-4.96396	acemiydim
-4.787869	acentadan
-4.96396	acentaya
-4.26499	acil
-4.96396	acilen
-4.96396	aciz
-3.652206	acı
-4.96396	acıdan
-4.96396	acıdılar
-4.787869	acıdır
-4.96396	acıdığı
-4.486839	acıkan
-4.96396	acıklı
-4.96396	acıkmamış
-4.96396	acıkmıyor
-4.787869	acıkmış
-4.96396	acıktı
-4.96396	acıktık
-4.96396	acıktın
-4.96396	acıktınız
-4.96396	acıktırırsan
-4.96396	acıktığımı
-4.96396	acıkır
-4.96396	acılarını
-4.96396	acılıkla
-4.787869	acıman
-4.96396	acımasızsın
-4.96396	acımayacak
-4.96396	acımaz
-4.96396	acımıyor
-4.96396	acımış
-4.96396	acın
-4.96396	acınacak
-4.787869	acınası
-4.96396	acından
-4.96396	acındırırsan
-4.96396	acını
-4.96396	acır
-4.96396	acırsın
-4.96396	acısı
-4.96396	acısından
-4.96396	acısını
-4.96396	acıt
-4.96396	acıtacak
-4.96396	acıtmayacak
-4.96396	acıtmıştı
-4.787869	acıttı
-4.787869	acıtıyor
-4.96396	acıtıyordu
-4.56602	acıyan
-4.310748	acıyor
-4.787869	acıyı
-4.96396	acıyınız
-4.66293	ada
-4.96396	adaaam
-4.96396	adalar
-4.96396	adaleleri
-4.787869	adalelerini
-4.66293	adalet
-4.96396	adaletin
-3.141138	adam
-3.942771	adama
-4.96396	adamak
-4.787869	adamakla
-3.720922	adamakıllı
-4.787869	adamcağız
-4.96396	adamcağızı
-4.96396	adamcağızın
-4.96396	adamdan
-4.56602	adamdı
-4.486839	adamdır
-4.96396	adamla
-4.26499	adamlar
-4.96396	adamlara
-4.96396	adamlarla
-4.66293	adamları
-4.66293	adamların
-4.96396	adamlarını
-4.96396	adamlarız
-4.96396	adammışsın
-4.486839	adamsın
-3.922567	adamı
-4.486839	adamım
-4.96396	adamımız
-3.787869	adamın
-4.66293	adamına
-4.96396	adamıyım
-4.787869	adana
-4.96396	adanmış
-4.66293	adanın
-4.96396	adası
-4.56602	aday
-4.787869	adaylar
-4.96396	adaylık
-4.96396	adaylığını
-4.96396	adayım
-4.185809	adaşım
-4.96396	addır
-4.96396	adelphoe
-4.96396	adenomatöz
-4.223597	adet
-3.817832	adeta
-4.96396	adetleri
-4.96396	adettir
-4.419892	adi
-4.26499	adil
-4.96396	adin
-4.96396	adla
-4.96396	adlandırılmıyor
-4.96396	adları
-4.96396	adliyeye
-4.56602	adlı
-4.96396	adrenal
-4.96396	adres
-4.787869	adresi
-4.96396	adresimi
-4.66293	adresini
-4.96396	adreslerini
-4.96396	adresli
-3.86705	adı
-3.472598	adım
-4.787869	adıma
-4.787869	adımda
-4.96396	adımdan
-4.96396	adımlanın
-4.419892	adımlar
-4.96396	adımlardan
-4.06087	adımlarla
-4.96396	adımları
-4.96396	adımlarım
-4.96396	adımlarını
-4.96396	adımlarınıza
-4.66293	adımı
-4.787869	adımına
-4.310748	adın
-4.486839	adına
-4.088899	adını
-4.56602	adınız
-4.96396	adınızı
-4.96396	adıyla
-4.96396	aemilianın
-4.56602	af
-4.96396	afacan
-4.96396	afat
-4.66293	afedersiniz
-4.26499	aferin
-4.96396	afettir
-4.96396	affedebilecek
-4.310748	affedersin
-4.185809	affedersiniz
-4.96396	affedilmez
-4.96396	affedin
-4.787869	affediniz
-4.787869	affediyorum
-4.66293	affet
-4.787869	affetmeyeceğim
-4.66293	affetsin
-4.96396	affettim
-4.96396	affettin
-4.96396	afili
-4.96396	afiyet
-4.787869	afrika
-4.96396	afrikalı
-3.55742	ah
-4.787869	ahali
-4.96396	ahalisini
-4.96396	ahbabım
-4.787869	ahbabın
-4.088899	ahbap
-4.96396	ahbaplara
-4.96396	ahbapları
-4.96396	ahbapların
-4.96396	ahbaplarına
-4.96396	ahbaplık
-4.96396	ahbaplığa
-4.787869	ahbaplığı
-4.96396	ahbaplığımız
-4.96396	ahbapça
-4.787869	ahenge
-4.96396	ahengini
-4.787869	ahenk
-4.96396	ahenkler
-4.96396	ahenkli
-4.96396	ahenktardılar
-4.56602	aheste
-4.96396	ahh
-4.96396	ahha
-4.66293	ahhh
-4.66293	ahlak
-4.96396	ahlakı
-4.96396	ahlatın
-4.56602	ahmak
-4.96396	ahmaklıktır
-4.96396	ahmağa
-4.66293	ahmağı
-4.96396	ahmed
-4.66293	ahmet
-4.96396	ahreni
-4.96396	ahtisaari
-4.96396	ahçıya
-4.787869	ahı
-4.56602	ahını
-4.96396	ahır
-4.96396	ahıra
-4.96396	ahırda
-4.96396	ahırını
-4.66293	ahşap
-4.96396	aidim
-4.185809	aile
-4.96396	ailedensin
-4.66293	aileler
-4.96396	aileleri
-4.223597	ailem
-4.96396	aileme
-4.96396	ailemize
-4.66293	ailen
-4.96396	ailene
-4.96396	ailenin
-4.787869	ailesi
-4.96396	ailesinden
-4.96396	ailesinin
-4.96396	aileye
-4.96396	aircomb
-4.96396	aishihik
-4.151047	ait
-4.96396	aitsin
-4.96396	aitti
-4.96396	aittir
-4.96396	ajans
-3.942771	ak
-4.96396	akacak
-4.96396	akademisi
-4.56602	akan
-4.96396	akanı
-4.96396	akanından
-4.56602	akar
-4.96396	akara
-4.96396	akarak
-4.787869	akarken
-4.66293	akarsu
-4.96396	akarsuya
-4.96396	akash
-4.66293	akbulut
-4.96396	akbulutun
-3.802592	akciğer
-4.787869	akciğerde
-4.787869	akciğerlerde
-4.787869	akdeniz
-4.96396	akisler
-4.96396	akisleri
-4.66293	akla
-4.96396	aklarını
-4.06087	aklı
-4.66293	aklım
-3.86705	aklıma
-4.3619	aklımdan
-4.96396	aklımdasın
-4.486839	aklımı
-4.66293	aklımız
-4.96396	aklımıza
-4.96396	aklımızdan
-4.486839	aklın
-4.118862	aklına
-4.56602	aklında
-4.419892	aklından
-4.009717	aklını
-4.96396	aklınızda
-4.96396	aklınızı
-4.96396	aklığı
-4.96396	akmasa
-4.96396	akmayınca
-4.96396	akmazsa
-4.96396	akmıyor
-4.96396	akmıyordu
-4.96396	akraba
-4.96396	akrabadan
-4.787869	akrabaları
-4.66293	akrabalarından
-4.96396	akrabam
-4.96396	akrabamdır
-4.96396	akrabamın
-4.96396	akrabanın
-4.96396	akrabanız
-4.787869	akrabası
-4.787869	akrabaya
-4.96396	akratılan
-4.787869	akrep
-4.96396	aksak
-4.96396	aksamak
-4.787869	aksaraya
-4.96396	aksediyordu
-4.486839	aksi
-4.96396	aksilla
-4.56602	aksine
-4.96396	aksı
-4.96396	aktan
-4.96396	aktarma
-4.96396	aktif
-4.787869	aktris
-4.96396	aktrislerin
-4.96396	aktör
-4.96396	aktörlerle
-4.96396	aktörüm
-4.96396	aktı
-4.96396	aktığı
-4.66293	akut
-4.56602	akça
-4.96396	akçadır
-4.96396	akçanın
-4.96396	akçay
-4.787869	akçe
-4.96396	akçesine
-4.96396	akçesiyle
-4.787869	akçeye
-4.96396	akı
-4.787869	akıbet
-4.96396	akıbete
-4.96396	akıbeti
-3.787869	akıl
-4.96396	akılcağızımı
-4.56602	akıldan
-4.96396	akılları
-3.817832	akıllı
-4.56602	akıllıca
-4.96396	akıllıların
-4.787869	akıllısı
-4.310748	akılsız
-4.96396	akılsızın
-4.66293	akım
-4.96396	akına
-4.96396	akıtacak
-4.66293	akıyor
-4.787869	akıyordu
-4.96396	akışa
-4.787869	akışı
-4.96396	akışını
-3.384176	akşam
-3.986236	akşama
-4.787869	akşamacak
-4.96396	akşamda
-4.26499	akşamdan
-4.96396	akşamdı
-4.419892	akşamki
-4.96396	akşamkine
-4.96396	akşamkinin
-4.96396	akşamla
-4.3619	akşamlar
-4.486839	akşamları
-4.96396	akşamlı
-4.787869	akşamüstü
-4.3619	akşamüzeri
-4.787869	akşamüzerleri
-4.419892	akşamı
-4.486839	akşamın
-4.96396	akşamına
-3.26499	al
-4.419892	ala
-4.96396	alabama’daki
-4.96396	alabildiği
-4.787869	alabildiğine
-4.151047	alabilir
-4.96396	alabilirim
-4.787869	alabilirsin
-4.96396	alabilirsiniz
-4.26499	alacak
-4.787869	alacakaranlık
-4.66293	alacakaranlıkta
-4.96396	alacakaranlığına
-4.787869	alacakaranlığında
-4.96396	alacaklıdır
-4.96396	alacaklıydım
-4.96396	alacaksın
-4.787869	alacalı
-4.96396	alacalısından
-4.96396	alacağı
-4.185809	alacağım
-4.96396	alacağımı
-4.96396	alacağın
-4.96396	alacağını
-4.787869	alacağız
-4.310748	alaka
-4.185809	alakadar
-4.96396	alakadarları
-4.96396	alakadarsın
-4.96396	alakalan
-4.66293	alakalandı
-4.96396	alakalandırdığı
-4.96396	alakaları
-4.96396	alakalarına
-4.56602	alakam
-4.96396	alakamı
-4.96396	alakamın
-4.310748	alakası
-4.96396	alakasız
-4.96396	alakayı
-4.96396	alalım
-4.96396	alamadı
-4.96396	alamadılar
-4.787869	alamadım
-4.787869	alamamıştı
-4.96396	alamayacaktı
-4.96396	alamayacağın
-4.96396	alamayan
-4.96396	alamayınca
-4.96396	alamaz
-4.96396	alamazdı
-4.66293	alamazsın
-4.96396	alamet
-4.96396	alameti
-4.787869	alamıyordum
-4.66293	alamıyorum
-4.223597	alan
-4.787869	alana
-4.3619	alanda
-4.96396	alandan
-4.787869	alanlar
-4.56602	alanlarda
-4.96396	alanları
-4.96396	alanlarına
-4.96396	alanlarında
-4.787869	alanı
-4.787869	alanın
-4.787869	alanında
-3.884779	alarak
-4.787869	alarm
-4.96396	alasın
-4.223597	alay
-4.96396	alaya
-4.56602	alaycı
-4.96396	alaylan
-4.96396	alayı
-4.26499	alayım
-4.96396	alayına
-4.66293	albay
-4.96396	albümin
-4.96396	albümün
-4.96396	albümünü
-4.96396	albümünün
-4.96396	aldanma
-4.96396	aldanmadığıma
-4.96396	aldanmamış
-4.96396	aldanmayın
-4.96396	aldanmaz
-4.96396	aldanmış
-4.96396	aldanır
-4.96396	aldatma
-4.96396	aldatmak
-4.96396	aldatıldım
-4.96396	aldatılmış
-4.96396	aldatıyor
-4.96396	aldude
-3.516802	aldı
-4.56602	aldık
-4.66293	aldıkları
-4.96396	aldıklarının
-4.787869	aldıktan
-4.56602	aldılar
-3.75984	aldım
-4.223597	aldın
-4.486839	aldınız
-4.96396	aldır
-4.96396	aldırdım
-4.66293	aldırma
-4.96396	aldırmadı
-4.96396	aldırmadılar
-4.96396	aldırmadım
-4.96396	aldırmalısınız
-4.96396	aldırmaya
-4.66293	aldırmayın
-4.96396	aldırırım
-4.96396	aldırırız
-4.66293	aldırış
-4.26499	aldığı
-4.787869	aldığım
-4.787869	aldığımız
-4.96396	aldığın
-4.96396	aldığını
-4.96396	alegorisidir
-4.96396	alelacayip
-4.66293	alelade
-4.96396	alelumum
-4.787869	alem
-4.96396	aleme
-4.96396	alemi
-4.96396	alemlerinden
-4.96396	alenileşen
-4.787869	aleniyet
-4.96396	alerjim
-4.787869	alet
-4.96396	aletlerini
-4.96396	aletlerle
-4.56602	alev
-4.96396	alevden
-4.96396	alevle
-4.96396	alevler
-4.96396	alevlerin
-4.96396	alevlerle
-4.96396	aleyhime
-4.787869	aleyhinde
-4.96396	aleyhindesiniz
-4.96396	aleykümselam
-4.96396	alfabesindeki
-4.96396	alfandaki
-4.96396	algı
-4.96396	algılama
-4.96396	algınlıklarıydı
-4.151047	ali
-4.96396	alice
-4.96396	alide
-4.486839	alim
-4.96396	alimallah
-4.96396	alimdi
-4.96396	alimin
-4.96396	alimle
-4.66293	alinin
-4.223597	aliye
-4.787869	aliyenin
-4.787869	aliyeyi
-4.96396	alkol
-4.787869	alkış
-4.96396	alkışlandı
-4.96396	alkışlandılar
-4.96396	alkışlar
-3.445446	allah
-4.310748	allaha
-4.486839	allahaısmarladık
-4.96396	allahdır
-4.56602	allahtan
-4.96396	allahuekber
-4.96396	allahı
-4.223597	allahım
-4.185809	allahın
-4.66293	allahını
-4.96396	allah’ın
-4.96396	allak
-4.96396	allen
-4.787869	allı
-4.96396	allık
-4.96396	allıkları
-4.034541	alma
-4.486839	almadan
-4.96396	almadık
-4.96396	almadılar
-4.56602	almadım
-4.96396	almadığı
-4.96396	almadığın
-4.034541	almak
-4.96396	almakta
-4.96396	almaktadır
-4.96396	almaktan
-4.96396	almalarına
-4.96396	almalarını
-4.96396	almalısın
-4.96396	almam
-4.96396	almama
-4.96396	almamıştı
-4.96396	almamıştım
-4.310748	alman
-4.310748	almanca
-4.96396	almandır
-4.96396	almanlarından
-4.96396	almanya
-4.96396	almanyadan
-4.66293	almanyaya
-4.787869	almanyayı
-4.96396	almanya’daki
-4.787869	almanı
-4.96396	almasın
-4.56602	almaya
-4.96396	almayarak
-4.486839	almayayım
-4.66293	almayı
-4.310748	almaz
-4.96396	almazsa
-4.96396	almıyor
-4.96396	almıyordu
-4.787869	almıyorum
-4.034541	almış
-4.787869	almışlar
-4.56602	almışlardı
-4.96396	almışsın
-4.26499	almıştı
-4.787869	almıştım
-4.96396	almıştın
-4.787869	almıştır
-4.96396	alna
-4.96396	alnı
-4.96396	alnıma
-4.486839	alnına
-4.96396	alnından
-4.787869	alnını
-4.787869	alnının
-4.787869	alo
-4.96396	alpha
-4.96396	alsam
-4.787869	alsın
-3.802592	alt
-4.96396	altları
-4.009717	altmış
-4.96396	altmışar
-4.787869	altmışlık
-4.96396	altmıştan
-4.96396	alttakileri
-4.96396	alttan
-4.96396	altyazı
-4.96396	altüst
-3.438915	altı
-4.96396	altıda
-4.96396	altımda
-4.96396	altımdaki
-3.817832	altın
-3.884779	altına
-3.802592	altında
-4.66293	altındaki
-4.185809	altından
-4.96396	altındaydım
-4.96396	altındır
-4.96396	altınları
-4.486839	altını
-4.56602	altının
-4.96396	altısı
-4.66293	alçacık
-4.06087	alçak
-4.96396	alçaklara
-4.96396	alçal
-4.96396	alçalan
-4.96396	alçalmış
-4.96396	alçaltın
-4.96396	alçaltıp
-4.787869	alı
-4.787869	alıcı
-4.96396	alıkoyacak
-4.96396	alıkoyamayacaktı
-4.96396	alıkoyan
-4.96396	alıkoydum
-4.96396	alıkoyuyor
-4.96396	alımı
-4.06087	alın
-4.787869	alınacak
-4.96396	alınamazdı
-4.486839	alınan
-4.66293	alınca
-4.223597	alındı
-4.96396	alınma
-4.96396	alınmadı
-4.310748	alınmaz
-4.787869	alınmış
-4.96396	alınmıştır
-4.96396	alınır
-4.96396	alınırdı
-3.708688	alıp
-3.75984	alır
-4.787869	alırdı
-4.96396	alırdım
-4.787869	alırken
-4.787869	alırsa
-4.96396	alırsam
-4.486839	alırsan
-4.56602	alırsın
-4.310748	alırım
-4.787869	alıver
-3.96396	alıyor
-4.26499	alıyordu
-4.96396	alıyorduk
-4.96396	alıyordum
-4.96396	alıyorlar
-4.96396	alıyorlarsa
-4.96396	alıyorsun
-4.26499	alıyorum
-4.96396	alışkanlıkla
-4.96396	alışkanlığı
-4.56602	alışkın
-4.96396	alışkındı
-4.96396	alışkınız
-4.96396	alışmadık
-4.96396	alışmamıştım
-4.96396	alışmayan
-4.66293	alışmış
-4.96396	alışmışa
-4.96396	alışmıştım
-4.787869	alışsan
-4.96396	alıştılar
-4.66293	alıştım
-4.96396	alıştıracaksın
-4.96396	alıştırır
-4.96396	alıştığı
-4.787869	alışveriş
-4.787869	alışverişi
-4.66293	alışverişte
-4.96396	alışık
-4.96396	alışınca
-4.96396	alışını
-4.96396	alışının
-4.787869	alışır
-4.96396	alışığım
-2.775032	ama
-4.96396	amacı
-4.787869	amacım
-4.66293	amacın
-3.574794	aman
-4.310748	amanın
-4.787869	aması
-4.787869	amaç
-4.96396	amaçlanan
-4.96396	amaçlanıyor
-4.787869	ambar
-4.96396	ambara
-4.96396	ambarcı
-4.96396	ambardan
-4.96396	ambarları
-4.96396	ambarı
-4.96396	ambarın
-4.56602	ambarında
-4.96396	ambarındaki
-4.96396	amberidir
-4.419892	ambulans
-4.486839	amca
-4.96396	amcam
-4.96396	amcamı
-4.96396	amcası
-4.66293	amele
-4.787869	amelelik
-4.66293	amelenin
-4.787869	amelesi
-4.96396	ameleye
-4.185809	ameliyat
-4.96396	ameliyata
-4.96396	ameliyatsız
-4.66293	ameliyatta
-4.787869	ameliyattan
-4.96396	ameliyatı
-4.787869	ameliyatın
-4.66293	ameliyatında
-4.96396	amerika
-4.787869	amerikada
-4.787869	amerikalı
-4.787869	amerikalıdır
-4.787869	amerikalılar
-4.787869	amerikan
-4.96396	amfibi
-4.96396	amfizematöz
-4.787869	amin
-4.96396	amir
-4.486839	amma
-4.96396	ampisilin
-4.96396	ampulü
-4.96396	amuca
-4.96396	amına
-3.621537	an
-3.773628	ana
-4.56602	anacığım
-4.787869	anadan
-4.787869	anadolu
-4.96396	anadoluyu
-4.787869	anafor
-4.96396	anaforlamadığımız
-4.223597	anahtar
-4.96396	anahtarla
-4.66293	anahtarlar
-4.787869	anahtarları
-4.96396	anahtarların
-4.787869	anahtarlarını
-4.223597	anahtarı
-4.96396	anahtarın
-4.96396	analist
-4.96396	analistler
-4.96396	analizi
-4.96396	analı
-4.96396	analık
-4.56602	anam
-4.96396	anama
-4.96396	anamdan
-4.96396	anamla
-4.96396	anamı
-4.787869	anamın
-4.96396	anamızdan
-4.486839	anan
-4.96396	anana
-4.96396	anansa
-4.96396	ananı
-4.486839	ananın
-4.96396	anaoğul
-4.034541	anası
-4.56602	anasına
-4.66293	anasından
-4.56602	anasını
-4.96396	anasının
-4.787869	anasıyla
-4.96396	anasız
-4.96396	anayasayı
-4.66293	anayı
-4.96396	anaç
-3.432481	ancak
-3.592892	anda
-4.96396	andaki
-4.486839	andan
-4.96396	andrea
-4.96396	andy
-4.96396	andıran
-4.96396	andırıyor
-4.787869	andırıyordu
-4.96396	anekoik
-4.96396	angeles
-4.96396	angın
-4.56602	ani
-4.787869	aniden
-4.96396	ankara
-4.787869	ankarada
-4.787869	ankaradan
-4.96396	ankaranın
-4.419892	ankaraya
-4.96396	ankete
-4.787869	anki
-4.96396	anla
-4.3619	anladı
-4.787869	anladık
-4.96396	anladıkça
-4.787869	anladılar
-3.733511	anladım
-3.986236	anladın
-4.3619	anladınız
-4.96396	anladığımı
-4.96396	anladığına
-4.96396	anlam
-4.223597	anlama
-4.787869	anlamadan
-4.96396	anlamadı
-4.787869	anlamadık
-4.151047	anlamadım
-4.787869	anlamadın
-4.787869	anlamadınız
-4.96396	anlamadığı
-4.66293	anlamadığım
-4.486839	anlamak
-4.787869	anlamakta
-4.96396	anlamaktan
-4.96396	anlamalarına
-4.787869	anlamalısın
-4.96396	anlamam
-4.96396	anlamama
-4.96396	anlamamış
-4.96396	anlamamıştım
-4.96396	anlamanı
-4.66293	anlamaya
-4.787869	anlamayacak
-4.96396	anlamayan
-4.96396	anlamayana
-4.66293	anlamayarak
-4.96396	anlamayın
-4.66293	anlamaz
-4.66293	anlamda
-4.56602	anlamlı
-4.419892	anlamı
-4.419892	anlamını
-4.56602	anlamıyor
-4.96396	anlamıyordu
-4.787869	anlamıyordum
-4.96396	anlamıyormuş
-4.66293	anlamıyorsun
-4.96396	anlamıyorsunuz
-4.088899	anlamıyorum
-4.419892	anlamış
-4.96396	anlamışlar
-4.486839	anlamıştı
-4.486839	anlamıştım
-4.26499	anlar
-4.96396	anlarda
-4.96396	anlarlar
-4.96396	anlarmış
-4.66293	anlarsın
-4.96396	anlarsınız
-4.66293	anlarım
-4.96396	anlarız
-4.96396	anlasınlar
-3.903262	anlat
-4.96396	anlatabildim
-4.96396	anlatabilecek
-4.96396	anlatabiliyor
-4.66293	anlatacak
-4.96396	anlatacaksın
-4.96396	anlatacaktım
-4.96396	anlatacaktın
-4.96396	anlatacağım
-4.96396	anlatacağız
-4.96396	anlatalım
-4.96396	anlatamadım
-4.96396	anlatamam
-4.96396	anlatamamışsın
-4.96396	anlatamazsam
-4.96396	anlatamıyordum
-4.96396	anlatamıyoruz
-4.96396	anlatan
-4.96396	anlatana
-4.310748	anlatayım
-4.96396	anlatma
-4.96396	anlatmadı
-4.96396	anlatmadım
-4.787869	anlatmadın
-4.26499	anlatmak
-4.96396	anlatmakla
-4.96396	anlatmaktansa
-4.96396	anlatmama
-4.96396	anlatması
-4.419892	anlatmaya
-4.787869	anlatmış
-4.66293	anlatmıştım
-4.66293	anlatsana
-4.96396	anlatsın
-4.034541	anlattı
-4.96396	anlattıkları
-4.96396	anlattıktan
-4.96396	anlattılar
-4.96396	anlattım
-4.787869	anlattın
-4.96396	anlattıran
-4.96396	anlattığım
-4.66293	anlattığına
-4.96396	anlatılanlar
-4.66293	anlatın
-4.96396	anlatıncaya
-4.96396	anlatıp
-4.96396	anlatır
-4.96396	anlatırsın
-4.486839	anlatırım
-4.56602	anlatıyordu
-4.96396	anlatıyorlardı
-4.3619	anlatıyorsun
-4.96396	anlayabileceğiniz
-4.96396	anlayabilirim
-4.96396	anlayabiliyorum
-4.96396	anlayacak
-4.787869	anlayacaksın
-4.96396	anlayacaksınız
-4.96396	anlayacaktır
-4.96396	anlayacağımdan
-4.787869	anlayacağın
-4.96396	anlayacağınız
-4.787869	anlayamadı
-4.56602	anlayamadım
-4.96396	anlayamadın
-4.66293	anlayamadığı
-4.56602	anlayamadığım
-4.96396	anlayamayarak
-4.96396	anlayamazsın
-4.66293	anlayamıyordum
-4.787869	anlayamıyorum
-4.486839	anlayan
-4.96396	anlayana
-4.96396	anlayanların
-4.787869	anlayarak
-4.486839	anlayınca
-4.66293	anlayışlı
-4.96396	anlayışı
-4.96396	anlayışınız
-4.96396	anlaşabiliriz
-4.96396	anlaşalım
-4.185809	anlaşma
-4.96396	anlaşmadan
-4.66293	anlaşmamız
-4.96396	anlaşmamıştık
-4.66293	anlaşması
-4.96396	anlaşmazlık
-4.96396	anlaşmazlığın
-4.96396	anlaşmazsak
-4.96396	anlaşmışlardı
-4.96396	anlaşmışlardır
-4.56602	anlaştık
-4.96396	anlaşılabilir
-4.787869	anlaşılacak
-4.96396	anlaşılacağını
-4.787869	anlaşılan
-4.419892	anlaşıldı
-4.96396	anlaşılmasına
-4.223597	anlaşılmaz
-4.96396	anlaşılmıyordu
-4.66293	anlaşılır
-4.96396	anlaşılırdı
-4.96396	anlaşılıyor
-4.486839	anlaşılıyordu
-4.96396	anliyor
-4.96396	anlı
-4.088899	anlıyor
-4.96396	anlıyordu
-4.185809	anlıyordum
-4.96396	anlıyorlardı
-4.486839	anlıyorsun
-4.96396	anlıyorsunuz
-3.787869	anlıyorum
-3.787869	anne
-4.787869	anneciğim
-4.96396	annelerinin
-4.034541	annem
-4.96396	annemdi
-4.96396	anneme
-4.66293	annemi
-4.787869	annemin
-4.96396	annemle
-4.96396	annemsin
-4.185809	annen
-4.96396	anneni
-4.66293	anneniz
-4.96396	annenizin
-4.96396	annenle
-4.3619	annesi
-4.96396	annesine
-4.66293	annesinin
-4.96396	annesisin
-4.787869	annesiyim
-4.787869	annesiyle
-4.787869	anormal
-4.56602	anormallik
-4.96396	ant
-4.96396	antep
-4.96396	antepsin
-4.96396	anterobazal
-4.96396	anteromedial
-4.96396	anthony
-4.787869	antiaritmik
-4.96396	antibiyoterapisine
-4.787869	antibiyotik
-4.66293	antidiyabetik
-4.56602	antihipertansif
-4.66293	antika
-4.787869	antikoagulan
-4.96396	antonio
-4.96396	antrenör
-4.96396	antropoloji
-4.787869	anzavur
-4.787869	anı
-4.96396	anılmaz
-4.787869	anılır
-4.96396	anıtın
-4.66293	aort
-4.787869	aorta
-4.787869	aortada
-4.96396	aortopulmoner
-4.787869	ap
-4.787869	apartman
-4.787869	apartmanda
-4.56602	apartmanın
-4.66293	apaçık
-4.787869	apikal
-4.66293	apikoposterior
-3.75984	aptal
-4.66293	aptala
-4.3619	aptalca
-4.96396	aptalcaydı
-4.787869	aptallar
-4.96396	aptalları
-4.96396	aptallaşma
-4.96396	aptallık
-4.96396	aptallıktır
-4.96396	aptallığa
-4.56602	aptalım
-4.787869	aptalın
-4.96396	aptes
-4.96396	apteshaneleri
-4.96396	aptesliğin
-4.419892	ar
-3.548987	ara
-3.817832	araba
-4.787869	arabacı
-4.96396	arabacılık
-4.3619	arabada
-4.787869	arabadan
-4.787869	arabadayım
-4.419892	arabalar
-4.787869	arabalara
-4.96396	arabalarda
-4.96396	arabalardan
-4.56602	arabaların
-4.96396	arabalarının
-4.96396	arabalı
-4.66293	arabam
-4.96396	arabama
-4.96396	arabamız
-4.56602	araban
-4.96396	arabana
-4.3619	arabanı
-4.419892	arabanın
-4.66293	arabası
-4.96396	arabasına
-4.96396	arabasını
-4.96396	arabasının
-4.310748	arabaya
-4.3619	arabayı
-4.96396	aracılığıyla
-4.96396	aracıyım
-4.118862	arada
-4.66293	aradaki
-4.3619	aradan
-4.486839	aradı
-4.787869	aradılar
-4.223597	aradım
-4.66293	aradın
-4.96396	aradınız
-4.787869	aradığı
-4.96396	aradığım
-4.96396	aradığımı
-4.66293	aradığın
-4.96396	aradığına
-4.787869	aradığını
-4.787869	aradığınız
-4.96396	arafattan
-4.66293	araladı
-4.66293	aralandı
-4.96396	araları
-4.96396	aralarına
-4.088899	aralarında
-4.787869	aralarından
-4.96396	aralarındaydı
-4.96396	aralayarak
-3.720922	aralık
-4.96396	aralıka
-4.96396	aralıkla
-4.787869	aralıklarla
-4.486839	aralıkta
-4.96396	aralıktan
-4.96396	aralıktı
-4.96396	aralığa
-4.66293	aralığına
-4.96396	aralığından
-4.66293	arama
-4.96396	aramadı
-4.787869	aramadın
-4.66293	aramak
-4.96396	aramakla
-4.96396	aramakta
-4.96396	aramaktan
-4.96396	aramalıydın
-4.96396	aramalıyım
-4.96396	aramamak
-4.96396	aramamı
-4.96396	aramanı
-4.96396	araması
-4.223597	aramaya
-4.96396	aramayı
-4.787869	aramda
-4.96396	aramıyor
-4.96396	aramız
-4.223597	aramızda
-4.66293	aramızdaki
-4.96396	aramızı
-4.66293	aramış
-4.96396	aramışlar
-4.96396	aramıştınız
-4.96396	arandı
-4.96396	arandıktan
-4.787869	arandığı
-4.96396	aranırken
-4.96396	aranıyor
-4.96396	aranıza
-4.66293	arap
-4.66293	araplar
-4.96396	arapça
-4.96396	arapın
-4.3619	arar
-4.787869	ararken
-4.96396	ararmış
-4.96396	ararsan
-4.66293	ararsın
-4.223597	ararım
-4.66293	ararız
-4.96396	arasam
-4.310748	arası
-4.185809	arasına
-3.509115	arasında
-4.310748	arasındaki
-4.088899	arasından
-4.96396	arasındaydı
-4.96396	arattıracaktı
-4.96396	aratır
-4.96396	aravurgunun
-4.118862	araya
-4.787869	arayacak
-4.787869	arayacaksın
-4.96396	arayacaktı
-4.486839	arayacaktım
-4.96396	arayacaktır
-4.419892	arayacağım
-4.96396	arayacağız
-4.66293	arayalım
-4.96396	arayamadık
-4.419892	arayan
-4.96396	arayanlar
-4.56602	arayın
-4.96396	arayıncaya
-4.787869	arayıp
-4.96396	arazi
-4.787869	araç
-4.96396	araçlar
-4.96396	araçlarının
-4.96396	araştır
-4.96396	araştıracağım
-4.96396	araştırdım
-4.96396	araştırma
-4.96396	araştırmacılardan
-4.96396	araştırmak
-4.96396	araştırması
-4.787869	araştırmaya
-4.96396	araştırmışlar
-4.96396	araştırıcı
-4.96396	araştırınca
-4.96396	araştırır
-4.96396	araştırıyordum
-4.96396	araştırıyorum
-4.96396	araştırıyoruz
-4.96396	archie
-4.96396	arda
-4.96396	ardıcın
-4.96396	ardımdan
-4.486839	ardına
-4.96396	ardınca
-4.56602	ardında
-4.185809	ardından
-4.96396	ardıç
-4.96396	arefe
-4.96396	arenstorf
-4.96396	arif
-4.66293	arife
-4.96396	aritmetikten
-4.088899	arka
-4.486839	arkada
-4.96396	arkadaki
-4.787869	arkadan
-3.802592	arkadaş
-4.26499	arkadaşlar
-4.66293	arkadaşlardan
-4.96396	arkadaşlarla
-4.787869	arkadaşları
-4.3619	arkadaşlarım
-4.96396	arkadaşlarımdan
-4.96396	arkadaşlarımın
-4.66293	arkadaşların
-4.66293	arkadaşlarına
-4.96396	arkadaşlarını
-4.787869	arkadaşlarının
-4.419892	arkadaşlık
-4.96396	arkadaşlığa
-4.96396	arkadaşlığından
-4.66293	arkadaştan
-4.96396	arkadaştı
-4.96396	arkadaştık
-4.96396	arkadaştılar
-4.96396	arkadaşça
-4.26499	arkadaşı
-3.802592	arkadaşım
-4.96396	arkadaşımdan
-4.96396	arkadaşımdı
-4.787869	arkadaşımla
-4.96396	arkadaşımı
-4.486839	arkadaşımın
-4.223597	arkadaşın
-4.486839	arkadaşına
-4.96396	arkadaşından
-4.56602	arkadaşını
-4.787869	arkadaşınım
-4.26499	arkadaşının
-4.96396	arkadaşınız
-4.96396	arkadaşıyla
-4.787869	arkadaşıyım
-4.486839	arkadaşız
-4.96396	arkalarına
-4.66293	arkalarından
-4.96396	arkalı
-4.96396	arkam
-4.96396	arkama
-4.787869	arkamda
-4.26499	arkamdan
-4.96396	arkamı
-4.96396	arkamıza
-4.66293	arkamızda
-4.787869	arkamızdan
-4.66293	arkana
-4.96396	arkanda
-4.787869	arkandayım
-4.419892	arkanı
-4.96396	arkanız
-4.96396	arkanıza
-4.66293	arkası
-3.86705	arkasına
-3.986236	arkasında
-4.486839	arkasındaki
-4.96396	arkasındakilere
-3.817832	arkasından
-4.96396	arkasındaydı
-4.088899	arkasını
-4.223597	arkaya
-4.96396	arkbaşında
-4.96396	arlanmaz
-4.787869	arlanır
-4.96396	armağanı
-4.66293	armudu
-4.486839	armudun
-4.96396	armudunu
-4.96396	armut
-4.96396	arnavutlar
-4.66293	arnavutluk
-4.787869	arnavutlukta
-4.96396	arnavuttur
-4.118862	arpa
-4.96396	arpacıya
-4.96396	arpadan
-4.96396	arpaya
-4.96396	arsadaki
-4.96396	arsaya
-4.26499	arslan
-4.96396	arslana
-4.96396	arslandan
-4.56602	arsız
-4.96396	arsızın
-4.66293	art
-4.96396	artabilir
-4.56602	artan
-4.787869	artar
-4.96396	artarak
-4.787869	arter
-4.96396	arteriovenöz
-4.96396	arteriyel
-4.56602	arterlerde
-4.96396	arthur
-4.96396	artistleri
-4.66293	artması
-4.96396	artmaz
-4.66293	artmış
-4.96396	artmıştır
-4.3619	arttı
-4.66293	arttıkça
-4.96396	arttırdı
-4.96396	artı
-2.974956	artık
-4.96396	artırarak
-4.66293	artırdı
-4.66293	artırır
-4.96396	artırıyordu
-4.66293	artıyor
-4.310748	artıyordu
-4.96396	artığını
-4.419892	artış
-4.787869	artışları
-4.66293	artışı
-4.96396	arz
-4.66293	arzu
-4.787869	arzular
-4.96396	arzuları
-4.96396	arzuların
-4.96396	arzularına
-4.96396	arzunuz
-4.66293	arzusu
-4.96396	arzusuna
-4.96396	arzusunda
-4.96396	arzusunu
-4.419892	arı
-4.96396	arıca
-4.96396	arıdan
-4.486839	arık
-4.96396	arıklıkta
-4.96396	arılar
-4.151047	arıyor
-4.96396	arıyordu
-4.3619	arıyordum
-4.66293	arıyordun
-4.787869	arıyorlar
-4.96396	arıyormuş
-4.151047	arıyorsun
-4.486839	arıyorsunuz
-4.419892	arıyorum
-4.56602	arıyoruz
-4.96396	arşın
-4.66293	arşınına
-4.96396	asabidir
-4.96396	asabileşme
-4.96396	asalaklara
-4.96396	asansör
-4.96396	asansörde
-4.96396	asansörü
-4.96396	asarız
-4.96396	asayişten
-4.96396	asayım
-4.96396	asendan
-4.3619	asfalt
-4.96396	asfalta
-4.96396	asfaltı
-4.96396	asgari
-4.96396	ashdownun
-4.56602	asil
-4.96396	asilden
-4.96396	asildi
-4.96396	asildir
-4.66293	asistan
-4.96396	asistanlar
-4.96396	asistanımız
-4.96396	asistanıyla
-4.66293	asiye
-4.96396	asiyede
-4.3619	asiyenin
-4.96396	asiyeye
-4.486839	asiyeyi
-4.486839	asker
-4.787869	askerden
-4.96396	askerdeydim
-4.96396	askerdeyken
-4.96396	askere
-4.96396	askeri
-4.96396	askerin
-4.66293	askerler
-4.96396	askerleriyle
-4.96396	askerlik
-4.96396	askerlikle
-4.96396	askıdaki
-3.75984	asla
-4.26499	aslan
-4.96396	aslana
-4.96396	aslandan
-4.96396	aslanlar
-4.96396	aslanım
-4.96396	aslen
-4.56602	aslı
-4.96396	aslımız
-4.66293	aslına
-4.118862	aslında
-4.66293	aslını
-4.96396	asma
-4.96396	asmadıklarına
-4.96396	asmadım
-4.787869	asmış
-4.96396	aspirinin
-4.96396	astar
-4.96396	astragan
-4.96396	astronotları
-4.96396	asyanın
-4.96396	asıktı
-3.787869	asıl
-4.96396	asılan
-4.96396	asıldı
-4.96396	asılmaz
-4.787869	asılmış
-4.96396	asılmıştı
-4.96396	asılsız
-4.787869	asılı
-4.787869	asılır
-4.96396	asırda
-3.524627	at
-3.903262	ata
-4.66293	atacak
-4.96396	atacağı
-4.96396	atadan
-4.96396	ataktı
-4.96396	atalar
-4.96396	ataların
-4.96396	atalete
-4.96396	atalım
-4.96396	atamamıştı
-4.96396	atamaz
-4.96396	atamazsın
-4.96396	atan
-4.96396	atanan
-4.96396	atanın
-4.96396	atar
-4.486839	atarak
-4.96396	atasını
-4.66293	atelektazik
-4.96396	atelektaziler
-4.787869	aterom
-3.720922	ateş
-4.419892	ateşe
-4.310748	ateşi
-4.96396	ateşin
-4.96396	ateşkes
-4.787869	ateşledi
-4.96396	ateşledim
-4.96396	ateşleme
-4.96396	ateşlenerek
-4.96396	ateşler
-4.96396	ateşleyin
-4.66293	ateşli
-4.96396	ateşliydi
-4.787869	ateşte
-4.56602	ateşçi
-4.96396	ateşçilerine
-4.96396	ateşçinin
-4.96396	ateşçiyi
-4.96396	atfediliyor
-4.96396	atipik
-4.787869	atla
-4.419892	atladı
-4.96396	atladık
-4.96396	atladığım
-4.96396	atlamak
-4.96396	atlamaktan
-4.96396	atlamaya
-4.96396	atlamayı
-4.96396	atlamazsan
-4.96396	atlamıştı
-4.787869	atlantik
-4.96396	atlantikin
-4.96396	atlantikteki
-4.96396	atlantikten
-4.486839	atlar
-4.787869	atları
-4.96396	atlarımızı
-4.66293	atlas
-4.96396	atlatana
-4.96396	atlatma
-4.96396	atlatmak
-4.96396	atlatmaktan
-4.96396	atlattı
-4.96396	atlatırım
-4.787869	atlatıyor
-4.787869	atlayacak
-4.96396	atlayacağım
-4.486839	atlayarak
-4.96396	atlayınca
-4.66293	atlayıp
-4.66293	atlı
-4.66293	atlılar
-4.787869	atlıya
-4.96396	atlıyordum
-4.56602	atma
-4.56602	atmaca
-4.787869	atmacanın
-4.96396	atmaca’ya
-4.96396	atmadan
-4.96396	atmadım
-4.66293	atmak
-4.96396	atmaktan
-4.96396	atmamalı
-4.56602	atmaya
-4.96396	atmıyoruz
-4.66293	atmış
-4.56602	atmışlar
-4.66293	atmıştı
-4.96396	atmışız
-4.96396	atsa
-4.96396	atsan
-4.56602	atta
-4.419892	attan
-3.802592	attı
-4.96396	attıkları
-4.787869	attıktan
-4.96396	attılar
-4.3619	attım
-4.96396	attırmak
-4.96396	attığım
-4.66293	attığın
-4.96396	atölyeleri
-4.118862	atı
-4.96396	atıcı
-4.96396	atıdır
-4.96396	atılacak
-4.96396	atılacaktı
-4.96396	atılacaktım
-4.56602	atılan
-4.96396	atılarak
-4.419892	atıldı
-4.96396	atıldılar
-4.66293	atıldım
-4.96396	atıldığı
-4.96396	atılmasına
-4.787869	atılmış
-4.96396	atılmıştı
-4.96396	atılmıştım
-4.787869	atılıp
-4.96396	atılıyor
-4.96396	atılıyorlardı
-4.96396	atım
-4.787869	atımı
-4.96396	atımın
-3.96396	atın
-4.787869	atına
-4.787869	atınca
-4.66293	atıp
-4.486839	atıyor
-4.486839	atıyordu
-4.96396	atıyorsun
-4.96396	atış
-4.96396	augsburg
-4.96396	authorware
-4.56602	av
-4.56602	ava
-4.96396	avantanın
-4.96396	avantayı
-4.66293	avarya
-4.223597	avaz
-4.96396	avazları
-4.787869	avazı
-4.96396	avcumda
-4.96396	avcunun
-4.787869	avcı
-4.96396	avcılar
-4.96396	avcının
-4.96396	avda
-4.96396	avdan
-4.96396	avdettir
-4.96396	avizeler
-4.787869	avlanmaz
-4.96396	avlanmış
-4.787869	avlanır
-4.96396	avlar
-4.96396	avlayanın
-4.96396	avluda
-4.96396	avlusunda
-4.96396	avluya
-4.034541	avni
-4.419892	avninin
-4.96396	avniye
-4.56602	avradı
-4.66293	avradın
-3.817832	avrat
-4.787869	avratlar
-4.96396	avratta
-4.96396	avrattan
-4.034541	avro
-4.96396	avroluk
-4.56602	avroya
-4.96396	avroyu
-4.486839	avrupa
-4.787869	avrupada
-4.96396	avrupalı
-4.96396	avuca
-4.56602	avucumun
-4.787869	avucunda
-4.96396	avucundaki
-4.96396	avucundakini
-4.96396	avucunun
-4.96396	avucuyla
-4.66293	avukat
-4.96396	avukatla
-4.96396	avukatlar
-4.96396	avukatlığını
-4.96396	avukatsın
-4.96396	avukatım
-4.96396	avukatımı
-4.96396	avukatın
-4.96396	avustralya
-4.96396	avustralyadaki
-4.96396	avustralya’daki
-4.96396	avusturyalı
-4.96396	avutan
-4.486839	avuç
-4.96396	avuçlarıma
-4.787869	avuçlarımın
-4.96396	avuçlarına
-4.96396	avı
-4.96396	avımı
-4.96396	avına
-4.96396	avından
-3.55742	ay
-4.96396	aya
-3.817832	ayak
-4.66293	ayakkabı
-4.96396	ayakkabılan
-4.787869	ayakkabılarım
-4.96396	ayakkabım
-4.96396	ayakkaplarının
-4.96396	ayaklan
-4.787869	ayaklar
-4.96396	ayaklarda
-4.310748	ayakları
-4.96396	ayaklarım
-4.66293	ayaklarımı
-4.787869	ayaklarımızın
-4.787869	ayaklarına
-4.96396	ayaklarında
-4.787869	ayaklarından
-4.419892	ayaklarını
-4.486839	ayaklarının
-4.96396	ayaklarınızın
-4.787869	ayaklarıyla
-4.185809	ayakta
-4.96396	ayaktaydım
-4.96396	ayakucunda
-4.96396	ayakucunu
-4.96396	ayalimi
-4.96396	ayanı
-4.96396	ayardadır
-4.96396	ayarladım
-4.96396	ayarladın
-4.96396	ayarlanarak
-4.787869	ayarlandı
-4.96396	ayarlarım
-4.96396	ayarlarız
-4.96396	ayarlayabilirim
-4.96396	ayartılmamıza
-4.96396	ayaza
-4.66293	ayazda
-3.833627	ayağa
-4.310748	ayağı
-4.96396	ayağım
-4.96396	ayağıma
-4.96396	ayağımda
-4.96396	ayağımla
-4.96396	ayağımın
-4.66293	ayağın
-4.66293	ayağına
-4.66293	ayağında
-4.96396	ayağındaki
-4.66293	ayağından
-4.310748	ayağını
-4.56602	ayağının
-4.96396	ayağınızın
-4.787869	ayağıyla
-4.310748	ayda
-4.787869	aydan
-4.96396	aydında
-4.96396	aydınlanmak
-4.96396	aydınlanması
-4.787869	aydınlanmaya
-4.96396	aydınlanıyorduk
-4.96396	aydınlatarak
-4.96396	aydınlatayım
-4.787869	aydınlatmıştı
-4.66293	aydınlattığı
-4.96396	aydınlatıldı
-4.96396	aydınlatılmaya
-4.96396	aydınlatılmış
-4.787869	aydınlatıyordu
-4.419892	aydınlık
-4.787869	aydınlıktı
-4.96396	aydınlığa
-4.96396	aydınlığın
-4.66293	aydır
-4.96396	ayin
-4.96396	aykırı
-4.96396	aylakçılığa
-4.96396	aylakçının
-4.419892	aylar
-4.96396	aylarca
-4.66293	aylardan
-4.96396	aylardır
-4.96396	ayların
-4.56602	aylık
-4.66293	ayna
-4.787869	aynada
-4.787869	aynadaki
-4.96396	aynalı
-4.96396	aynanın
-4.96396	aynası
-4.96396	aynasıdır
-4.96396	aynasında
-4.96396	aynaya
-4.009717	aynen
-3.278219	aynı
-4.96396	aynısı
-4.96396	aynısını
-4.787869	aynıyız
-4.96396	ayol
-4.088899	ayran
-4.96396	ayrandan
-4.96396	ayrandır
-4.96396	ayranlarına
-4.787869	ayranı
-4.787869	ayranım
-4.96396	ayranın
-4.96396	ayranını
-4.223597	ayrı
-3.922567	ayrıca
-4.787869	ayrıl
-4.96396	ayrılacak
-4.96396	ayrılalı
-4.96396	ayrılalım
-4.96396	ayrılamadığı
-4.96396	ayrılamam
-4.66293	ayrılan
-4.96396	ayrılanı
-4.486839	ayrıldı
-4.486839	ayrıldık
-4.787869	ayrıldılar
-4.486839	ayrıldım
-4.96396	ayrıldınız
-4.96396	ayrıldığımız
-4.787869	ayrılma
-4.96396	ayrılmadım
-4.96396	ayrılmadığımız
-4.486839	ayrılmak
-4.96396	ayrılmanı
-4.96396	ayrılmanın
-4.96396	ayrılması
-4.96396	ayrılmasıyla
-4.787869	ayrılmayalım
-4.96396	ayrılmayın
-4.419892	ayrılmış
-4.787869	ayrılık
-4.787869	ayrılın
-4.96396	ayrılınca
-4.787869	ayrılıp
-4.787869	ayrılır
-4.96396	ayrılıyor
-4.96396	ayrılıyorlar
-4.96396	ayrılıyorsun
-4.96396	ayrılıyorum
-4.96396	ayrılıyoruz
-4.96396	ayrımcılık
-4.96396	ayrımız
-4.96396	ayrıntılar
-4.56602	ayrıntılı
-4.96396	ayrıydılar
-4.787869	ayva
-4.96396	ayvanın
-4.96396	ayvayı
-4.96396	ayvaz
-4.96396	ayyar
-3.96396	ayı
-4.96396	ayıbı
-4.96396	ayıbını
-4.96396	ayık
-4.56602	ayılar
-4.56602	ayın
-4.787869	ayına
-4.56602	ayında
-4.787869	ayının
-4.26499	ayıp
-4.96396	ayıpsın
-4.96396	ayıpsız
-4.787869	ayıptır
-4.96396	ayır
-4.96396	ayırabiliyordu
-4.96396	ayıracağından
-4.96396	ayıramadım
-4.96396	ayıramıyordu
-4.96396	ayıran
-4.787869	ayırana
-4.787869	ayırdığınız
-4.96396	ayırmadan
-4.56602	ayırmak
-4.96396	ayırmamaya
-4.66293	ayırmaya
-4.96396	ayırmayan
-4.96396	ayırmayarak
-4.96396	ayırmış
-4.96396	ayırt
-4.96396	ayırıyordu
-4.96396	ayırıyorduk
-4.96396	ayıyı
-4.787869	ayşe
-3.395758	az
-4.787869	aza
-4.96396	azabı
-4.96396	azabını
-4.96396	azalarının
-4.787869	azaldı
-4.787869	azaldığını
-4.96396	azalmayan
-4.787869	azalmış
-4.96396	azalsın
-4.96396	azaltacaktım
-4.96396	azalttılar
-4.96396	azaltılacak
-4.96396	azalınca
-4.96396	azalırken
-4.787869	azalıyor
-4.96396	azalıyordu
-4.96396	azameti
-4.96396	azan
-4.486839	azap
-4.96396	azapları
-4.96396	azaptan
-4.96396	azar
-4.96396	azarladı
-4.96396	azarlayarak
-4.96396	azarmış
-4.96396	azasından
-4.96396	azdan
-4.96396	azdır
-4.96396	azgını
-4.787869	azime
-4.96396	azitromisin
-4.96396	aziz
-4.96396	azizdir
-4.96396	azizim
-4.96396	azlıkta
-4.96396	azlıktılar
-4.96396	azmaz
-4.96396	azmetmişti
-4.96396	azmettiniz
-4.96396	azmışlardı
-4.96396	azraili
-4.56602	azı
-4.185809	azıcık
-4.96396	azık
-4.96396	azılı
-4.96396	azımsayıp
-4.56602	azından
-4.96396	azınlık
-4.787869	azınlıklara
-4.96396	azınlıklardan
-4.96396	azıtıyordu
-3.401667	aç
-4.787869	aça
-4.96396	açabilecek
-4.66293	açabilir
-4.96396	açabilirsin
-4.96396	açabiliyorlardı
-4.56602	açacak
-4.96396	açacaksın
-4.96396	açacaktım
-4.96396	açalım
-4.96396	açamadım
-4.66293	açan
-4.185809	açar
-4.419892	açarak
-4.96396	açarlar
-4.96396	açarım
-4.96396	açlardan
-4.56602	açlık
-4.419892	açlıktan
-4.96396	açlığı
-4.787869	açma
-4.96396	açmadan
-4.96396	açmadı
-4.96396	açmadık
-4.96396	açmadım
-4.96396	açmadığını
-4.787869	açmak
-4.96396	açmalısın
-4.96396	açmama
-4.96396	açması
-4.96396	açmaya
-4.96396	açmayı
-4.787869	açmaz
-4.96396	açmıyor
-4.96396	açmıyordu
-4.96396	açmıyorsun
-4.787869	açmış
-4.787869	açmıştı
-3.802592	açtı
-4.96396	açtıkça
-4.66293	açtılar
-4.223597	açtım
-4.787869	açtın
-4.96396	açtınız
-4.96396	açtırdı
-4.96396	açtırmıyor
-4.787869	açtığı
-4.96396	açtığım
-4.96396	açtığın
-4.96396	açtığını
-4.96396	açı
-4.56602	açıdan
-3.602232	açık
-4.96396	açıkgözlük
-4.96396	açıkla
-4.96396	açıkladı
-4.56602	açıklama
-4.66293	açıklamak
-4.96396	açıklamama
-4.96396	açıklamana
-4.787869	açıklaması
-4.96396	açıklamaya
-4.56602	açıklanacak
-4.96396	açıklanmamışlar
-4.96396	açıklayabilir
-4.96396	açıklayabilirim
-4.96396	açıklayacak
-4.96396	açıklayacaksın
-4.96396	açıklayacağım
-4.66293	açıklayayım
-4.96396	açıklayın
-4.96396	açıklıkla
-4.96396	açıklığa
-4.96396	açıkmış
-4.66293	açıkta
-4.96396	açıktan
-4.96396	açıktayım
-4.66293	açıktı
-4.96396	açıktır
-4.310748	açıkça
-4.787869	açıkçası
-4.96396	açılacak
-4.96396	açılacağı
-4.26499	açılan
-4.787869	açılarak
-4.088899	açıldı
-4.96396	açıldıktan
-4.787869	açıldığı
-4.96396	açıldığını
-4.96396	açılma
-4.96396	açılmamıştı
-4.787869	açılması
-4.96396	açılmasına
-4.96396	açılmasını
-4.66293	açılmaya
-4.787869	açılmaz
-4.96396	açılmıyordu
-4.96396	açılmış
-4.66293	açılmıştı
-4.96396	açılsın
-4.96396	açılı
-4.787869	açılın
-4.96396	açılınca
-4.486839	açılır
-4.96396	açılırsın
-4.96396	açılırım
-4.787869	açılıyor
-4.96396	açılıyordu
-4.96396	açılış
-4.96396	açılışında
-4.96396	açılışının
-4.56602	açım
-4.185809	açın
-4.151047	açıp
-4.419892	açısından
-4.66293	açıyor
-4.96396	açıyorlardı
-4.787869	açız
-4.787869	açığa
-4.96396	açışında
-4.96396	ağ
-3.787869	ağa
-4.66293	ağabey
-4.310748	ağaca
-4.3619	ağacı
-4.66293	ağacın
-4.96396	ağacına
-4.419892	ağacından
-4.96396	ağacını
-4.787869	ağacının
-4.96396	ağacığım
-4.96396	ağada
-4.96396	ağaların
-4.96396	ağalık
-4.96396	ağam
-4.96396	ağan
-4.310748	ağanın
-4.96396	ağaran
-4.96396	ağarasım
-4.96396	ağartır
-4.96396	ağarınca
-4.96396	ağarırken
-4.96396	ağasının
-4.96396	ağaya
-3.942771	ağaç
-4.56602	ağaçlar
-4.96396	ağaçlardan
-4.96396	ağaçlarla
-4.787869	ağaçları
-4.96396	ağaçlarımızı
-4.486839	ağaçların
-4.96396	ağaçlarını
-4.787869	ağaçlarının
-4.787869	ağaçlı
-4.96396	ağaçlık
-4.787869	ağaçsız
-4.96396	ağaçta
-4.56602	ağaçtan
-4.96396	ağla
-4.56602	ağladı
-4.96396	ağladın
-4.787869	ağladığını
-4.419892	ağlama
-4.56602	ağlamak
-4.96396	ağlamakla
-4.96396	ağlamaklı
-4.96396	ağlamaktır
-4.96396	ağlamalar
-4.96396	ağlamaları
-4.96396	ağlamalarım
-4.96396	ağlamamış
-4.96396	ağlamanın
-4.96396	ağlamasınlar
-4.486839	ağlamaya
-4.96396	ağlamayan
-4.787869	ağlamaz
-4.96396	ağlamışsın
-4.96396	ağlanabileceğini
-4.419892	ağlar
-4.96396	ağlardı
-4.96396	ağlarsa
-4.96396	ağlarsın
-4.96396	ağlarım
-4.787869	ağlasın
-4.96396	ağlatan
-4.96396	ağlatıcı
-4.56602	ağlatır
-4.419892	ağlaya
-4.96396	ağlayacak
-4.96396	ağlayacaktı
-4.486839	ağlayan
-4.787869	ağlayarak
-4.787869	ağlayıp
-4.96396	ağlayış
-4.96396	ağlaşarak
-4.310748	ağlıyor
-4.223597	ağlıyordu
-4.96396	ağlıyordum
-4.96396	ağlıyordun
-4.96396	ağlıyorsun
-4.96396	ağlıyorum
-4.96396	ağnamış
-4.96396	ağrılar
-4.96396	ağrılarda
-4.96396	ağrıları
-4.56602	ağrımaya
-4.96396	ağrın
-4.96396	ağrırsa
-4.185809	ağrısı
-4.787869	ağrısız
-4.66293	ağrıtır
-4.96396	ağrıtıyordu
-4.96396	ağrıya
-4.96396	ağrıyana
-4.310748	ağrıyor
-4.56602	ağustosta
-4.96396	ağustostan
-4.66293	ağustosun
-4.96396	ağza
-4.151047	ağzı
-4.787869	ağzım
-4.96396	ağzıma
-4.419892	ağzımdan
-4.66293	ağzımı
-4.787869	ağzımın
-4.96396	ağzımızı
-4.66293	ağzın
-4.088899	ağzına
-4.66293	ağzında
-4.118862	ağzından
-3.96396	ağzını
-4.66293	ağzının
-4.787869	ağzıyla
-4.96396	ağıl
-4.96396	ağılda
-3.287266	ağır
-4.96396	ağırbaşlı
-4.96396	ağırdan
-4.96396	ağırdı
-4.787869	ağırdır
-4.96396	ağırlaması
-4.96396	ağırlanmaz
-4.66293	ağırlar
-4.96396	ağırlaşarak
-4.96396	ağırlaşmıştı
-4.96396	ağırlaşıverdi
-4.66293	ağırlık
-4.787869	ağırlıklı
-4.96396	ağırlıktan
-4.787869	ağırlığı
-4.787869	ağırlığıyla
-4.96396	ağırıma
-4.26499	ağız
-4.96396	ağızda
-4.787869	ağızdan
-4.96396	ağızlarına
-4.96396	ağızlarını
-4.96396	ağızlarıyla
-4.034541	aş
-4.56602	aşa
-4.96396	aşama
-4.96396	aşamaya
-4.96396	aşan
-4.66293	aşar
-3.66293	aşağı
-4.151047	aşağıda
-4.96396	aşağıdaki
-4.96396	aşağıdalar
-4.56602	aşağıdan
-4.96396	aşağılarda
-4.310748	aşağılık
-4.96396	aşağılıklığını
-4.96396	aşağısı
-4.96396	aşağısındaki
-3.884779	aşağıya
-4.96396	aşağıyı
-4.96396	aşikârede
-4.009717	aşk
-4.56602	aşka
-4.787869	aşkla
-4.96396	aşkları
-4.96396	aşkolsun
-4.66293	aşkım
-4.96396	aşkımı
-4.3619	aşkın
-4.419892	aşkına
-4.96396	aşkındır
-4.96396	aşkını
-4.96396	aşla
-4.96396	aşmada
-4.96396	aşmayan
-4.96396	aşmış
-4.96396	aştıkları
-4.96396	aştım
-4.96396	aşure
-4.26499	aşı
-4.26499	aşık
-4.66293	aşıktım
-4.787869	aşım
-4.96396	aşıma
-4.787869	aşına
-4.96396	aşından
-4.96396	aşınmaz
-4.787869	aşını
-4.66293	aşıp
-4.66293	aşırı
-4.96396	aşırır
-4.96396	aşıyla
-4.66293	aşığın
-4.96396	aşığız
-3.540714	baba
-4.26499	babacığım
-4.787869	babadan
-4.96396	babalarımızın
-3.802592	babam
-4.96396	babama
-4.787869	babamdan
-4.787869	babamla
-4.486839	babamı
-4.66293	babamın
-4.96396	babamız
-3.884779	baban
-4.486839	babana
-4.787869	babanla
-4.66293	babanı
-4.787869	babanım
-4.787869	babanın
-4.787869	babanız
-3.96396	babası
-4.56602	babasına
-4.66293	babasından
-4.56602	babasını
-4.56602	babasının
-4.96396	babasısın
-4.96396	babasıyla
-4.66293	babaya
-4.787869	babayiğit
-4.66293	babayı
-4.96396	babayım
-4.96396	baca
-4.66293	bacadan
-4.66293	bacak
-4.96396	bacakları
-4.96396	bacaklarımda
-4.787869	bacaklarımı
-4.96396	bacaklarımın
-4.66293	bacaklarına
-4.96396	bacaklarında
-4.787869	bacaklarını
-4.96396	bacanağından
-4.787869	bacası
-4.96396	bacağı
-4.96396	bacağım
-4.96396	bacağımı
-4.56602	bacağından
-4.96396	bacısını
-4.96396	badana
-4.96396	badem
-4.96396	badnikte
-4.3619	bahane
-4.96396	bahaneler
-4.96396	bahanen
-4.96396	bahanesini
-4.96396	bahaneyle
-4.56602	bahar
-4.96396	baharda
-4.96396	bahardan
-4.787869	baharı
-4.96396	bahasına
-4.96396	bahayla
-4.96396	bahislerinizi
-4.56602	bahse
-4.96396	bahsedebilir
-4.96396	bahsedeceklerdir
-4.96396	bahsedeceksin
-4.787869	bahsedeceğim
-4.787869	bahseden
-4.96396	bahsederken
-4.96396	bahsederlerdi
-4.96396	bahsederlerken
-4.96396	bahsedildi
-4.96396	bahsedilir
-4.787869	bahsediyor
-4.96396	bahsediyordu
-4.96396	bahsediyordum
-4.96396	bahsediyorlar
-4.3619	bahsediyorsun
-4.787869	bahsediyorsunuz
-4.787869	bahsediyorum
-4.787869	bahsediyoruz
-4.787869	bahsetme
-4.787869	bahsetmek
-4.96396	bahsetmeye
-4.96396	bahsetmezdi
-4.96396	bahsetmiştim
-4.96396	bahsetsenize
-4.787869	bahsetti
-4.96396	bahsettik
-4.96396	bahsettiler
-4.96396	bahsettiği
-4.96396	bahsettiğim
-4.787869	bahsettiğimi
-4.96396	bahsettiğimiz
-4.787869	bahsettiğini
-4.96396	bahsettiğinizi
-4.787869	baht
-4.96396	bahta
-4.56602	bahtiyar
-4.96396	bahtiyarım
-4.66293	bahtı
-4.96396	bahtına
-4.96396	bahçanın
-4.26499	bahçe
-4.96396	bahçecikte
-4.486839	bahçede
-4.787869	bahçedeki
-4.96396	bahçeden
-4.96396	bahçeleri
-4.96396	bahçene
-4.56602	bahçenin
-4.787869	bahçesi
-4.96396	bahçesinden
-4.787869	bahçesini
-4.419892	bahçeye
-4.66293	bahçeyi
-4.787869	bahçıvan
-4.96396	bahçıvanmış
-4.96396	bahşetmez
-4.96396	bahşiş
-3.088899	bak
-4.56602	bakabilir
-4.787869	bakabilirim
-4.96396	bakabilirsin
-4.66293	bakacak
-4.96396	bakacaklar
-4.96396	bakacağım
-4.96396	bakacağımı
-4.96396	bakacağın
-4.96396	bakacağını
-4.96396	bakacağız
-4.96396	bakakalmıştı
-4.96396	bakalum
-3.335571	bakalım
-4.96396	bakamam
-4.96396	bakamayacağım
-4.06087	bakan
-4.96396	bakanlara
-4.96396	bakanların
-4.96396	bakanı
-4.96396	bakanından
-4.034541	bakar
-4.223597	bakarak
-4.787869	bakardı
-4.787869	bakarken
-4.96396	bakarlar
-4.787869	bakarsan
-4.96396	bakarsanız
-4.96396	bakarsın
-4.419892	bakarım
-4.66293	bakarız
-3.922567	bakayım
-4.96396	bakir
-4.787869	bakire
-4.223597	bakkal
-4.96396	bakkalı
-4.66293	bakkalın
-4.96396	bakkalına
-4.96396	bakladan
-4.787869	baklava
-3.986236	bakma
-4.66293	bakmadan
-4.96396	bakmadım
-4.96396	bakmadınız
-4.310748	bakmak
-4.66293	bakmakla
-4.787869	bakmakta
-4.787869	bakmaktan
-4.787869	bakmalı
-4.787869	bakmalıyım
-4.96396	bakmamıştım
-4.96396	bakmanın
-4.96396	bakmasına
-4.96396	bakmasından
-4.06087	bakmaya
-4.96396	bakmayacak
-4.96396	bakmayacağım
-4.787869	bakmayı
-4.56602	bakmayın
-4.66293	bakmaz
-4.96396	bakmazmış
-4.96396	bakmazsan
-4.96396	bakmazsınız
-4.787869	bakmıyor
-4.96396	bakmıyordu
-4.96396	bakmıyordum
-4.96396	bakmıyorum
-4.26499	bakmış
-4.96396	bakmışsın
-4.96396	bakmıştı
-4.223597	baksana
-3.501562	baktı
-4.787869	baktık
-4.96396	baktıkça
-4.223597	baktılar
-3.55742	baktım
-4.66293	baktın
-4.96396	baktıracağım
-4.96396	baktırır
-4.787869	baktığı
-4.486839	baktığım
-4.96396	baktığımda
-4.787869	baktığımı
-4.96396	baktığımız
-4.96396	baktığını
-4.96396	baktığınız
-4.96396	bakıcı
-4.96396	bakılmaz
-4.787869	bakılır
-4.96396	bakılırsa
-4.66293	bakım
-4.96396	bakımda
-4.96396	bakımdan
-4.96396	bakımsız
-4.66293	bakımından
-3.583749	bakın
-4.66293	bakınarak
-4.419892	bakınca
-4.118862	bakındı
-4.486839	bakındım
-4.787869	bakındın
-4.96396	bakınıyordu
-4.96396	bakınıyorlardı
-4.56602	bakınız
-4.310748	bakıp
-4.787869	bakır
-4.96396	bakıver
-4.96396	bakıyon
-4.26499	bakıyor
-3.922567	bakıyordu
-4.96396	bakıyorduk
-4.310748	bakıyordum
-4.56602	bakıyorlar
-4.310748	bakıyorlardı
-4.26499	bakıyorsun
-4.56602	bakıyorsunuz
-4.3619	bakıyorum
-4.66293	bakış
-4.787869	bakışla
-4.96396	bakışlar
-4.787869	bakışlarda
-4.66293	bakışlarla
-4.56602	bakışları
-4.787869	bakışlarımız
-4.96396	bakışlarına
-4.787869	bakışlarında
-4.56602	bakışlarını
-4.96396	bakışlarınız
-4.96396	bakışlı
-4.66293	bakışta
-4.787869	bakıştık
-4.56602	bakıştılar
-4.486839	bakışı
-4.96396	bakışından
-4.96396	bakışının
-4.787869	bakışıp
-4.96396	bakışırken
-4.96396	bakışıyor
-3.942771	bal
-4.96396	balayı
-4.96396	balcı
-4.96396	balcının
-4.56602	baldan
-4.96396	baldırlarına
-4.96396	baldızım
-4.96396	baldızımın
-4.96396	balkan
-4.96396	balkanlarda
-4.96396	balkondan
-4.787869	balmumu
-4.787869	balo
-4.96396	balon
-4.96396	balonu
-4.96396	baloya
-4.419892	balta
-4.96396	baltacı
-4.96396	baltacıların
-4.96396	baltalar
-4.96396	baltalıklarına
-4.96396	baltalıyor
-4.96396	baltanın
-4.96396	baltası
-4.96396	baltayla
-4.96396	balçıkla
-4.96396	balçıklaşan
-4.56602	balı
-4.26499	balık
-4.66293	balıkesir
-4.96396	balıkesirden
-4.96396	balıkesire
-4.787869	balıklar
-4.96396	balıkpazarı
-4.96396	balıkçılıktır
-4.96396	balıkçının
-4.96396	balım
-4.96396	balın
-4.96396	balığa
-4.66293	balığı
-4.96396	balığın
-4.96396	bam
-4.96396	bambaşka
-4.96396	ban
-2.605074	bana
-4.96396	bangonot
-4.96396	bangonottan
-4.787869	banka
-4.787869	bankada
-4.96396	bankadan
-4.96396	bankalar
-4.96396	bankalardan
-4.96396	bankası
-4.96396	banker
-4.96396	banknottu
-4.96396	banknotun
-4.96396	banliyö
-4.96396	banyo
-4.787869	bar
-4.787869	bara
-4.96396	barda
-4.26499	bardak
-4.96396	bardaklarıyla
-4.96396	bardan
-4.96396	bardağı
-4.96396	bardağın
-4.310748	bari
-4.96396	barlardan
-4.96396	barların
-4.96396	barmen
-4.96396	barsakderesi
-4.96396	barselona’ya
-4.56602	barut
-4.787869	barın
-4.96396	barındırmaz
-4.96396	barındırır
-4.96396	barındırıyor
-4.96396	barındırıyordu
-4.96396	barının
-4.96396	barış
-4.96396	barışmamıştı
-4.66293	barıştık
-4.96396	barışçıl
-4.419892	bas
-4.96396	basa
-4.96396	basabileceği
-4.96396	basamak
-4.96396	basamaklarına
-4.96396	basamayacak
-4.787869	basamağa
-4.96396	basanındır
-4.787869	basarlar
-4.96396	basarım
-4.96396	basbayağı
-4.96396	basescu
-4.96396	basiretin
-4.034541	basit
-4.96396	basitlik
-4.96396	basitliği
-4.96396	basitti
-4.96396	baskça’da
-4.787869	baskı
-4.96396	baskıdaki
-4.96396	baskın
-4.96396	baskında
-4.787869	baskısız
-4.787869	basma
-4.96396	basması
-4.96396	basmaz
-4.96396	bassa
-4.96396	baston
-4.96396	bastonuna
-4.96396	bastonunu
-4.787869	bastı
-4.787869	bastım
-4.96396	bastıran
-4.96396	bastırarak
-4.787869	bastırdı
-4.96396	bastırdığı
-4.96396	bastırmak
-4.96396	bastırıp
-4.486839	bastırır
-4.96396	bastırıveriyor
-4.66293	bastırıyor
-4.56602	bastığı
-4.787869	bastığın
-4.787869	basık
-4.96396	basıl
-4.96396	basılacak
-4.96396	basıldı
-4.96396	basılmaz
-4.96396	basılıp
-4.787869	basın
-4.787869	basınca
-4.96396	basınç
-4.96396	basıp
-4.96396	basıyor
-4.96396	basıyordu
-4.96396	basıyordum
-4.96396	bata
-4.96396	bataklık
-4.96396	bataklıklar
-4.787869	batar
-4.96396	batarak
-4.96396	batarsın
-4.96396	batmak
-4.66293	batman
-4.787869	batmaz
-4.787869	batmış
-4.96396	batmışlardı
-4.787869	battaniye
-4.96396	battı
-4.96396	battığını
-4.486839	batı
-4.96396	batın
-4.787869	batır
-4.96396	batırdın
-4.96396	batırır
-4.96396	batıya
-4.96396	bavulları
-4.96396	bavullarımı
-4.96396	bavulumu
-4.787869	bavulunu
-4.66293	bay
-4.088899	bayan
-4.26499	bayanlar
-4.96396	bayanı
-4.96396	bayatlama
-4.66293	bayağı
-4.96396	baybay
-4.56602	baygın
-4.96396	baygınlık
-4.96396	baygınlığa
-4.96396	baygınmış
-4.96396	baykuşun
-4.3619	baylar
-4.96396	baylığı
-4.66293	bayrak
-4.118862	bayram
-4.56602	bayramda
-4.96396	bayramdan
-4.787869	bayrami
-4.96396	bayrağın
-4.96396	baytar
-4.787869	bayılacak
-4.66293	bayılacaksın
-4.96396	bayılacaksınız
-4.787869	bayıldı
-4.96396	bayıldıkları
-4.96396	bayıldım
-4.96396	bayıldın
-4.787869	bayılmaya
-4.96396	bayılmış
-4.96396	bayılmıştı
-4.96396	bayılmışım
-4.787869	bayılırım
-4.96396	bayılıyor
-4.3619	bayım
-4.96396	bayındırdan
-4.96396	bayır
-4.96396	bayıra
-4.66293	bayırda
-4.96396	bayırdan
-4.787869	bayırın
-4.96396	baz
-4.419892	bazal
-4.96396	bazali
-3.884779	bazan
-4.310748	bazen
-4.96396	bazla
-4.787869	bazlama
-3.773628	bazı
-4.56602	bazıları
-4.96396	bazılarında
-4.96396	bazılarının
-4.185809	bağ
-4.56602	bağa
-4.96396	bağdan
-4.66293	bağdat
-4.96396	bağdata
-4.66293	bağdattan
-4.96396	bağdatı
-4.66293	bağdaş
-4.223597	bağla
-4.787869	bağladı
-4.96396	bağladılar
-4.96396	bağladığım
-4.96396	bağladığımız
-4.96396	bağlamakta
-4.96396	bağlamaktır
-4.96396	bağlamaya
-4.96396	bağlamaz
-4.96396	bağlamında
-4.96396	bağlamışlar
-4.96396	bağlamışlardı
-4.66293	bağlamıştı
-4.96396	bağlandı
-4.96396	bağlanmayan
-4.96396	bağlanmayı
-4.96396	bağlanmaz
-4.96396	bağlanmış
-4.96396	bağlantı
-4.96396	bağlantılarının
-4.96396	bağlantılı
-4.96396	bağlantının
-4.787869	bağlanıyor
-4.66293	bağlar
-4.96396	bağlarda
-4.96396	bağlayalım
-4.96396	bağlayamıyor
-4.66293	bağlayan
-4.96396	bağlayanın
-4.96396	bağlayın
-4.96396	bağlayıp
-4.06087	bağlı
-4.96396	bağlıdır
-4.96396	bağlılığı
-4.96396	bağlıydı
-4.96396	bağlıydım
-4.96396	bağlıyordu
-4.66293	bağrı
-4.96396	bağrıma
-4.96396	bağrından
-4.96396	bağrışarak
-4.96396	bağrıştığı
-4.96396	bağrışıyordu
-4.96396	bağı
-4.96396	bağım
-4.787869	bağımsız
-4.96396	bağın
-4.96396	bağını
-4.96396	bağır
-4.787869	bağıra
-4.96396	bağıracak
-4.96396	bağıracaktı
-4.66293	bağıran
-4.486839	bağırarak
-3.787869	bağırdı
-4.96396	bağırdık
-4.96396	bağırdıkça
-4.56602	bağırdılar
-4.66293	bağırdım
-4.787869	bağırdığım
-4.96396	bağırdığını
-4.96396	bağırgan
-4.96396	bağırlarını
-4.96396	bağırmadı
-4.787869	bağırmak
-4.486839	bağırmaya
-4.787869	bağırmayı
-4.96396	bağırmayın
-4.96396	bağırmaz
-4.96396	bağırmazsa
-4.96396	bağırmıyor
-4.66293	bağırmış
-4.96396	bağırsa
-4.96396	bağırsak
-4.96396	bağırsana
-4.96396	bağırınca
-4.96396	bağırıp
-4.66293	bağırır
-4.96396	bağırırdı
-4.96396	bağırırken
-4.96396	bağırırmış
-4.3619	bağırıyordu
-4.486839	bağırıyorsun
-4.787869	bağırışları
-4.96396	bağış
-4.787869	bağışla
-4.96396	bağışladım
-4.96396	bağışlamış
-4.96396	bağışlanacak
-4.96396	bağışlar
-4.96396	bağışlasın
-4.66293	bağışlayın
-4.96396	bağışlayınız
-3.532596	baş
-3.884779	başa
-4.66293	başak
-4.96396	başarabildiniz
-4.96396	başarabilirim
-4.96396	başarabiliriz
-4.96396	başarabilirsin
-4.96396	başaracaksın
-4.96396	başaracağım
-4.96396	başaracağını
-4.96396	başaracağız
-4.96396	başaramayacağız
-4.96396	başaramayız
-4.96396	başaramazsam
-4.96396	başardı
-4.419892	başardık
-4.96396	başardılar
-4.787869	başardım
-4.56602	başardın
-4.96396	başarmadaki
-4.96396	başarmış
-4.96396	başarmıştı
-4.96396	başarılar
-4.66293	başarılı
-4.96396	başarılıydı
-4.96396	başarının
-4.96396	başarır
-4.96396	başarısı
-4.96396	başarısından
-4.96396	başarısız
-4.96396	başarısızlık
-4.96396	başarısızlıklar
-4.96396	başarıyorsun
-4.96396	başasistana
-4.96396	başbakan
-4.96396	başbakanı
-4.96396	başcağızını
-4.96396	başgardiyanın
-4.787869	başhekim
-4.96396	başhekime
-4.96396	başhekimle
-2.944844	başka
-4.96396	başkaca
-4.787869	başkaları
-4.787869	başkalarına
-4.96396	başkalarında
-4.96396	başkalarından
-4.96396	başkalarının
-4.56602	başkan
-4.96396	başkanlığını
-4.787869	başkanı
-4.96396	başkanım
-4.486839	başkası
-4.787869	başkasına
-4.96396	başkasını
-4.96396	başkasının
-4.96396	başkatip
-4.787869	başkaydı
-4.787869	başkent
-4.96396	başkentinswki
-4.486839	başla
-3.189443	başladı
-4.06087	başladık
-4.96396	başladıkları
-4.009717	başladılar
-3.685206	başladım
-4.787869	başladın
-4.787869	başladınız
-4.486839	başladığı
-4.96396	başladığım
-4.96396	başladığımı
-4.96396	başladığımız
-4.96396	başladığın
-4.66293	başladığını
-4.486839	başlama
-4.96396	başlamadım
-4.56602	başlamak
-4.96396	başlaması
-4.96396	başlamaz
-4.419892	başlamış
-4.66293	başlamışlar
-4.56602	başlamışlardı
-4.96396	başlamışsındır
-3.631522	başlamıştı
-4.56602	başlamıştım
-4.787869	başlamıştır
-4.787869	başlandı
-4.96396	başlangıcı
-4.96396	başlangıcından
-4.96396	başlangıcıydı
-4.56602	başlangıç
-4.787869	başlangıçta
-4.787869	başlanması
-4.419892	başlar
-4.96396	başlarım
-4.96396	başların
-4.66293	başlarına
-4.66293	başlarında
-4.96396	başlarından
-4.486839	başlarını
-4.96396	başlarıydı
-4.96396	başlasak
-4.96396	başlat
-4.96396	başlatmadım
-4.787869	başlattı
-4.96396	başlattın
-4.96396	başlattıysa
-4.96396	başlatıldı
-4.787869	başlayabilir
-4.96396	başlayabiliriz
-4.96396	başlayabilirsiniz
-4.66293	başlayacak
-4.66293	başlayacaktı
-4.96396	başlayacaktım
-4.223597	başlayalım
-4.486839	başlayan
-4.96396	başlayarak
-4.787869	başlayın
-4.787869	başlayınca
-4.96396	başlayıncaya
-4.787869	başlı
-4.787869	başlıca
-4.96396	başlıklı
-4.96396	başlısı
-4.223597	başlıyor
-4.486839	başlıyordu
-4.96396	başlıyorduk
-4.486839	başlıyorum
-4.118862	başlıyoruz
-4.96396	başmabeyinci
-4.96396	başmakçıdır
-4.96396	başrol
-4.96396	başsız
-4.66293	başta
-4.96396	baştadır
-4.787869	baştaki
-4.06087	baştan
-4.96396	baştaydı
-4.96396	başucumda
-4.96396	başucumdaki
-4.787869	başucuna
-4.787869	başucunda
-4.96396	başvur
-4.96396	başvurarak
-4.96396	başvurdu
-4.96396	başvurmak
-4.96396	başvuru
-4.66293	başvurusuna
-4.66293	başvurusunda
-4.96396	başvuruyordu
-4.96396	başyapıtı
-4.96396	başçı
-4.96396	başüstüne
-3.708688	başı
-4.96396	başıboş
-4.96396	başıdır
-4.118862	başım
-4.034541	başıma
-4.96396	başımayım
-4.66293	başımda
-4.310748	başımdan
-4.787869	başımla
-3.86705	başımı
-4.66293	başımın
-4.787869	başımız
-4.419892	başımıza
-4.96396	başımızayız
-4.96396	başımızdan
-4.96396	başımızı
-4.118862	başın
-3.445446	başına
-4.66293	başınasın
-4.96396	başınaydı
-3.833627	başında
-4.419892	başındaki
-4.009717	başından
-3.25639	başını
-4.310748	başının
-4.787869	başınız
-4.66293	başınıza
-4.96396	başınızı
-4.3619	başıyla
-4.96396	başşehri
-3.516802	be
-4.26499	bebek
-4.96396	bebekleri
-4.96396	bebeklerim
-4.96396	bebeler
-4.787869	bebeği
-3.773628	bebeğim
-4.96396	bebeğimiz
-4.787869	becerdin
-4.96396	becerebileceği
-4.96396	becerecekti
-4.96396	beceremezsiniz
-4.96396	beceremiyordum
-4.96396	beceremiyorsunuz
-4.96396	beceremiyorum
-4.96396	becerikli
-4.96396	beceriyor
-4.96396	beceriyorsun
-4.96396	bedasıl
-4.56602	bedava
-4.96396	beddua
-4.787869	bedel
-4.96396	bedeldir
-4.66293	bedeli
-4.96396	bedelinin
-4.96396	bedenimden
-4.96396	bedeninden
-4.96396	bedestende
-4.96396	bedir
-4.223597	bedri
-4.96396	bedrinin
-4.96396	bedri’den
-4.419892	bedri’nin
-4.66293	bedri’ye
-4.787869	bedri’yi
-4.96396	beee
-4.96396	bekaj
-4.787869	bekar
-4.96396	bekardır
-4.787869	bekarlık
-4.787869	bekarın
-4.151047	bekir
-4.96396	bekirceğiz
-4.96396	bekiri
-4.96396	bekirin
-3.708688	bekle
-4.06087	bekledi
-4.56602	bekledik
-4.96396	bekledikleri
-4.486839	bekledikten
-4.787869	beklediler
-4.088899	bekledim
-4.96396	bekledin
-4.66293	beklediniz
-4.96396	beklediği
-4.486839	beklediğim
-4.96396	beklediğimi
-4.66293	beklediğini
-4.96396	beklediğiniz
-4.56602	bekleme
-4.787869	beklemede
-4.56602	beklemeden
-4.96396	beklemedi
-4.787869	beklemediği
-4.787869	beklemediğim
-4.787869	beklemediğimiz
-4.419892	beklemek
-4.96396	beklemekte
-4.96396	beklemelerini
-4.96396	beklemeli
-4.96396	beklemenin
-4.96396	beklemesinde
-4.3619	beklemeye
-4.96396	beklemeyeceğiz
-4.96396	beklemeyi
-4.96396	beklemez
-4.96396	beklemiyordular
-4.66293	beklemiyordum
-4.96396	beklemiyorum
-4.787869	beklemişti
-4.96396	beklemiştim
-4.96396	beklenilenden
-4.96396	beklenir
-4.185809	bekleniyor
-4.66293	beklenmedik
-4.787869	beklenmeyen
-4.96396	beklenmiyor
-4.26499	bekler
-4.787869	beklerdi
-4.56602	beklerim
-4.96396	bekleriz
-4.787869	beklerken
-4.787869	beklerler
-4.787869	beklersin
-4.96396	beklersiniz
-4.96396	beklesinler
-4.96396	bekletme
-4.96396	bekletmeden
-4.96396	bekletti
-4.787869	beklettiğim
-4.66293	bekleyebilir
-4.66293	bekleyecek
-4.96396	bekleyeceksiniz
-4.310748	bekleyeceğim
-4.787869	bekleyeceğiz
-4.96396	bekleyemedim
-4.787869	bekleyemem
-4.96396	bekleyemeyecekti
-4.96396	bekleyemeyeceğim
-4.96396	bekleyemeyeceğini
-4.96396	bekleyemez
-4.96396	bekleyemiyorum
-4.185809	bekleyen
-4.96396	bekleyenlerin
-4.787869	bekleyerek
-4.96396	bekleyeyim
-4.088899	bekleyin
-4.96396	bekleyip
-4.96396	bekleyiş
-4.96396	bekleşen
-4.96396	bekleşmeye
-4.96396	bekleştiler
-4.009717	bekliyor
-4.310748	bekliyordu
-4.787869	bekliyorduk
-4.310748	bekliyordum
-4.56602	bekliyordun
-4.96396	bekliyordunuz
-4.419892	bekliyorlar
-4.56602	bekliyorlardı
-4.787869	bekliyormuş
-4.3619	bekliyorsun
-4.787869	bekliyorsunuz
-4.3619	bekliyorum
-4.56602	bekliyoruz
-4.96396	bekman
-4.96396	bektaşinin
-4.96396	bekâr
-4.96396	bekâra
-4.96396	bekârdı
-4.96396	bekârlardan
-4.96396	bekçi
-4.56602	bel
-4.66293	bela
-4.787869	belada
-4.96396	beladan
-4.96396	belagat
-4.96396	belanı
-4.787869	belası
-4.56602	belasını
-4.96396	belasısın
-4.486839	belediye
-4.96396	belediyedir
-4.96396	belediyesince
-4.96396	belerivermiş
-4.787869	beleş
-4.787869	belgeli
-4.96396	belgesi
-4.66293	belgrad
-4.96396	belgrada
-4.96396	belgradlılar
-4.96396	belgradın
-4.66293	beli
-4.96396	belim
-4.96396	belime
-4.96396	belinde
-4.787869	belinden
-4.66293	beline
-4.96396	belini
-4.56602	belirdi
-4.96396	beliren
-4.034541	belirgin
-4.96396	belirginleşme
-4.96396	belirginleşmesi
-4.96396	belirginleşmeye
-4.96396	belirip
-4.96396	belirlemek
-4.96396	belirlendi
-4.96396	belirlenebilir
-4.96396	belirlenen
-4.96396	belirlenmiş
-4.96396	belirleyici
-4.96396	belirli
-4.96396	belirmişti
-4.56602	belirsiz
-4.56602	belirtildi
-4.96396	belirtilenler
-4.419892	belirtilerek
-4.96396	belirtiliyor
-4.56602	belirtiyor
-4.787869	belirtti
-4.96396	belirttiği
-3.215772	belki
-4.96396	belledim
-3.532596	belli
-4.66293	bellidir
-4.96396	bellisiz
-4.419892	belliydi
-4.96396	belvedere
-4.96396	belyayev
-4.96396	belâsını
-4.96396	belçika
-4.787869	bembeyaz
-2.36517	ben
-3.802592	bence
-4.96396	bencilsin
-3.66293	bende
-4.96396	bendeki
-3.426141	benden
-4.96396	bendendir
-4.96396	bendeniz
-4.96396	bendenize
-4.787869	bendim
-4.96396	benedikt
-2.621537	beni
-2.793699	benim
-4.96396	benimdi
-4.56602	benimki
-4.96396	benimkilerin
-4.787869	benimkini
-3.407658	benimle
-4.787869	benimlesin
-4.787869	benizli
-4.96396	benle
-4.96396	benlik
-4.486839	bensiz
-4.96396	benzemektedir
-4.96396	benzemeye
-4.66293	benzemeyen
-4.96396	benzemeyenlere
-4.66293	benzemez
-4.66293	benzemiyor
-4.486839	benzemiyordu
-4.96396	benzemiyorlardı
-4.06087	benzer
-4.96396	benzerdi
-4.787869	benzeri
-4.96396	benzetir
-4.96396	benzetiyordu
-4.96396	benzetti
-4.96396	benzettiğinizi
-4.56602	benzeye
-4.96396	benzeyeceklerini
-3.942771	benzeyen
-4.96396	benzeyerek
-4.310748	benzi
-4.96396	benzimde
-4.66293	benzin
-4.96396	benzinimiz
-4.96396	benzinin
-4.310748	benziyor
-4.06087	benziyordu
-4.96396	benziyorlar
-4.96396	benziyorlardı
-4.96396	benziyorsunuz
-4.96396	benziyorum
-4.96396	benziyoruz
-4.96396	beraat
-3.372895	beraber
-4.56602	beraberce
-4.787869	beraberdi
-4.787869	beraberdiler
-4.96396	beraberinde
-4.66293	beraberlik
-4.96396	berabermiş
-4.034541	berbat
-4.96396	berbatsın
-4.96396	berbattı
-4.223597	berber
-4.66293	berbere
-4.96396	berberin
-4.96396	berbermiş
-4.96396	bere
-4.96396	beredir
-4.56602	bereket
-4.96396	bereketli
-4.96396	berekettir
-4.96396	beresini
-3.356505	beri
-4.486839	beria
-4.787869	beriayı
-4.96396	beria’nın
-4.96396	beriki
-4.96396	berişa
-4.66293	berk
-4.787869	berlin
-4.66293	berlinde
-4.96396	berlinden
-4.787869	berline
-4.787869	berlinin
-4.96396	bermutat
-4.96396	berrak
-4.96396	besarabyalı
-4.96396	besbelli
-4.787869	besbelliydi
-4.96396	besle
-4.96396	besledik
-4.96396	beslemeden
-4.56602	beslemek
-4.96396	beslemekten
-4.66293	beslemez
-4.787869	beslenir
-4.96396	beslenirken
-4.486839	besler
-4.96396	besmeleli
-4.486839	beter
-4.96396	beterdi
-4.56602	beterdir
-4.96396	betli
-4.787869	beton
-4.96396	bevliye
-3.452077	bey
-4.96396	beyan
-3.548987	beyaz
-4.96396	beyaza
-4.66293	beyazdı
-4.96396	beyazdır
-4.96396	beyazlanmıştı
-4.96396	beyazlığı
-4.96396	beyazın
-4.96396	beyazıt
-4.787869	beyazıt’a
-4.486839	beybaba
-4.96396	beybabanın
-4.96396	beyde
-4.787869	beyden
-4.96396	beydendi
-4.96396	beydi
-4.3619	beyefendi
-4.96396	beyefendisiyle
-4.96396	beygir
-4.96396	beyhude
-4.787869	beyi
-4.034541	beyim
-4.26499	beyin
-4.96396	beyinsiz
-4.66293	beyle
-3.884779	beyler
-4.787869	beylerin
-4.56602	beylik
-4.96396	beylikten
-4.96396	beyliktir
-4.96396	beyliği
-4.66293	beyni
-4.96396	beynime
-4.96396	beynimi
-4.96396	beynin
-4.96396	beyobasını
-4.96396	beyoğlunda
-4.96396	beysin
-4.787869	beyşehir
-4.96396	beyşehirden
-4.419892	bez
-4.96396	bezeden
-4.787869	bezi
-4.96396	bezik
-4.96396	bezinden
-4.787869	bezini
-4.96396	beğendi
-4.56602	beğendim
-4.486839	beğendin
-4.96396	beğendiğim
-4.96396	beğendiğine
-4.96396	beğendiğinize
-4.96396	beğeneceksin
-4.96396	beğeneceğini
-4.96396	beğenilmesine
-4.96396	beğenirsin
-4.96396	beğenmedin
-4.96396	beğenmediğin
-4.96396	beğenmediğini
-4.96396	beğenmeyen
-4.96396	beğenmeyenin
-4.96396	beğenmez
-4.787869	beğenmiş
-4.787869	beğensin
-3.034541	beş
-4.787869	beşe
-4.96396	beşer
-4.96396	beşeriz
-4.66293	beşi
-4.96396	beşik
-4.787869	beşikte
-4.96396	beşikten
-4.96396	beşinci
-4.787869	beşindeki
-4.787869	beşinden
-4.787869	beşini
-4.56602	beşlik
-4.96396	beşlisi
-4.96396	bg
-4.66293	bi
-4.96396	bianca
-4.96396	biber
-4.96396	bihaber
-4.486839	bil
-4.088899	bilateral
-4.66293	bildikleri
-4.96396	bildiklerini
-4.96396	bildiktir
-4.787869	bildim
-4.310748	bildin
-4.787869	bildirdi
-4.96396	bildirelim
-4.56602	bildirildi
-4.787869	bildirilmedi
-4.96396	bildirin
-4.96396	bildirirler
-4.96396	bildiriyorlardı
-4.96396	bildirmişler
-4.486839	bildiği
-4.419892	bildiğim
-4.787869	bildiğimiz
-4.56602	bildiğin
-4.787869	bildiğinden
-4.96396	bildiğine
-4.310748	bildiğini
-4.96396	bildiğiniz
-4.96396	bildiğinizi
-2.95536	bile
-4.96396	bilebilir
-4.787869	bilebilirdim
-4.96396	bilebilirim
-4.96396	bileceğim
-4.96396	bilekleri
-4.96396	bileklerime
-4.96396	bilemedi
-4.486839	bilemedim
-4.787869	bilemem
-4.96396	bilemeyeceğim
-4.96396	bilemeyerek
-4.787869	bilemeyiz
-4.96396	bilemez
-4.96396	bilemezdim
-4.96396	bilemezmiş
-4.787869	bilemezsin
-4.66293	bilemezsiniz
-4.96396	bilemiyordu
-4.486839	bilemiyorum
-4.419892	bilen
-4.96396	bilene
-4.96396	bilenler
-4.787869	bilerek
-4.96396	biletinizi
-4.787869	biletler
-4.96396	biletçi
-4.223597	bileyim
-4.96396	bilezikle
-4.96396	bileziklerimi
-4.96396	bileziktir
-4.96396	bileğim
-4.96396	bileğimi
-4.96396	bileşik
-4.96396	bileşiğin
-4.96396	bilge
-4.185809	bilgi
-4.96396	bilgilendirmek
-4.787869	bilgiler
-4.96396	bilgim
-4.96396	bilgin
-4.96396	bilgini
-4.96396	bilgisi
-4.96396	bilgisiz
-4.06087	bilhassa
-4.96396	bilici
-4.486839	bilim
-4.96396	bilimsel
-4.96396	bilin
-4.96396	bilinci
-4.96396	bilindiğini
-4.96396	bilinemez
-4.96396	bilinen
-4.56602	bilinir
-4.96396	biliniyordu
-4.96396	bilinmedik
-4.96396	bilinmektedir
-4.96396	bilinmeyen
-4.56602	bilinmez
-4.96396	bilinmiyor
-4.96396	bilip
-3.602232	bilir
-4.66293	bilirdi
-4.787869	bilirdim
-4.419892	bilirim
-4.56602	biliriz
-4.96396	bilirsen
-4.009717	bilirsin
-4.223597	bilirsiniz
-3.269355	biliyor
-4.419892	biliyordu
-4.96396	biliyorduk
-3.850017	biliyordum
-4.787869	biliyordun
-4.96396	biliyordur
-4.56602	biliyorlar
-4.96396	biliyorlardı
-4.96396	biliyormusun
-4.96396	biliyormuş
-4.96396	biliyorsam
-4.787869	biliyorsan
-3.540714	biliyorsun
-4.223597	biliyorsunuz
-3.3619	biliyorum
-4.185809	biliyoruz
-4.96396	biliş
-4.96396	bilişsel
-4.66293	billahi
-4.787869	bilmece
-4.3619	bilmeden
-4.66293	bilmedikleri
-4.96396	bilmediklerimden
-4.96396	bilmediklerimi
-4.96396	bilmediler
-4.787869	bilmediği
-4.56602	bilmediğim
-4.787869	bilmediğimi
-4.96396	bilmediğimiz
-4.96396	bilmediğin
-4.034541	bilmek
-4.787869	bilmekten
-4.96396	bilmeli
-4.787869	bilmelisin
-3.833627	bilmem
-4.66293	bilmemek
-4.96396	bilmemeli
-4.96396	bilmemiş
-4.96396	bilmemişti
-4.787869	bilmen
-4.96396	bilmene
-4.787869	bilmeni
-4.787869	bilmeniz
-4.96396	bilmesi
-4.96396	bilmeyecek
-4.486839	bilmeyen
-4.787869	bilmeyene
-4.96396	bilmeyerek
-3.802592	bilmez
-4.787869	bilmezdik
-4.96396	bilmezler
-4.66293	bilmezsin
-3.850017	bilmiyor
-4.419892	bilmiyordu
-4.787869	bilmiyorduk
-4.034541	bilmiyordum
-4.96396	bilmiyordun
-4.66293	bilmiyorlar
-4.96396	bilmiyorlardı
-4.96396	bilmiyormuş
-4.96396	bilmiyorsan
-4.310748	bilmiyorsun
-3.524627	bilmiyorum
-4.419892	bilmiyoruz
-4.96396	bilmukabele
-4.66293	bilse
-4.787869	bilsem
-4.56602	bilsen
-4.56602	bilseniz
-4.787869	bilseydim
-4.66293	bilsin
-3.3156	bin
-4.787869	bina
-4.96396	binada
-4.96396	binaenaleyh
-4.787869	binalar
-4.66293	binanın
-4.96396	binası
-4.96396	binasının
-4.787869	binayı
-4.787869	binbaşı
-4.96396	binbaşıydı
-4.96396	binbir
-4.66293	binde
-4.96396	binden
-4.56602	bindi
-4.96396	bindikleri
-4.96396	bindikten
-4.96396	bindim
-4.96396	bindirir
-4.96396	bindiği
-4.787869	bine
-4.96396	binecek
-4.96396	bineceğim
-4.787869	binen
-4.96396	binenin
-4.787869	biner
-4.96396	binerse
-4.96396	binersen
-4.96396	bingo
-4.787869	bini
-4.96396	binilmez
-4.787869	binin
-4.96396	binince
-4.96396	binip
-4.96396	biniyor
-4.96396	biniyordu
-4.66293	binlerce
-4.66293	binmek
-4.96396	binmeli
-4.96396	binmeye
-4.96396	binmez
-4.66293	binmiş
-4.96396	binmişti
-4.96396	binse
-4.96396	binsin
-1.710501	bir
-4.151047	bira
-4.96396	birader
-4.787869	biran
-4.96396	biraraya
-2.787869	biraz
-4.486839	birazcık
-4.223597	birazdan
-4.26499	birbiri
-4.787869	birbirimizden
-3.986236	birbirimize
-4.26499	birbirimizi
-4.787869	birbirimizin
-4.96396	birbirimizle
-4.787869	birbirinden
-3.986236	birbirine
-4.310748	birbirini
-4.486839	birbirinin
-4.787869	birbiriyle
-4.96396	birbirlerinden
-4.009717	birbirlerine
-4.310748	birbirlerini
-4.486839	birbirlerinin
-4.787869	birbirleriyle
-4.486839	birde
-3.833627	birden
-3.419892	birdenbire
-4.66293	birdir
-4.66293	bire
-3.903262	birer
-4.96396	bireye
-4.96396	bireysel
-3.239684	biri
-4.96396	biribiri
-4.96396	biricik
-4.56602	biridir
-4.66293	biriken
-4.96396	birikintileri
-4.96396	birikintilerinin
-4.96396	birikiyordu
-4.96396	birikmiş
-4.96396	birikmişti
-4.66293	birileri
-4.96396	birim
-4.96396	birimi
-4.96396	birimiz
-4.96396	birimler
-4.96396	birimlerin
-4.787869	birin
-4.151047	birinci
-4.96396	birincisi
-3.96396	birinde
-4.56602	birinden
-3.942771	birine
-4.009717	birini
-4.034541	birinin
-3.986236	birisi
-4.419892	birisin
-4.66293	birisine
-4.419892	birisini
-4.787869	birisinin
-4.787869	birisiydi
-4.96396	birisiyle
-4.419892	biriydi
-4.787869	biriyim
-4.787869	biriyle
-4.96396	biriz
-3.052802	birkaç
-4.787869	birkaçı
-4.96396	birkaçını
-4.96396	birkaçının
-4.96396	birleşebilir
-4.96396	birleşik
-4.96396	birleşirsek
-4.96396	birleşme
-4.96396	birleşmeyi
-4.96396	birleşmişler
-4.96396	birleşti
-4.96396	birleştirdi
-4.96396	birleştirecektim
-4.96396	birleştirilmesiyle
-4.787869	birleştirmek
-4.96396	birleştiği
-4.96396	birleştiğinde
-4.486839	birlik
-4.96396	birlikleri
-3.86705	birlikte
-4.96396	birlikten
-4.96396	birliği
-4.96396	birliğin
-4.96396	birliğiymişiz
-4.96396	birliği’nin
-4.96396	birsıfır
-4.034541	birtakım
-4.96396	birtakımı
-3.641741	birçok
-4.787869	birçokları
-4.96396	birçoğu
-4.96396	birçoğunun
-4.151047	birşey
-4.96396	birşeyi
-4.787869	birşeyler
-4.66293	bisiklet
-4.96396	bisikletim
-4.96396	bisikletine
-4.96396	bisikletli
-4.56602	bit
-4.66293	bitecek
-4.96396	bitenden
-4.223597	biter
-4.96396	biterse
-4.96396	bitiki
-4.96396	bitince
-4.96396	bitinceye
-4.96396	bitip
-4.3619	bitir
-4.66293	bitirdi
-4.66293	bitirdikten
-4.66293	bitirdim
-4.787869	bitirdin
-4.96396	bitirdiniz
-4.96396	bitireceğim
-4.66293	bitirelim
-4.96396	bitiremedik
-4.96396	bitiren
-4.96396	bitirilmesine
-4.96396	bitirin
-4.96396	bitirinceye
-4.66293	bitirir
-4.96396	bitiriyorum
-4.96396	bitirmedik
-4.66293	bitirmedim
-4.787869	bitirmek
-4.96396	bitirmemiş
-4.96396	bitirmenin
-4.96396	bitirmez
-4.787869	bitirmiş
-4.787869	bitirmişti
-4.96396	bitirmiştik
-4.96396	bitirsin
-4.96396	bitiverdi
-4.787869	bitiyordu
-4.96396	bitişik
-4.96396	bitişiğinde
-4.96396	bitiştiği
-4.96396	bitki
-4.96396	bitkihayvan
-4.3619	bitkin
-4.96396	bitkinim
-4.3619	bitmedi
-4.787869	bitmek
-4.96396	bitmemişti
-4.96396	bitmesine
-4.96396	bitmeye
-4.787869	bitmeyecek
-4.96396	bitmeyen
-4.486839	bitmez
-4.96396	bitmiyor
-4.96396	bitmiyordu
-4.185809	bitmiş
-4.96396	bitmişti
-4.787869	bitmiştir
-4.96396	bitpazarına
-4.96396	bitse
-3.631522	bitti
-4.96396	bittik
-4.96396	bittikten
-4.96396	bittim
-4.96396	bittin
-4.787869	bittiğine
-4.96396	biyografisi
-4.787869	biyokimya
-4.96396	biyokimyasındaki
-3.227564	biz
-4.486839	bizde
-4.96396	bizdeki
-4.223597	bizden
-3.486839	bize
-3.524627	bizi
-3.219667	bizim
-4.56602	bizimki
-4.787869	bizimkiler
-4.96396	bizimkinde
-4.96396	bizimkine
-4.96396	bizimkini
-4.185809	bizimle
-4.96396	bizimlesin
-4.96396	biziz
-4.96396	bizlengiç
-4.787869	bizler
-4.96396	bizmişiz
-4.787869	bizzat
-4.66293	biçer
-4.96396	biçersin
-4.96396	biçilene
-4.787869	biçilmez
-4.96396	biçilmiş
-4.787869	biçim
-4.96396	biçimde
-4.96396	biçiyordum
-4.96396	biçki
-4.96396	biçmeli
-4.96396	biçmeyi
-4.787869	biçmez
-4.96396	biçtikleri
-4.96396	blaganın
-4.787869	blok
-4.96396	bloğa
-4.96396	bobstil
-4.96396	bodrum
-4.96396	bodrumdan
-4.96396	bodrumdu
-4.96396	bodur
-4.66293	bohçayı
-4.223597	bok
-4.787869	boka
-4.787869	boklar
-4.66293	bokluk
-4.96396	bokluğa
-4.96396	bokta
-4.787869	boktan
-4.96396	boktur
-4.787869	boku
-4.96396	bokun
-4.96396	bokuna
-4.787869	bokundan
-4.151047	bol
-4.787869	bomba
-4.96396	bombalardan
-4.96396	bombaları
-4.96396	bombası
-4.66293	bomboş
-4.56602	bomboştu
-4.787869	boncuk
-4.96396	borazan
-4.96396	borazancı
-4.96396	borca
-4.787869	borcu
-4.56602	borcum
-4.66293	borcun
-4.787869	borcunu
-4.96396	borlunun
-4.96396	borluyum
-4.787869	borneo
-4.96396	borudan
-4.96396	borusu
-4.96396	borusuna
-4.06087	borç
-4.96396	borçları
-4.66293	borçlu
-4.96396	borçlular
-4.96396	borçlunun
-4.66293	borçlusun
-4.3619	borçluyum
-4.96396	borçsuz
-4.96396	borçtan
-4.96396	borçtur
-4.96396	boskovski
-4.96396	bosnahersek
-4.96396	bosnalı
-4.96396	bosnaya
-4.56602	bostan
-4.96396	bostana
-4.96396	bostanda
-4.96396	bostanlar
-4.96396	bostanları
-4.787869	boston
-4.96396	bot
-4.96396	botswana
-4.96396	boy
-4.787869	boya
-4.96396	boyalarını
-4.96396	boyalı
-4.96396	boyamış
-4.96396	boyamıştı
-4.96396	boyanmaz
-4.96396	boyanır
-4.96396	boyası
-4.96396	boyattı
-4.96396	boykot
-4.96396	boykotlar
-4.787869	boyları
-4.96396	boyların
-4.96396	boylarında
-4.310748	boylu
-4.96396	boyna
-4.96396	boynu
-4.787869	boynuma
-4.96396	boynumuza
-4.96396	boynun
-4.3619	boynuna
-4.96396	boynunda
-4.787869	boynundan
-4.419892	boynunu
-4.787869	boynuz
-4.96396	boynuzlarını
-4.96396	boynuzlu
-4.96396	boynuzu
-4.96396	boynuzunda
-4.787869	boynuzundan
-4.310748	boyu
-4.96396	boyuma
-4.96396	boyumu
-4.787869	boyun
-4.486839	boyuna
-4.96396	boyunbağımı
-4.185809	boyunca
-4.787869	boyunda
-4.96396	boyundadır
-4.96396	boyundaki
-4.96396	boyundan
-4.787869	boyunlu
-4.96396	boyunu
-4.96396	boyut
-4.96396	boyutlarda
-4.96396	boyutlardaki
-4.96396	boyutları
-4.56602	boyutlarında
-4.56602	boyutlu
-4.66293	boyutunda
-4.96396	boz
-4.96396	bozacak
-4.96396	bozacının
-4.787869	bozan
-4.419892	bozar
-4.96396	bozdun
-4.96396	bozgun
-4.787869	bozgunluğu
-4.96396	bozkır
-4.96396	bozkırlardan
-4.787869	bozma
-4.96396	bozmadı
-4.96396	bozmamaya
-4.96396	bozmayalım
-4.96396	bozmaz
-4.66293	bozucu
-4.486839	bozuk
-4.96396	bozukları
-4.96396	bozukluklarına
-4.787869	bozukluğu
-4.96396	bozukçadır
-4.66293	bozuldu
-4.96396	bozulduğu
-4.96396	bozulmuş
-4.96396	bozulur
-4.96396	bozulursa
-4.96396	bozuluverdi
-4.96396	bozuyor
-4.96396	bozuyorsun
-4.787869	boğa
-4.96396	boğar
-4.66293	boğaz
-4.787869	boğaza
-4.787869	boğazda
-4.787869	boğazdan
-4.96396	boğazlarına
-4.96396	boğazı
-4.96396	boğazımızdan
-4.787869	boğazın
-4.56602	boğazına
-4.787869	boğazında
-4.66293	boğazından
-4.787869	boğazını
-4.787869	boğucu
-4.419892	boğuk
-4.96396	boğul
-4.787869	boğulacak
-4.96396	boğulacaktım
-4.96396	boğuldu
-4.96396	boğulduğuna
-4.787869	boğulduğunu
-4.96396	boğulmaktaydı
-4.56602	boğulmuş
-4.96396	boğulur
-4.96396	boğulursan
-4.787869	boğuluyorum
-4.96396	boğuyordu
-4.96396	boğuyorsun
-4.96396	boğuşanlar
-4.96396	boğuşup
-3.583749	boş
-4.310748	boşa
-4.96396	boşalan
-4.787869	boşalt
-4.96396	boşaltmam
-4.787869	boşalttı
-4.787869	boşalttılar
-4.96396	boşalttığı
-4.787869	boşaltın
-4.96396	boşaltıyordu
-4.96396	boşalınca
-4.787869	boşalır
-4.96396	boşamak
-4.96396	boşaması
-4.96396	boşanarak
-4.96396	boşandı
-4.96396	boşanmış
-4.96396	boşanıp
-4.96396	boşanıyordu
-4.96396	boşar
-4.66293	boşboğazı
-4.96396	boşboğazın
-4.66293	boşluk
-4.96396	boşlukta
-4.96396	boşluğa
-4.96396	boşluğunu
-4.96396	boşmuş
-4.787869	boştu
-4.96396	boşu
-4.486839	boşuna
-4.66293	boşver
-4.96396	boşversene
-4.787869	bph
-4.96396	brantford
-4.787869	branş
-4.787869	bravo
-4.96396	brexit
-4.96396	brkiçe
-4.96396	bronkopnömoni
-4.96396	bronşektazik
-4.96396	bronşial
-4.96396	bronşlar
-4.96396	browder
-4.96396	brown’ın
-4.96396	broşürü
-4.787869	brüksel
-4.96396	bt
-2.008032	bu
-4.96396	bucak
-4.787869	bucaksız
-4.96396	bucağına
-4.96396	buda
-4.223597	budala
-4.96396	budalalar
-4.96396	budalalarla
-4.96396	budalalık
-4.787869	budalanın
-4.96396	budapeşte
-4.310748	budur
-3.501562	bugün
-4.56602	bugünden
-4.66293	bugüne
-4.56602	bugünkü
-4.56602	bugünlerde
-4.96396	bugünlerimde
-4.787869	bugünlük
-4.787869	bugünse
-4.96396	bugünü
-4.96396	bugünün
-4.96396	buharı
-4.223597	bul
-4.96396	bulabildik
-4.96396	bulabildiniz
-4.96396	bulabileceğimi
-4.96396	bulabilirim
-4.96396	bulabiliyorsunuz
-4.96396	bulacak
-4.96396	bulacaklar
-4.96396	bulacakmışım
-4.96396	bulacaksın
-4.96396	bulacaktım
-4.96396	bulacalı
-4.56602	bulacağım
-4.787869	bulacağımı
-4.3619	bulacağız
-4.96396	bulamacını
-4.96396	bulamadan
-4.56602	bulamadı
-4.96396	bulamadık
-4.66293	bulamadılar
-4.118862	bulamadım
-4.787869	bulamadın
-4.96396	bulamadığı
-4.96396	bulamadığım
-4.96396	bulamadığına
-4.787869	bulamamış
-4.96396	bulamamıştı
-4.96396	bulamayacağım
-4.96396	bulamayan
-4.787869	bulamayarak
-4.96396	bulamayınca
-4.96396	bulamayışımda
-4.223597	bulamaz
-4.96396	bulamazdım
-4.96396	bulamazsan
-4.96396	bulamazsın
-4.96396	bulamıyordu
-4.787869	bulamıyordum
-4.66293	bulamıyorum
-4.96396	bulamıyoruz
-4.96396	bulandıracak
-4.96396	bulandırıcı
-4.96396	bulandırıyor
-4.96396	bulanmayınca
-4.3619	bulantı
-4.96396	bulanık
-4.96396	bulanıp
-4.96396	bulanıyor
-4.787869	bularak
-4.787869	bulayım
-4.96396	bulaşanın
-4.96396	bulaştırdığımı
-4.96396	bulaşıcı
-4.96396	bulaşır
-4.96396	bulaşığı
-4.96396	buldana
-4.96396	buldanlı
-4.009717	buldu
-4.3619	bulduk
-4.66293	buldular
-3.986236	buldum
-3.986236	buldun
-4.310748	buldunuz
-4.96396	buldurmak
-4.96396	buldurunuz
-4.96396	buldurup
-4.96396	buldurur
-4.96396	buldurursanız
-4.787869	bulduğu
-4.96396	bulduğum
-4.96396	bulduğuma
-4.96396	bulduğun
-4.96396	bulduğunu
-4.96396	bulduğunuzu
-4.66293	bulgar
-4.419892	bulgu
-4.56602	bulgular
-4.96396	bulgularla
-4.96396	bulguların
-4.96396	bulgularının
-4.56602	bulgur
-4.96396	bulgurdan
-4.96396	bullak
-4.96396	bulldog
-4.96396	bulma
-4.96396	bulmadan
-4.787869	bulmadım
-4.486839	bulmak
-4.96396	bulmaktan
-4.96396	bulmaktaydı
-4.96396	bulmalıydı
-4.96396	bulmalıyım
-4.96396	bulmalıyız
-4.66293	bulmam
-4.96396	bulmama
-4.96396	bulmamız
-4.96396	bulmanı
-4.96396	bulmasını
-4.419892	bulmaya
-4.96396	bulmayacağını
-4.96396	bulmayan
-4.96396	bulmuyor
-4.96396	bulmuyorlardı
-4.96396	bulmuyorum
-4.486839	bulmuş
-4.96396	bulmuşlar
-4.96396	bulmuşsun
-4.96396	bulmuştu
-4.96396	bulsalar
-4.96396	bulsam
-4.96396	bulsayı
-4.96396	bulsun
-4.56602	bulun
-4.56602	bulunabilir
-4.96396	bulunacağını
-4.787869	bulunamadı
-4.06087	bulunan
-4.787869	bulunanlar
-4.96396	bulunanlardan
-4.787869	bulunanları
-4.96396	bulunanların
-4.787869	bulunca
-4.787869	buluncaya
-4.66293	bulundu
-4.3619	bulundukları
-4.787869	bulundukça
-4.96396	bulundular
-4.787869	bulundum
-4.96396	bulundurmasını
-4.310748	bulunduğu
-4.96396	bulunduğum
-4.96396	bulunduğumu
-4.419892	bulunduğumuz
-4.96396	bulunduğun
-4.96396	bulunduğuna
-4.310748	bulunduğunu
-4.96396	bulunduğunun
-4.96396	bulunmadı
-4.787869	bulunmadığı
-4.66293	bulunmadığını
-4.66293	bulunmak
-4.787869	bulunmaktadır
-4.96396	bulunmalıydı
-4.787869	bulunması
-4.96396	bulunmasının
-4.96396	bulunmayacak
-4.96396	bulunmayı
-4.56602	bulunmaz
-4.96396	bulunmazsa
-4.66293	bulunmuyor
-4.96396	bulunmuştur
-4.96396	bulununca
-4.787869	bulunup
-3.96396	bulunur
-4.96396	bulunursa
-4.96396	bulunursunuz
-4.185809	bulunuyor
-4.419892	bulunuyordu
-4.96396	bulunuyorduk
-4.96396	bulunuyordum
-4.96396	bulunuyorlar
-4.96396	bulunuşunu
-4.185809	bulup
-4.088899	bulur
-4.96396	bulurdu
-4.3619	bulursun
-4.310748	bulurum
-4.787869	buluruz
-4.486839	bulut
-4.96396	bulutla
-4.96396	bulutlanır
-4.96396	bulutlar
-4.96396	bulutlara
-4.96396	bulutlarla
-4.787869	bulutları
-4.787869	bulutların
-4.96396	bulutlarını
-4.787869	bulutu
-4.96396	buluverecek
-4.66293	buluyor
-4.787869	buluyordum
-4.787869	buluyorlar
-4.56602	buluyorsun
-4.96396	buluyorsunuz
-4.96396	buluş
-4.96396	buluşabilir
-4.96396	buluşacağız
-4.96396	buluşalım
-4.96396	buluşmaya
-4.96396	buluştuğumuz
-4.96396	buluştuğun
-4.96396	buluşur
-4.96396	buluşuruz
-3.161186	buna
-4.088899	bunda
-3.407658	bundan
-3.401667	bunlar
-3.942771	bunlara
-4.96396	bunlarda
-4.223597	bunlardan
-4.96396	bunlardır
-4.787869	bunlarla
-3.419892	bunları
-3.802592	bunların
-2.610814	bunu
-3.15778	bunun
-3.96396	bununla
-4.787869	bura
-4.96396	buracıkta
-2.855057	burada
-4.486839	buradaki
-4.486839	buradalar
-4.96396	buradalarmış
-3.438915	buradan
-4.088899	buradasın
-4.787869	buradasınız
-4.486839	buradaydı
-4.787869	buradaydım
-4.96396	buradaydın
-4.787869	buradaymış
-3.96396	buradayım
-4.310748	buradayız
-4.56602	buralara
-4.223597	buralarda
-4.96396	buralardadır
-4.787869	buralardan
-4.96396	buralardayım
-4.56602	buraların
-4.96396	buralı
-4.96396	burama
-4.486839	buranın
-3.452077	burası
-4.96396	burasında
-4.96396	burasını
-3.247957	buraya
-4.419892	burayı
-4.96396	burcun
-4.151047	burda
-4.787869	burdan
-4.96396	burdasın
-4.96396	burdaymış
-4.66293	burdayım
-4.96396	burdayız
-4.96396	burhaniyenin
-4.96396	burkulduğunu
-4.419892	burnu
-4.787869	burnum
-4.787869	burnuma
-4.96396	burnumu
-4.96396	burnumun
-4.96396	burnun
-4.787869	burnuna
-4.96396	burnundan
-4.486839	burnunu
-4.66293	burnunun
-4.787869	bursa
-4.96396	bursada
-4.96396	bursadan
-4.787869	bursaya
-4.3619	burun
-4.787869	burunlu
-4.96396	buruşmuş
-4.96396	buruşmuştu
-4.787869	buruşturarak
-4.96396	buruşturdu
-4.96396	buruşturduktan
-4.96396	buruşturmadı
-4.96396	buruşturmuştu
-4.96396	buruşturunca
-4.787869	buruşuklar
-4.96396	buruşukları
-4.96396	buruşuklarını
-4.96396	burç
-4.96396	buselere
-4.96396	bute
-4.419892	buydu
-4.96396	buymuş
-4.787869	buyruk
-4.96396	buyrulmuş
-4.66293	buyrun
-4.96396	buyruğu
-4.96396	buysa
-4.26499	buyur
-4.96396	buyuran
-4.96396	buyurdun
-4.96396	buyurdunuz
-4.96396	buyurmadan
-4.96396	buyurmaz
-4.96396	buyursanıza
-4.96396	buyursun
-4.034541	buyurun
-4.787869	buyurunuz
-4.787869	buyurur
-4.96396	buyurursanız
-4.118862	buz
-4.96396	buzağı
-4.96396	buzağının
-4.96396	buzağısı
-4.96396	buzları
-4.486839	buzlu
-4.96396	buzsuz
-4.185809	buçuk
-4.96396	buçuğa
-4.96396	buçuğu
-4.151047	buğday
-4.96396	buğdayım
-4.96396	buğulanmıştı
-4.66293	buğulu
-4.96396	buğusunu
-4.96396	bye
-4.3619	böbrek
-4.419892	böbrekte
-4.96396	böbreği
-4.96396	böbreğinizde
-4.96396	böcek
-4.96396	böceklerin
-4.787869	bölge
-4.419892	bölgede
-4.96396	bölgeden
-4.96396	bölgelerden
-4.96396	bölgenin
-4.96396	bölgesel
-4.96396	bölgesi
-4.787869	bölgesinde
-4.96396	bölgesindeki
-4.96396	bölgesi’dir
-4.96396	bölgeye
-4.96396	bölmüyorumdur
-4.96396	bölüm
-4.66293	bölümde
-4.96396	bölümden
-4.96396	bölümdesin
-4.96396	bölümlerden
-4.96396	bölümleri
-4.96396	bölümlük
-4.66293	bölümü
-4.96396	bölümüdür
-4.96396	bölümünden
-4.96396	bölümüne
-4.96396	bölün
-4.96396	bölündü
-4.96396	bölünecek
-4.96396	bölünecekse
-4.96396	bölünmeden
-4.96396	bölünmelere
-4.96396	bölünmüş
-4.787869	bölüyor
-4.96396	bölüyorum
-4.96396	bölüştürdüğünü
-4.96396	börek
-4.96396	börekçi
-4.787869	börk
-4.96396	börkmüş
-2.92853	böyle
-4.185809	böylece
-4.96396	böyledir
-4.96396	böyleleri
-4.787869	böylesi
-4.96396	böylesini
-4.787869	böyleydi
-4.66293	böyleyim
-4.96396	böyleyiz
-4.96396	böyleymiş
-4.96396	böyleyse
-4.96396	böğründe
-4.96396	böğürmesi
-4.96396	böğürtlenin
-4.96396	büfeden
-4.96396	büfenin
-4.787869	büfeye
-4.787869	büke
-4.96396	bükemediğin
-4.787869	bükerek
-4.96396	büklüm
-4.96396	bükmüş
-4.96396	bükmüştü
-4.96396	bükreş
-4.96396	bükreşe
-4.96396	bükreşli
-4.787869	büktü
-4.96396	bükük
-4.96396	bükülmeden
-4.96396	bükülü
-4.96396	bükülüveriyordu
-4.96396	bükülüvermiş
-4.96396	büküyordum
-4.96396	bülbülden
-4.96396	bülbüller
-4.96396	bülbülü
-4.96396	bülbülüm
-4.96396	bülbülün
-4.96396	bülenti
-4.96396	bünyen
-4.96396	bünyenizin
-4.96396	bünyesi
-4.96396	büro
-4.96396	bürümüş
-4.96396	bürünür
-4.96396	bürünürsün
-3.611778	büsbütün
-4.96396	büst
-4.96396	bütçe
-3.058164	bütün
-4.66293	büvet
-4.787869	büvete
-4.66293	büvetin
-4.787869	büvette
-4.96396	büyü
-4.787869	büyücek
-4.96396	büyücü
-4.96396	büyücülük
-4.787869	büyüdü
-4.66293	büyüdükçe
-4.66293	büyüdüm
-4.787869	büyüdün
-4.96396	büyüdüğüm
-3.128269	büyük
-4.787869	büyükanne
-4.787869	büyükbaba
-4.96396	büyükbabalarımıza
-4.96396	büyükbaş
-4.96396	büyükelçi
-4.96396	büyükköyden
-4.66293	büyükleri
-4.96396	büyüklerimiz
-4.96396	büyüklerimizden
-4.96396	büyüklük
-4.96396	büyüklüklerine
-4.787869	büyüklükte
-4.96396	büyüklükteki
-4.96396	büyüklüğe
-4.787869	büyüklüğü
-4.787869	büyüktü
-4.96396	büyüktür
-4.96396	büyükçe
-4.96396	büyüle
-4.96396	büyülemedi
-4.96396	büyüleyici
-4.787869	büyüleyiciydi
-4.96396	büyüme
-4.96396	büyümez
-4.66293	büyümüş
-4.787869	büyümüşsün
-4.96396	büyümüştür
-4.419892	büyür
-4.96396	büyüt
-4.96396	büyüteceğim
-4.96396	büyüteceğine
-4.96396	büyüttük
-4.96396	büyütülür
-4.96396	büyüye
-4.96396	büyüyemiyorlardı
-4.66293	büyüyen
-4.96396	büyüyerek
-4.96396	büyüyor
-4.96396	büyüyordu
-4.96396	büyüyorlar
-4.96396	büyüyüvermiş
-4.223597	büyüğü
-4.56602	büyüğün
-4.96396	büyüğüne
-4.96396	büyüğünü
-4.96396	büzerek
-4.96396	büzesin
-4.96396	büzülen
-4.787869	büzülmüş
-4.96396	büzülüp
-4.96396	büzülür
-4.96396	büğelek
-4.96396	büğrü
-4.96396	bıkar
-4.96396	bıkkın
-4.96396	bıkkınlık
-4.96396	bıkkınlığı
-4.96396	bıkmıştım
-4.486839	bıktım
-4.96396	bıkılır
-4.96396	bıldır
-4.96396	bıldırcık
-4.96396	bıldırcın
-4.96396	bıldırcının
-3.351176	bırak
-4.787869	bırakacak
-4.96396	bırakacaksın
-4.787869	bırakacağım
-4.486839	bırakalım
-4.56602	bırakamam
-4.787869	bırakamayız
-4.96396	bırakamazsın
-4.96396	bırakan
-4.151047	bırakarak
-4.486839	bırakayım
-4.26499	bırakma
-4.56602	bırakmadı
-4.787869	bırakmadılar
-4.96396	bırakmadın
-4.486839	bırakmak
-4.96396	bırakmaktan
-4.96396	bırakmalısın
-4.787869	bırakmam
-4.96396	bırakmama
-4.96396	bırakmamak
-4.96396	bırakmamalı
-4.787869	bırakmamış
-4.787869	bırakmamıştı
-4.96396	bırakmamıştım
-4.96396	bırakmaya
-4.96396	bırakmayacak
-4.96396	bırakmayacaklarını
-4.66293	bırakmayacağım
-4.787869	bırakmayın
-4.787869	bırakmaz
-4.96396	bırakmazlar
-4.787869	bırakmıyor
-4.66293	bırakmıyordu
-4.96396	bırakmıyorsun
-4.96396	bırakmıyorum
-4.56602	bırakmış
-4.96396	bırakmışlar
-4.96396	bırakmışlardı
-4.787869	bırakmıştı
-4.96396	bıraksınlar
-4.06087	bıraktı
-4.96396	bıraktıkları
-4.486839	bıraktılar
-4.185809	bıraktım
-4.96396	bıraktın
-4.486839	bıraktığı
-4.66293	bıraktığım
-4.96396	bıraktığın
-4.96396	bıraktığınız
-4.96396	bırakılacak
-4.96396	bırakıldı
-4.96396	bırakılmıştı
-4.96396	bırakılıvermişti
-3.903262	bırakın
-4.96396	bırakınca
-4.419892	bırakıp
-4.3619	bırakır
-4.96396	bırakırdı
-4.96396	bırakırken
-4.96396	bırakırsan
-4.96396	bırakırım
-4.96396	bırakıverdim
-4.96396	bırakıyor
-4.787869	bırakıyordu
-4.96396	bırakıyorlar
-4.56602	bırakıyorum
-4.787869	bıyık
-4.96396	bıyıkları
-4.96396	bıyıklarım
-4.56602	bıyıklı
-4.96396	bıyığın
-4.26499	bıçak
-4.96396	bıçaklamış
-4.96396	bıçakları
-4.96396	bıçaklarım
-4.66293	bıçağı
-4.96396	bıçağın
-4.787869	bıçağının
-4.96396	bıçkıhanesi
-4.96396	cadde
-4.787869	caddede
-4.787869	caddeden
-4.787869	caddeler
-4.787869	caddenin
-4.96396	caddesindeki
-4.787869	caddesine
-4.96396	caddesi’ndeki
-4.419892	caddeye
-4.56602	cahil
-4.66293	cahile
-4.96396	cahilin
-4.787869	cahille
-4.787869	cahillik
-4.96396	cahillikle
-4.96396	caizse
-4.26499	cam
-4.96396	cama
-4.787869	cambaz
-4.787869	camdan
-4.96396	camekanda
-4.787869	camekanlı
-4.96396	camekânlarını
-4.96396	camekânlı
-4.486839	cami
-4.787869	camiini
-4.96396	caminin
-4.96396	camiye
-4.787869	camları
-4.787869	camların
-4.96396	camlarıyla
-4.787869	camlı
-4.96396	camı
-4.787869	camın
-3.733511	can
-4.66293	cana
-4.96396	canan
-4.66293	canavar
-4.787869	canavarlar
-4.96396	canavarların
-4.96396	canavarı
-4.96396	canavarım
-4.96396	canayakın
-4.223597	candan
-3.986236	candarma
-4.96396	candarmadan
-4.223597	candarmalar
-4.96396	candarmalardan
-4.96396	candarmalarla
-4.96396	candarmaları
-4.66293	candarmaların
-4.96396	candarmalı
-4.66293	candarmanın
-4.96396	candarmayla
-4.96396	candarmayı
-4.787869	canfes
-4.56602	cankurtaran
-4.96396	cankurtarana
-4.96396	cankurtaranın
-4.96396	canlan
-4.310748	canlandı
-4.96396	canlandırdı
-4.96396	canlandırınca
-4.96396	canlandırırdı
-4.96396	canlanmış
-4.96396	canlanın
-4.96396	canlanıyordu
-4.96396	canları
-4.96396	canlarım
-4.96396	canlarına
-4.3619	canlı
-4.96396	canlısıyım
-4.96396	cansız
-3.86705	canı
-3.501562	canım
-4.66293	canımı
-4.96396	canımın
-4.486839	canın
-4.419892	canına
-4.96396	canından
-4.419892	canını
-4.96396	canınız
-4.96396	card
-4.96396	cariyelerimi
-4.96396	carolina’nın
-4.96396	carousel
-4.96396	casus
-4.223597	cavit
-4.96396	caz
-4.96396	cazibe
-4.96396	cazibeydi
-4.96396	cebi
-4.96396	cebimde
-4.66293	cebimden
-4.66293	cebime
-4.419892	cebinde
-4.787869	cebindeki
-4.310748	cebinden
-4.26499	cebine
-4.96396	cefa
-4.96396	cefadan
-4.787869	cefayı
-4.96396	cehaleti
-4.66293	cehennem
-4.96396	cehennemdeler
-4.96396	cehennemdesin
-4.96396	cehennemdi
-4.151047	cehenneme
-4.787869	cehennemin
-4.96396	ceket
-4.787869	ceketi
-4.66293	ceketimin
-4.96396	ceketimle
-4.486839	ceketini
-4.787869	ceketinin
-4.787869	ceketli
-4.96396	ceku
-4.96396	celallanırdı
-4.96396	celbetmiyor
-4.96396	cellat
-4.96396	cellatlara
-4.787869	celsede
-4.96396	cemile
-4.96396	cemiyetin
-4.787869	cenabı
-4.96396	cenapları
-4.96396	cenaze
-4.96396	cenazem
-4.96396	cenazenin
-4.787869	cenazeyi
-4.96396	cenderenin
-4.96396	cengi
-4.66293	cennet
-4.96396	cennete
-4.787869	cennette
-4.96396	cennetten
-4.96396	century
-4.96396	cenuba
-4.787869	cenup
-4.96396	cep
-4.96396	cephanem
-4.96396	cepheden
-4.787869	cereyan
-4.787869	cereyana
-4.787869	cerrahi
-4.96396	cerrahisinde
-4.96396	cerrahlık
-4.009717	cesaret
-4.56602	cesareti
-4.787869	cesaretim
-4.787869	cesaretini
-4.66293	cesaretle
-4.96396	cesaretleri
-4.96396	cesaretli
-4.96396	cesaretsizlik
-4.787869	ceset
-4.96396	cesur
-4.96396	cesurca
-4.96396	cesurdu
-4.96396	cetlerinden
-4.96396	cevabı
-4.96396	cevabım
-4.96396	cevabımdan
-4.96396	cevabımı
-4.787869	cevabın
-4.419892	cevabını
-4.96396	cevabınız
-3.3619	cevap
-4.56602	cevapla
-4.66293	cevaplar
-4.96396	cevaplara
-4.96396	cevaplardan
-4.96396	cevapsız
-4.787869	ceviz
-4.96396	cevretmek
-4.56602	ceza
-4.96396	cezalarının
-4.96396	cezamız
-4.787869	cezası
-4.66293	cezasını
-4.96396	cezasının
-4.96396	cezaya
-4.96396	charterhouseda
-4.96396	cherokeedir
-4.96396	chris
-4.96396	cici
-4.96396	cicim
-4.96396	cidarında
-4.66293	cidden
-3.86705	ciddi
-4.96396	ciddiler
-4.787869	ciddileşerek
-4.96396	ciddileşir
-4.787869	ciddileşti
-4.96396	ciddiydi
-4.787869	ciddiye
-4.96396	ciddiyetime
-4.486839	ciddiyim
-4.96396	cigara
-4.96396	cigarası
-4.96396	cihane
-4.96396	cihatla
-4.96396	cihazı
-4.96396	cihazın
-4.96396	cihetin
-4.96396	cihetine
-4.96396	cihetlere
-4.96396	cihetleri
-4.96396	cildinde
-4.787869	ciltli
-4.787869	cilve
-4.96396	cilveleşmeliydi
-4.96396	cin
-4.66293	cinayet
-4.96396	cinayete
-4.96396	cinayetten
-4.787869	cins
-4.96396	cinsellik
-4.96396	cinsi
-4.787869	cinsine
-4.96396	cinsini
-4.96396	cinsten
-4.96396	cinstir
-4.96396	cips
-4.96396	ciriti
-4.96396	cirmi
-4.96396	cisim
-4.96396	cisimlerin
-4.96396	cismin
-4.96396	city
-4.787869	civar
-4.787869	civarda
-4.787869	civardaki
-4.96396	civardaydım
-4.96396	civarrında
-4.3619	civarında
-4.787869	civarındaki
-4.787869	civarını
-4.787869	civciv
-4.486839	ciğer
-4.96396	ciğerden
-4.96396	ciğere
-4.96396	ciğeri
-4.96396	ciğerim
-4.96396	ciğerlerinden
-4.96396	ciğerlerine
-4.96396	clapton
-4.26499	cm
-4.96396	come
-4.96396	como
-4.96396	cornelldeki
-4.96396	cosmotenin
-4.96396	county
-4.96396	covid
-4.96396	coğrafi
-4.96396	coğrafya
-4.96396	coşar
-4.96396	coşkun
-4.96396	coşkundu
-4.787869	coşkunluğu
-4.787869	coştu
-4.96396	coşuyor
-4.96396	creeper
-4.486839	crp
-4.66293	cuma
-4.56602	cumartesi
-4.96396	cumhura
-4.96396	cumhurbaşkanı
-4.96396	cumhuriyeti
-4.96396	curasını
-4.787869	curun
-4.787869	cömert
-4.66293	cömertlik
-4.96396	cömertsin
-4.96396	cömertsiniz
-4.96396	cüceleri
-4.96396	cücük
-4.96396	cücüğü
-4.419892	cümle
-4.787869	cümleden
-4.787869	cümleler
-4.96396	cümlelere
-4.96396	cümleleri
-4.56602	cümlelerle
-4.96396	cümlemizin
-4.787869	cümlenin
-4.96396	cümlenize
-4.56602	cüret
-4.96396	cürmü
-4.96396	cürüm
-4.96396	cürümlerimin
-4.96396	cüzdanımı
-4.96396	cüzdanına
-4.96396	cüzdanını
-4.56602	cıgara
-4.96396	cıgaralarını
-4.787869	cıgarayı
-4.96396	cırcırböcekleri
-4.96396	cıvık
-4.96396	cıvıldamalarına
-4.96396	cıvıttı
-4.66293	cız
-4.96396	cızırtılarla
-4.96396	cızırtılı
-2.428666	da
-4.96396	dabanının
-4.96396	dadanan
-4.96396	dadandırma
-4.96396	dadanırsa
-4.96396	dah
-2.536636	daha
-4.96396	dahaki
-4.787869	dahası
-4.486839	dahi
-4.56602	dahil
-4.96396	dahilinde
-4.26499	dahiliye
-4.96396	dahiliğinde
-4.96396	dahilsin
-4.96396	dahisin
-4.96396	daily
-4.151047	daima
-4.787869	daimi
-4.118862	dair
-4.787869	daire
-4.66293	dairede
-4.96396	dairene
-4.96396	dairesine
-4.96396	daireye
-3.465649	dakika
-4.96396	dakikada
-4.96396	dakikalar
-4.66293	dakikalarca
-4.96396	dakikaları
-4.787869	dakikalık
-4.96396	dakikamız
-4.787869	dakikan
-4.96396	dakikanız
-4.96396	dakikanızı
-4.96396	dakikası
-4.96396	dakikasına
-4.96396	dakikasında
-4.787869	dakikaya
-4.96396	dakka
-4.96396	daktilo
-4.96396	daktilolara
-4.96396	dal
-4.787869	dala
-4.96396	dalak
-4.96396	dalan
-4.66293	dalar
-4.96396	dalardım
-4.96396	dalarsa
-4.96396	dalavereler
-4.96396	dalavereleri
-4.96396	dalaveresine
-4.96396	dalavereyle
-4.486839	daldı
-4.96396	daldık
-4.96396	daldıktan
-4.96396	daldıkça
-4.96396	daldım
-4.96396	daldığı
-3.986236	dalga
-4.96396	dalgacıydı
-4.96396	dalgalardan
-4.96396	dalgaları
-4.96396	dalgaların
-4.96396	dalgalı
-4.96396	dalganın
-4.96396	dalgası
-4.96396	dalgasını
-4.96396	dalgasız
-4.3619	dalgın
-4.96396	dalgınlıkla
-4.96396	dalgınlığınızda
-4.96396	dalgınmışım
-4.96396	dallama
-4.66293	dallar
-4.96396	dallardan
-4.787869	dalları
-4.96396	dalların
-4.96396	dallarına
-4.96396	dallarında
-4.787869	dalmış
-4.96396	dalmışlardı
-4.96396	dalmıştı
-4.96396	dalı
-4.96396	dalın
-4.96396	dalıyla
-4.96396	dalış
-4.96396	dama
-4.96396	damada
-4.96396	damar
-4.787869	damarda
-4.96396	damardan
-4.96396	damarları
-4.96396	damat
-4.96396	damatların
-4.96396	damdaki
-4.96396	damdan
-4.96396	dame
-4.96396	damga
-4.96396	damgasını
-4.96396	damlacık
-4.787869	damlalar
-4.96396	damlaları
-4.96396	damlalarını
-4.96396	damlalarının
-4.96396	damlamaya
-4.96396	damlar
-4.787869	damlarda
-4.96396	damlardan
-4.787869	damların
-4.787869	damın
-4.96396	damıtma
-4.96396	dan
-4.96396	dana
-4.96396	danaları
-4.96396	danaya
-4.787869	danayı
-4.96396	dancing
-3.86705	dans
-4.66293	dansa
-4.96396	dansite
-4.787869	dansiteleri
-4.66293	dansitesinde
-4.787869	danslar
-4.787869	dansta
-4.96396	danstan
-4.96396	dansçıyım
-4.96396	dansı
-4.96396	danteyi
-4.787869	danış
-4.96396	danışan
-4.96396	danışayım
-4.96396	danışmadan
-4.96396	danışman
-4.96396	danışmanlık
-4.96396	danışmanıydı
-4.96396	danışmaya
-4.96396	danışmayan
-4.96396	danıştılar
-4.96396	danıştım
-4.96396	danışırlardı
-4.009717	dar
-4.96396	daracık
-4.96396	daralmaya
-4.96396	daralmış
-4.96396	daralıyor
-4.96396	darağacına
-4.787869	darbe
-4.96396	darbenin
-4.96396	dardır
-4.787869	dargın
-4.787869	dargınlık
-4.96396	dargınlığı
-4.96396	dargınsınız
-4.96396	darlaştı
-4.96396	darlaşıyordu
-4.96396	darlıkta
-4.96396	darlığa
-4.56602	darlığı
-4.96396	darmadağındı
-4.96396	darmadağınıktı
-4.96396	darülfünunda
-4.66293	darı
-4.787869	darıdan
-4.96396	darılarak
-4.96396	darılma
-4.96396	darılmadınız
-4.96396	darılmama
-4.96396	darılmayın
-4.96396	darıltmaktan
-4.96396	darılırım
-4.96396	darıya
-4.486839	dava
-4.787869	davacı
-4.96396	davacın
-4.96396	davadan
-4.96396	davalar
-4.96396	davaların
-4.787869	davanın
-4.96396	davar
-4.787869	davarını
-4.787869	davası
-4.787869	davavekili
-4.96396	davavekilinin
-4.3619	davet
-4.96396	davetiniz
-4.96396	davetlilerin
-4.96396	davetsiz
-4.96396	davran
-4.96396	davrandım
-4.96396	davranma
-4.96396	davranmaktan
-4.96396	davranması
-4.96396	davranır
-4.96396	davranırım
-4.96396	davranıyordu
-4.96396	davranıyorlar
-4.787869	davranıyorsun
-4.787869	davul
-4.96396	davula
-4.96396	davulcu
-4.96396	davulcular
-4.96396	davuldan
-4.96396	davulların
-4.96396	davulu
-4.96396	davulun
-4.96396	davut
-4.96396	day
-4.96396	daya
-4.96396	dayadığını
-4.223597	dayak
-4.96396	dayaktan
-4.66293	dayamış
-4.787869	dayamıştı
-4.419892	dayan
-4.96396	dayanabildikleri
-4.96396	dayanabilecek
-4.96396	dayanacak
-4.96396	dayanacağım
-4.96396	dayanakları
-4.96396	dayanamadı
-4.787869	dayanamadım
-4.787869	dayanamam
-4.66293	dayanamayacağım
-4.96396	dayanamayacağımı
-4.787869	dayanamayıp
-4.96396	dayanamazdı
-4.787869	dayanamıyorum
-4.96396	dayanan
-4.486839	dayanarak
-4.787869	dayandı
-4.96396	dayandığı
-4.486839	dayanma
-4.96396	dayanmadan
-4.96396	dayanmadığı
-4.96396	dayanmak
-4.96396	dayanmalısın
-4.96396	dayanmaya
-4.56602	dayanmaz
-4.66293	dayanmış
-4.96396	dayanık
-4.96396	dayanıklıdır
-4.96396	dayanılmayacak
-4.66293	dayanılmaz
-4.96396	dayanılır
-4.96396	dayanın
-4.66293	dayanır
-4.96396	dayanırlar
-4.96396	dayanırım
-4.96396	dayanıyor
-4.96396	dayarken
-4.96396	dayatmış
-4.56602	dayayarak
-4.787869	dayayıp
-4.66293	dayağı
-4.96396	dayı
-4.96396	dayılarına
-4.66293	dayım
-4.96396	dayısı
-4.96396	dayısının
-4.787869	dayıya
-4.96396	dayıyorsun
-4.96396	daz
-4.96396	daza
-4.96396	dazla
-4.96396	dazlayan
-3.96396	dağ
-4.223597	dağa
-4.3619	dağda
-4.56602	dağdan
-4.486839	dağlar
-4.96396	dağlara
-4.66293	dağlarda
-4.66293	dağları
-4.56602	dağların
-4.96396	dağları’nda
-4.96396	dağlıyım
-4.787869	dağı
-4.96396	dağılalı
-4.96396	dağılan
-4.787869	dağıldı
-4.486839	dağıldılar
-4.96396	dağılmaya
-4.66293	dağılmış
-4.96396	dağılımlı
-4.66293	dağılın
-4.96396	dağılır
-4.96396	dağılırken
-4.96396	dağıma
-4.3619	dağın
-4.96396	dağına
-4.66293	dağınık
-4.96396	dağınıklığın
-4.96396	dağınıktı
-4.96396	dağınıkça
-4.96396	dağıttılar
-4.96396	dağıtılabilir
-4.96396	dağıtılsın
-4.96396	dağıtılıyor
-4.96396	dağıtıyorsun
-4.96396	daşşağı
-2.318538	de
-4.96396	dean
-4.96396	debdebe
-4.96396	debeleniyordu
-4.56602	dede
-4.787869	dededen
-4.96396	dedektifim
-4.96396	dedemköy
-4.419892	dedemköylü
-2.970524	dedi
-4.66293	dedik
-4.26499	dedikleri
-4.96396	dediklerimi
-4.787869	dedikodu
-4.96396	dedikodudan
-4.787869	dedikodular
-4.96396	dedikten
-4.151047	dediler
-3.16808	dedim
-4.034541	dedin
-4.66293	dediniz
-4.96396	dedirmemek
-4.96396	dedirtirmiş
-4.26499	dediği
-4.26499	dediğim
-4.26499	dediğimi
-4.96396	dediğimiz
-4.310748	dediğin
-4.96396	dediğine
-4.185809	dediğini
-4.96396	dediğinize
-4.96396	deerubbin
-3.817832	defa
-4.96396	defada
-4.96396	defadan
-4.787869	defadır
-4.96396	defalar
-4.96396	defalarca
-4.96396	defans
-4.66293	defasında
-4.118862	defol
-4.96396	defolsun
-4.66293	defolun
-4.787869	defolup
-4.66293	defter
-4.787869	deftere
-4.3619	defteri
-4.787869	defterime
-4.96396	defterimi
-4.56602	defterini
-4.66293	defterler
-4.96396	defterleri
-4.96396	defterlerimize
-4.66293	deh
-4.96396	dehaletimi
-4.66293	dehşet
-4.96396	dehşete
-4.96396	dehşetini
-4.96396	dehşetle
-4.66293	dehşetli
-4.96396	dehşetmiş
-4.96396	dejavu
-4.310748	dek
-4.486839	dekolman
-4.96396	del
-4.96396	deldin
-4.96396	deler
-3.47966	deli
-4.96396	delibozuk
-4.787869	delice
-4.787869	deliden
-4.486839	delik
-3.884779	delikanlı
-4.96396	delikanlıdan
-4.787869	delikanlılar
-4.96396	delikanlılarla
-4.787869	delikanlıları
-4.96396	delikanlılıklarında
-4.96396	delikanlılığımızda
-4.66293	delikanlının
-4.96396	delikanlısını
-4.96396	delikanlısıydık
-4.56602	delikanlıya
-4.96396	delikanlıydı
-4.787869	delikanlıyı
-4.787869	delikli
-4.66293	delikten
-4.96396	delikteydi
-4.787869	delilik
-4.96396	deliller
-4.96396	delilsiz
-4.66293	delinin
-4.96396	delinir
-4.96396	delinmiş
-4.96396	delinmişti
-4.96396	delip
-4.96396	delirdi
-4.66293	delirdin
-4.96396	delirdiniz
-4.96396	deliriyorum
-4.787869	delirmiş
-4.96396	delirmişsiniz
-4.96396	delirtiyor
-4.66293	delisi
-4.66293	delisin
-4.96396	delisiniz
-4.96396	deliydi
-4.56602	deliye
-4.787869	deliyi
-4.96396	deliyim
-4.419892	deliğe
-4.419892	deliği
-4.96396	deliğinden
-4.96396	deliğine
-4.96396	deliğini
-4.96396	deliğinin
-4.96396	delmek
-4.96396	demans
-4.26499	deme
-4.419892	demeden
-4.96396	demedi
-4.419892	demedim
-4.96396	demedin
-4.96396	demediniz
-3.231566	demek
-4.787869	demekle
-4.96396	demekmiş
-4.56602	demekti
-4.486839	demektir
-4.787869	demeli
-4.96396	demeliydi
-4.96396	demeliyim
-4.96396	dememeli
-4.787869	dememiş
-4.787869	dememişler
-4.486839	demeye
-4.787869	demeyecek
-4.787869	demeyin
-4.56602	demez
-4.96396	demezsin
-4.419892	demin
-4.96396	deminden
-4.66293	deminki
-4.009717	demir
-4.96396	demircinin
-4.96396	demirden
-4.96396	demirin
-4.96396	demirle
-4.96396	demirlerine
-4.96396	demiryolları
-4.96396	demiryollarımız
-4.96396	demiryollarındaydı
-4.96396	demiryolu
-4.96396	demiryoluna
-4.787869	demiyor
-4.787869	demiyorum
-3.472598	demiş
-4.96396	demişim
-3.884779	demişler
-4.96396	demişti
-4.56602	demiştim
-4.787869	demiştin
-4.96396	demle
-4.96396	demleyen
-4.96396	demokrasilerde
-4.3619	dene
-4.787869	denebilir
-4.66293	denecek
-4.96396	denedi
-4.787869	denedik
-4.96396	denedim
-4.96396	denedin
-4.419892	deneme
-4.56602	denemek
-4.96396	denemelisin
-4.96396	denemeliyim
-4.96396	denemeydi
-4.787869	denemeye
-4.96396	denemiyorsun
-4.96396	denen
-4.96396	denenecekti
-4.96396	denenmişi
-4.96396	dener
-4.66293	denerim
-4.96396	denersin
-4.787869	denesene
-4.96396	denetçiler
-4.96396	deneyebilir
-4.96396	deneyeceğim
-4.310748	deneyelim
-4.96396	deneyenlerin
-4.66293	deneyeyim
-4.96396	deneyim
-4.787869	deneyin
-4.96396	denge
-4.787869	dengi
-4.96396	denildiği
-4.96396	denilemezdi
-4.787869	denilen
-4.96396	denince
-4.787869	denir
-4.96396	deniyorum
-4.96396	deniyoruz
-4.118862	deniz
-4.787869	denizde
-4.96396	denizdeki
-4.56602	denizden
-4.419892	denize
-4.96396	denizinde
-4.787869	denizleri
-4.96396	denizlerin
-4.96396	denizliden
-4.96396	denk
-4.96396	denkleştirebilsem
-4.96396	denkleştiremem
-4.96396	denli
-4.96396	denmez
-4.96396	densiz
-4.96396	depoda
-4.96396	deprem
-4.96396	depreşme
-3.942771	der
-4.96396	derde
-4.151047	derdi
-4.96396	derdik
-4.787869	derdim
-4.310748	derdin
-4.96396	derdine
-4.486839	derdini
-4.96396	derdinin
-4.787869	derdiniz
-4.96396	derdiymiş
-4.151047	dere
-4.96396	derebeyi
-4.26499	derece
-4.66293	derecede
