
\data\
ngram 1=735
ngram 2=1431
ngram 3=1371
ngram 4=1377
ngram 5=1325
ngram 6=1231
ngram 7=1126
ngram 8=1014
ngram 9=892
ngram 10=893
ngram 11=765
ngram 12=651
ngram 13=543
ngram 14=449
ngram 15=373
ngram 16=312
ngram 17=256
ngram 18=205
ngram 19=161
ngram 20=125
ngram 21=95
ngram 22=72
ngram 23=56
ngram 24=43
ngram 25=31

\1-grams:
-1.204942	</s>
-99	<s>	-0.5290939
-3.200577	abdomen	-0.3007562
-3.024486	abdominal	-0.4767106
-3.200577	adenomatöz	-0.3007562
-2.598517	adet	-0.3315296
-3.200577	adrenal	-0.3006193
-3.024486	af	-0.4732731
-3.200577	aircomb	-0.3007562
-2.070243	akciğer	-0.582234
-3.024486	akciğerde	-0.2977336
-3.024486	akciğerlerde	-0.3003453
-3.200577	aksilla	-0.2926022
-3.200577	aksı	-0.2969056
-3.200577	aktif	-0.3004823
-2.899547	akut	-0.5979356
-3.200577	al	-0.3000711
-2.802637	alanda	-0.473549
-3.200577	alanlar	-0.2926022
-3.024486	alanlarda	-0.3003453
-3.200577	alanları	-0.273056
-3.200577	alanlarında	-0.3007562
-2.899547	aldığı	-0.6015123
-2.297487	alt	-0.452714
-2.656509	altı	-0.3332968
-2.802637	alınan	-0.4746513
-3.024486	alındı	-0.4491473
-3.200577	amfizematöz	-0.3002082
-3.200577	ampisilin	-0.3007562
-3.024486	ana	-0.3004823
-3.024486	ancak	-0.3003453
-3.200577	anekoik	-0.3007562
-3.024486	anlamlı	-0.4765736
-2.802637	anormallik	-0.3612199
-3.200577	antepsin	-0.2966293
-3.200577	anterobazal	-0.2997968
-3.200577	anteromedial	-0.2997968
-3.024486	antiaritmik	-0.2919041
-3.200577	antibiyoterapisine	-0.3007562
-2.899547	antidiyabetik	-0.2993849
-2.802637	antihipertansif	-0.2995223
-3.024486	antikoagulan	-0.2997968
-2.899547	aort	-0.3957452
-3.024486	aorta	-0.2986976
-3.024486	aortada	-0.2923231
-3.200577	aortopulmoner	-0.2926022
-3.024486	ap	-0.4753388
-3.024486	apikal	-0.4686935
-2.899547	apikoposterior	-0.6008268
-3.200577	aralıkla	-0.3003453
-3.200577	aralıklarla	-0.3003453
-2.899547	aralıkta	-0.6013753
-2.656509	arasında	-0.4753388
-3.024486	arter	-0.3000711
-3.200577	arteriovenöz	-0.3007562
-3.200577	arteriyel	-0.2996595
-2.802637	arterlerde	-0.3581516
-3.200577	artmış	-0.3003453
-3.200577	artmıştır	-0.273056
-3.200577	artı	-0.2989727
-2.656509	artış	-0.3676248
-3.024486	artışları	-0.2917643
-2.899547	artışı	-0.369528
-3.200577	asendan	-0.3006193
-2.899547	atelektazik	-0.396844
-3.200577	atelektaziler	-0.273056
-3.024486	aterom	-0.4767106
-2.899547	ateş	-0.3889538
-3.200577	ayaklarda	-0.3007562
-3.200577	azitromisin	-0.3007562
-3.200577	açıktır	-0.273056
-3.200577	ağrıları	-0.273056
-2.598517	ağrısı	-0.2606213
-3.200577	ağırlıklı	-0.2991101
-3.024486	bakım	-0.2993849
-3.200577	bal	-0.3007562
-3.200577	balonu	-0.299934
-3.200577	batın	-0.3007562
-2.656509	bazal	-0.6008268
-3.200577	bazali	-0.3007562
-3.200577	bağlı	-0.3007562
-2.899547	başvurusuna	-0.6015123
-2.899547	başvurusunda	-0.3971182
-2.355479	belirgin	-0.5475956
-3.200577	belirginleşme	-0.2926022
-2.802637	belirtildi	-0.670996
-2.656509	belirtilerek	-0.3928476
-2.802637	belirtiyor	-0.4679953
-3.200577	belirttiği	-0.3004823
-3.200577	benzeri	-0.3007562
-2.547364	beş	-0.4709199
-2.325516	bilateral	-0.4328536
-3.200577	bilindiğini	-0.3007562
-3.200577	bilinen	-0.3006193
-2.598517	bin	-0.9010327
-2.024486	bir	-0.444321
-2.723456	birkaç	-0.7770553
-3.024486	birlikte	-0.2991101
-3.024486	biyokimya	-0.4753388
-3.200577	biyokimyasındaki	-0.3007562
-3.200577	boyut	-0.2996595
-3.200577	boyutlarda	-0.3002082
-3.200577	boyutları	-0.3006193
-2.802637	boyutlarında	-0.2997968
-2.802637	boyutlu	-0.3652316
-2.899547	boyutunda	-0.3960202
-3.024486	bozukluğu	-0.272764
-3.024486	bph	-0.4732731
-3.024486	branş	-0.475888
-3.200577	bronkopnömoni	-0.273056
-3.200577	bronşektazik	-0.3002082
-3.200577	bronşial	-0.3007562
-3.200577	bronşlar	-0.3007562
-3.200577	bt	-0.2997968
-2.802637	bulantı	-0.2992476
-2.656509	bulgu	-0.8437276
-2.802637	bulgular	-0.3664691
-3.200577	bulgularla	-0.3006193
-3.200577	bulgularının	-0.2991101
-3.200577	bulunabilir	-0.273056
-2.802637	bulunan	-0.6890048
-3.024486	bulunduğu	-0.472444
-3.200577	bulunuyor	-0.273056
-3.200577	bunun	-0.2997968
-2.723456	buzlu	-0.7773295
-2.802637	böbrek	-0.2957991
-3.200577	böbrekte	-0.2997968
-3.024486	bölgede	-0.2996595
-3.200577	bölümde	-0.2966293
-3.200577	büyüklükte	-0.3003453
-3.200577	büyüklüğü	-0.2926022
-2.547364	büyüğü	-0.3518074
-2.723456	cam	-0.4247355
-3.024486	cerrahi	-0.2995223
-3.200577	cidarında	-0.3003453
-2.501607	cm	-0.390905
-3.200577	covid	-0.2977336
-2.723456	crp	-0.3498502
-2.355479	da	-0.4101432
-2.355479	daha	-0.4130667
-2.598517	dahiliye	-0.376777
-3.200577	dalak	-0.3007562
-3.200577	dansite	-0.3006193
-3.024486	dansiteleri	-0.2917643
-2.899547	dansitesinde	-0.2985601
-3.024486	darlığı	-0.2720332
-3.200577	dağılımlı	-0.3002082
-2.297487	de	-0.3463973
-3.200577	demans	-0.2971818
-3.200577	desmont	-0.3003453
-3.200577	desteği	-0.2971818
-2.656509	devam	-0.2934385
-2.656509	devamı	-0.5727706
-3.200577	değerinde	-0.2988352
-2.802637	değerinin	-0.6967752
-3.200577	değerlendirildiği	-0.3006193
-2.656509	değerlendirilmesi	-0.3387125
-3.200577	değerlendirilmesinde	-0.3006193
-3.200577	değerlendirilmiştir	-0.273056
-3.200577	değerlendirmesi	-0.2997968
-2.387664	değerlerinde	-0.5284582
-3.200577	değerlerinin	-0.2991101
-3.200577	değişiklik	-0.273056
-2.723456	değişiklikler	-0.3878068
-3.200577	diafragma	-0.3007562
-3.200577	dizi	-0.3007562
-3.200577	diüretik	-0.3006193
-2.598517	diğer	-0.5208215
-3.200577	doku	-0.3004823
-3.024486	dokuz	-0.2986976
-3.200577	dolduran	-0.3004823
-3.200577	dolu	-0.2993849
-3.200577	dozluk	-0.3007562
-3.200577	doğal	-0.3006193
-3.024486	durum	-0.4767106
-3.200577	durumda	-0.273056
-3.024486	durumu	-0.3003453
-3.024486	durumunda	-0.4752014
-3.200577	duvar	-0.3007562
-3.024486	duvarında	-0.4764366
-3.024486	dört	-0.2963527
-2.598517	düzenlendi	-0.8946622
-3.200577	düzenlenen	-0.3006193
-3.200577	düzenlenmesi	-0.2997968
-2.387664	düzenli	-1.111198
-3.200577	düzgün	-0.3007562
-3.200577	düzgündür	-0.273056
-3.200577	düşme	-0.3007562
-3.200577	düştüğü	-0.3007562
-2.899547	düşüklüğü	-0.600964
-2.899547	düşüş	-0.3967068
-3.200577	dışı	-0.3007562
-1.868138	edildi	-1.605494
-3.200577	edilmediği	-0.3007562
-3.200577	edilmekte	-0.299934
-2.899547	edilmesi	-0.3956077
-3.200577	edilmesine	-0.3007562
-2.547364	effüzyon	-0.3327926
-3.200577	efüzyon	-0.2926022
-2.656509	ek	-0.8441392
-2.723456	ekg	-0.7769181
-3.200577	eklenmiş	-0.2991101
-3.200577	eko	-0.2971818
-3.024486	ekojenitesi	-0.3004823
-3.200577	ekostrüktürü	-0.2996595
-3.200577	ekspiratuvar	-0.3003453
-3.200577	elli	-0.3006193
-3.024486	en	-0.4767106
-3.200577	enfeksiyon	-0.3007562
-3.200577	enfeksiyonda	-0.2926022
-2.802637	eritrosit	-0.4761624
-3.024486	erken	-0.475888
-2.899547	eski	-0.3002082
-3.200577	esnasında	-0.2991101
-3.200577	etken	-0.3007562
-3.200577	etmekte	-0.2993849
-3.200577	etmesi	-0.3003453
-2.899547	evde	-0.296076
-3.200577	evinde	-0.3004823
-2.899547	expiratuvar	-0.6013753
-3.200577	extrahepatik	-0.299934
-3.024486	eğilimi	-0.4762995
-3.024486	eğiliminde	-0.4491473
-3.200577	eğiliminin	-0.3000711
-3.200577	farhex	-0.3007562
-2.899547	farklılık	-0.3956077
-3.200577	fibrotik	-0.3007562
-3.200577	film	-0.3007562
-3.200577	filmleriyle	-0.3007562
-3.200577	fizik	-0.3003453
-3.024486	flakon	-0.272764
-3.200577	flixotide	-0.3007562
-3.200577	formasyonları	-0.273056
-3.200577	formda	-0.3004823
-3.200577	gargara	-0.3007562
-3.200577	gastroskopi	-0.3007562
-3.200577	geldiğinin	-0.2963527
-2.547364	gelmesi	-0.6973249
-2.802637	genel	-0.4762995
-3.024486	geniş	-0.4767106
-2.899547	genişleme	-0.2992475
-3.200577	gerek	-0.3006193
-3.200577	gerekse	-0.2988352
-3.200577	gerektirdiğine	-0.3007562
-3.200577	gereği	-0.3007562
-3.024486	gerilediği	-0.472444
-3.024486	gerileme	-0.4767106
-3.200577	gerilemiş	-0.3007562
-2.656509	gerileyen	-0.5834695
-3.200577	getirilerek	-0.299934
-3.200577	geçmeyen	-0.3007562
-3.200577	gibi	-0.299934
-3.024486	gland	-0.4767106
-3.024486	glandda	-0.2996595
-2.899547	grafisinde	-0.3954701
-2.899547	göre	-0.6001402
-3.200577	görülebilir	-0.3006193
-3.200577	görülmediği	-0.3007562
-3.200577	görülmemiştir	-0.273056
-3.024486	görülüyor	-0.4491473
-3.200577	görüntüler	-0.299934
-3.200577	görünüm	-0.3000711
-3.024486	görünümdedir	-0.4491473
-3.200577	görünümleri	-0.273056
-3.200577	görünümü	-0.299934
-3.200577	gösteremediği	-0.2963527
-2.656509	göğüs	-0.6002775
-2.656509	gün	-0.8441392
-3.200577	güncel	-0.3007562
-3.024486	hafif	-0.299934
-3.200577	hale	-0.3007562
-3.200577	halinde	-0.2926022
-3.024486	halsizlik	-0.3002082
-2.598517	hasta	-0.3329092
-2.656509	hastadan	-0.4756135
-2.802637	hastalıkları	-0.3666064
-3.200577	hastalıkta	-0.3007562
-3.200577	hastalığı	-0.273056
-3.200577	hastamızın	-0.3006193
-1.644274	hastanın	-0.4904304
-3.024486	hastaya	-0.2963527
-3.200577	hattadır	-0.273056
-3.200577	hava	-0.3007562
-3.024486	havasında	-0.2992475
-3.200577	hazımsızlık	-0.3003453
-3.024486	hemitoraksta	-0.2996595
-2.802637	hemoglobin	-0.4762995
-2.899547	hemogramındaki	-0.6013753
-3.200577	hemorajik	-0.3006193
-3.200577	hepsi	-0.2910649
-2.547364	her	-0.9498417
-3.200577	herni	-0.273056
-3.200577	hiatal	-0.3007562
-3.024486	hiler	-0.3002082
-3.200577	hilus	-0.3007562
-3.200577	hiperat	-0.3006193
-3.200577	hiperdens	-0.3007562
-3.200577	hipertansiyon	-0.273056
-3.200577	hipodens	-0.2992476
-3.200577	hipokalemi	-0.299934
-3.200577	hipokaleminin	-0.2988352
-3.024486	hiponatremi	-0.2949674
-3.200577	hiponatremisinin	-0.2988352
-3.200577	homojen	-0.3003453
-2.723456	hırıltılı	-0.542423
-2.656509	idame	-0.8438649
-3.200577	identifikasyonuna	-0.3007562
-3.200577	idrar	-0.3007562
-1.996457	iki	-0.48935
-3.200577	ilaçlar	-0.3007562
-2.054449	ile	-0.379635
-2.899547	ileri	-0.3960202
-2.723456	ilgili	-0.5352215
-3.200577	imajı	-0.273056
-3.200577	ince	-0.3007562
-3.200577	inceleme	-0.273056
-3.200577	incelemede	-0.3000711
-3.200577	inci	-0.3007562
-2.899547	infiltrasyon	-0.396295
-3.200577	infiltrasyonlar	-0.273056
-3.200577	inhalasyon	-0.3007562
-3.024486	interlobüler	-0.4767106
-3.200577	interstisyel	-0.2973198
-3.200577	intra	-0.2926022
-3.200577	iprasal	-0.3006193
-2.899547	istenen	-0.3000711
-3.200577	istenmiş	-0.299934
-2.598517	izlendi	-0.6246544
-3.024486	izlendiği	-0.472444
-3.200577	izlenebildiği	-0.3007562
-3.200577	izlenen	-0.3007562
-2.501607	izlenmediği	-0.5885806
-3.200577	izlenmektedir	-0.273056
-3.200577	izlenmiş	-0.273056
-2.723456	izlenmiştir	-0.5158021
-3.024486	izolasyon	-0.3004823
-3.200577	içeren	-0.3006193
-2.547364	için	-0.2951061
-3.200577	içinde	-0.3007562
-3.200577	içmiyor	-0.273056
-3.200577	iştahsızlık	-0.3003453
-2.723456	kabalaşmış	-0.3955067
-3.200577	kadarıyla	-0.2996595
-3.024486	kalisiyel	-0.3004823
-3.200577	kalkül	-0.299934
-3.200577	kalküller	-0.2971818
-3.200577	kallüs	-0.3007562
-3.024486	kalp	-0.3004823
-2.723456	kalsifik	-0.4228102
-2.802637	kalsifikasyonlar	-0.4479782
-3.200577	kalsifiye	-0.3004823
-3.024486	kalınlaşmalar	-0.272764
-3.200577	kalınlık	-0.3006193
-3.200577	kalınlığı	-0.2926022
-2.355479	kan	-0.5512101
-3.200577	kanaat	-0.3007562
-3.200577	kaplayan	-0.2992476
-3.200577	kaplayıcı	-0.3007562
-3.200577	kaplı	-0.3003453
-3.200577	karaciğer	-0.2996595
-3.200577	karakterde	-0.2991101
-3.200577	karar	-0.3006193
-2.656509	kardiyak	-0.4752014
-3.200577	kardiyojenik	-0.2997968
-2.899547	kardiyoloji	-0.3882548
-3.200577	kardiyomegali	-0.3007562
-2.802637	karın	-0.697874
-3.200577	karşılaştırıldığında	-0.3006193
-2.656509	kendi	-0.600964
-3.200577	kendine	-0.3007562
-2.899547	kese	-0.2723257
-2.723456	kesesi	-0.2717406
-3.200577	kesesinin	-0.3007562
-3.200577	keseyi	-0.3007562
-3.024486	kist	-0.4491473
-3.200577	kisti	-0.3002082
-3.200577	kitle	-0.3000711
-3.024486	klinik	-0.2923231
-3.200577	kliniğine	-0.3004823
-3.200577	koleksiyonu	-0.3007562
-3.024486	komşuluğunda	-0.4765736
-3.024486	konsantratörü	-0.3000711
-3.200577	konsolidasyon	-0.3007562
-3.200577	konsulte	-0.2951061
-3.200577	konsültasyon	-0.3007562
-3.200577	kontrast	-0.3007562
-3.200577	kontrastlanma	-0.3004823
-3.200577	kontrastsız	-0.3007562
-2.387664	kontrol	-0.5229115
-2.723456	kontrole	-0.7769181
-3.200577	kontrolü	-0.3007562
-3.200577	kontrolüne	-0.2997968
-3.200577	konturları	-0.3007562
-3.200577	konturludur	-0.273056
-3.200577	kortikal	-0.2992476
-3.200577	kostalarda	-0.3004823
-3.200577	koşullarında	-0.3000711
-3.024486	kronik	-0.4767106
-3.200577	krusta	-0.2977336
-3.200577	krusunda	-0.2991101
-2.723456	kullanmakta	-0.7765062
-3.200577	kullanımına	-0.2991101
-3.200577	kurallarına	-0.3007562
-3.200577	kutu	-0.3007562
-3.200577	kültüründe	-0.2991101
-2.899547	kırk	-0.2932992
-3.200577	kırığa	-0.3007562
-3.200577	kısa	-0.3007562
-3.200577	laboratuar	-0.3007562
-2.723456	lap	-0.3971182
-3.024486	lateral	-0.3004823
-3.200577	laterobazal	-0.2997968
-2.656509	lehinde	-0.8441392
-2.899547	lenf	-0.3972553
-3.200577	levotiroksin	-0.3003453
-2.387664	lezyon	-0.5724778
-2.355479	lob	-0.4975816
-2.460214	lobda	-0.4146012
-3.024486	loblarda	-0.3003453
-3.024486	lobta	-0.299934
-3.200577	lojunda	-0.2997968
-3.200577	lokalizasyondadır	-0.273056
-3.200577	loküle	-0.3007562
-3.200577	lümeninde	-0.3007562
-3.200577	lümeninin	-0.3000711
-3.200577	madde	-0.3007562
-3.200577	malformasyon	-0.2971818
-3.200577	malzemeler	-0.3004823
-3.200577	manşet	-0.3007562
-3.200577	me	-0.3003453
-3.200577	mediasten	-0.3000711
-2.723456	mediastende	-0.4241863
-3.200577	mediastinal	-0.2926022
-2.656509	medikal	-0.8441392
-3.200577	medikasyonu	-0.3006193
-2.656509	medikasyonun	-0.5983498
-3.200577	medikasyonunun	-0.3007562
-3.200577	mesane	-0.3007562
-3.200577	metpamid	-0.3000711
-2.899547	mevcut	-0.3964323
-2.598517	mevcuttur	-0.6249465
-3.024486	mezenterik	-0.4764366
-3.024486	mg	-0.2986976
-2.723456	milimetrik	-0.4247355
-2.325516	mm	-0.4417887
-3.200577	mobil	-0.3007562
-2.802637	mobilize	-0.6982853
-3.200577	multiple	-0.3003453
-3.200577	multislice	-0.3007562
-3.200577	nabız	-0.3004823
-2.899547	nakil	-0.3971182
-3.200577	nebules	-0.3006193
-3.024486	nebulizasyon	-0.2995223
-2.598517	nedeni	-0.8992418
-3.024486	nefes	-0.4767106
-2.802637	negatif	-0.6970502
-3.200577	net	-0.2973198
-3.024486	nodları	-0.4491473
-3.200577	nodu	-0.273056
-2.899547	nodül	-0.2724718
-2.355479	nodüler	-0.5527303
-3.200577	nodüllerde	-0.3006193
-3.200577	nonspesifiktir	-0.2926022
-2.501607	normal	-0.3942298
-3.200577	normalden	-0.3004823
-3.200577	normaldir	-0.273056
-3.024486	notları	-0.2974578
-3.200577	notu	-0.273056
-3.200577	notuss	-0.3007562
-2.899547	nt-probnp	-0.6013753
-3.024486	oda	-0.4767106
-3.200577	odansite	-0.273056
-2.899547	oksijen	-0.3972553
-3.024486	oksimetre	-0.4732731
-3.200577	olabilecek	-0.3007562
-2.802637	olabiliyor	-0.4401529
-3.200577	olacağı	-0.2997968
-3.200577	olamıyormuş	-0.273056
-2.598517	olan	-0.321465
-2.355479	olarak	-0.4152811
-2.899547	olası	-0.3957452
-3.200577	oldukça	-0.2991101
-2.422426	olduğu	-0.4454018
-2.802637	olduğunu	-0.6982853
-3.200577	olduğunun	-0.2963527
-3.024486	olmak	-0.4765736
-3.024486	olması	-0.4760253
-2.656509	olmazsa	-0.8418016
-2.802637	olup	-0.2991101
-2.121396	on	-0.574086
-2.656509	orta	-0.4750639
-2.723456	oskültasyon	-0.776094
-3.024486	otuz	-0.2985601
-3.200577	oval	-0.3007562
-3.200577	ovoid	-0.3007562
-3.200577	pankreas	-0.3007562
-3.200577	parakardiak	-0.3007562
-2.802637	parankim	-0.367018
-3.024486	parankimal	-0.4765736
-3.200577	parankiminde	-0.299934
-2.802637	paratrakeal	-0.475888
-2.802637	patoloji	-0.6980112
-3.200577	patolojik	-0.3003453
-2.802637	pcr	-0.6982853
-3.200577	pelvik	-0.3004823
-3.024486	performansı	-0.2996595
-3.200577	peribronşial	-0.3007562
-3.200577	perika	-0.3007562
-3.200577	perikardial	-0.2997968
-3.200577	perikardiyal	-0.2997968
-3.200577	peteği	-0.3007562
-3.024486	plakları	-0.4491473
-2.656509	planda	-0.4734111
-3.024486	plevra	-0.3004823
-2.656509	plevral	-0.6004149
-3.200577	pnömonisinde	-0.3007562
-3.200577	pol	-0.3007562
-2.899547	porselen	-0.396295
-2.899547	posterior	-0.396295
-3.200577	potasyum	-0.3007562
-3.200577	pozitif	-0.2991101
-3.200577	prednol	-0.2977336
-3.200577	pretibial	-0.3006193
-3.200577	progas	-0.2966293
-3.200577	progresyon	-0.3003453
-2.547364	pulmoner	-0.3278346
-3.024486	pulse	-0.4767106
-3.200577	pırat	-0.3003453
-3.024486	radyoloji	-0.4767106
-2.899547	radyolojik	-0.3972553
-2.656509	rahat	-0.5997276
-3.200577	ralleri	-0.2989727
-3.200577	raporlandı	-0.273056
-2.656509	raporlandığı	-0.8404208
-2.802637	refakatli	-0.6962247
-3.200577	refcon	-0.3000711
-3.024486	regresyon	-0.3003453
-3.200577	rekonsültasyonu	-0.3003453
-3.200577	renal	-0.3003453
-3.200577	replasmanı	-0.2991101
-3.200577	retiküler	-0.3007562
-2.899547	reçete	-0.3000711
-2.802637	ronküs	-0.670996
-2.899547	ronküsleri	-0.2882557
-2.598517	safra	-0.5215083
-3.200577	santral	-0.3007562
-3.200577	saptanmadı	-0.273056
-2.656509	saptanmamıştır	-0.8171241
-3.024486	sat	-0.2986976
-3.200577	satürasyon	-0.3007562
-2.899547	satürasyonu	-0.3969811
-2.802637	sayıda	-0.2974578
-2.159184	sağ	-0.4033499
-3.024486	sağda	-0.2984224
-3.200577	sağlanarak	-0.3004823
-2.547364	sağlandı	-0.9262685
-2.723456	sağlandığı	-0.5386987
-3.200577	sebebi	-0.2971818
-3.024486	segment	-0.2969056
-2.723456	segmentlerde	-0.2970437
-3.200577	segmentlerinde	-0.299934
-2.547364	segmentte	-0.321168
-3.024486	sekel	-0.299934
-2.656509	sekiz	-0.392986
-2.802637	semptomatik	-0.6980112
-3.024486	septalarda	-0.3003453
-3.200577	serbest	-0.3003453
-2.723456	servisimizde	-0.7773295
-3.200577	servisinde	-0.3004823
-3.024486	servisine	-0.3002082
-2.723456	sesleri	-0.7773295
-3.200577	seviyede	-0.2989727
-3.200577	seyir	-0.3007562
-2.802637	seyretmekte	-0.670996
-3.200577	sft	-0.3007562
-3.200577	si	-0.2971818
-3.200577	sigara	-0.3007562
-2.547364	sinde	-0.3596885
-3.200577	sinin	-0.3007562
-3.200577	sistem	-0.3006193
-3.200577	sistemde	-0.2989727
-3.200577	skapula	-0.3007562
-2.325516	sol	-0.5734434
-2.899547	solda	-0.2992475
-3.200577	solid	-0.3004823
-2.547364	solunum	-0.4746514
-3.024486	solunumu	-0.2986976
-3.200577	sonda	-0.3007562
-3.200577	sonografik	-0.2992476
-2.656509	sonra	-0.6002775
-3.200577	sonucunda	-0.299934
-2.802637	sonucunun	-0.4745136
-3.200577	sonuçlarla	-0.3007562
-3.024486	stabil	-0.3000711
-2.899547	subkarinal	-0.3000711
-3.200577	suboptimaldir	-0.273056
-2.598517	subplevral	-0.3759487
-3.200577	subsegmental	-0.3007562
-3.200577	subsegmenter	-0.3004823
-3.200577	sulbaktam	-0.3007562
-2.899547	sürrenal	-0.3971182
-2.802637	süspansiyonu	-0.4745137
-2.723456	sıfır	-0.5415981
-3.200577	sıvı	-0.3007562
-3.200577	ta	-0.3004823
-3.200577	tabanlı	-0.3007562
-3.200577	tabii	-0.2926022
-3.024486	tabiidir	-0.4491473
-2.802637	tablet	-0.3268167
-2.656509	taburcu	-0.8391742
-2.899547	taburculuk	-0.6015123
-3.200577	tak	-0.2910649
-2.501607	takibi	-0.5019183
-2.656509	takibinde	-0.844002
-2.899547	takibine	-0.3885345
-2.899547	talebinde	-0.3969811
-3.200577	tamamen	-0.3007562
-3.200577	tamamlanarak	-0.3002082
-3.200577	tansiyon	-0.3007562
-3.024486	taraftan	-0.4671561
-2.547364	tarafından	-0.3641286
-3.024486	tarifliyor	-0.4767106
-2.899547	tarihinde	-0.6011012
-2.723456	tarihleri	-0.7771924
-3.200577	tarihli	-0.3004823
-3.200577	tarzda	-0.3002082
-2.899547	tedavi	-0.6015123
-2.547364	tedavisi	-0.6966376
-3.024486	tedavisine	-0.2996595
-3.200577	tek	-0.3007562
-3.200577	teknik	-0.2991101
-3.200577	tekrarlayıcı	-0.3007562
-2.460214	temel	-1.039473
-1.970128	tespit	-1.072424
-2.802637	testi	-0.6982853
-3.024486	tetkik	-0.3003453
-3.024486	tetkikler	-0.2689505
-3.200577	tetkikleri	-0.3007562
-3.024486	tiroid	-0.4741006
-3.200577	tit	-0.2926022
-3.200577	toraks	-0.3007562
-3.024486	trakea	-0.4686935
-3.200577	trans	-0.3003453
-2.802637	transfüze	-0.6930462
-3.200577	transtorasik	-0.3007562
-3.200577	troponin	-0.3003453
-3.024486	trunkus	-0.2986976
-3.200577	tüm	-0.3007562
-3.200577	usg	-0.3007562
-3.200577	uygulanan	-0.3007562
-2.899547	uygun	-0.2977336
-3.200577	uyması	-0.3003453
-3.200577	uyuldu	-0.273056
-3.200577	uyum	-0.3007562
-2.802637	uyumlu	-0.3667436
-3.200577	vasküler	-0.3006193
-1.716277	ve	-0.3462569
-3.024486	verildi	-0.4491473
-3.200577	verilmediği	-0.2997968
-2.802637	veya	-0.2989727
-3.200577	vücut	-0.3007562
-3.200577	yakınlarının	-0.2991101
-3.200577	yamalı	-0.3002082
-3.200577	yan	-0.299934
-3.200577	yaprakları	-0.3000711
-2.899547	yapılan	-0.3000711
-3.024486	yapıların	-0.2997968
-2.656509	yapıldı	-0.8171241
-3.200577	yapılması	-0.3007562
-3.200577	yardımsız	-0.2991101
-3.200577	yastıkcığında	-0.3000711
-3.200577	yatırıldı	-0.273056
-2.723456	yatışı	-0.7770553
-3.200577	yaygın	-0.3007562
-3.200577	yağ	-0.3007562
-3.024486	yaşı	-0.4686935
-3.200577	ye	-0.3007562
-2.460214	yedi	-0.3855601
-3.200577	yeni	-0.3007562
-3.024486	yeniden	-0.2989727
-2.656509	yer	-0.3381601
-3.024486	yerinde	-0.2956606
-3.024486	yerleşimli	-0.4752014
-3.200577	yi	-0.3007562
-2.325516	yirmi	-0.4663153
-3.200577	yoktur	-0.273056
-3.200577	yollarında	-0.3004823
-3.024486	yoğun	-0.4767106
-3.200577	yumuşak	-0.3007562
-3.200577	yönelik	-0.2991101
-2.899547	yüksek	-0.2963527
-2.899547	yüksekliği	-0.2978714
-3.024486	yükseldiği	-0.472444
-3.200577	yükselme	-0.3002082
-3.200577	zaten	-0.3007562
-3.200577	zofer	-0.2966293
-3.200577	zonlarda	-0.3007562
-2.899547	çapı	-0.2986976
-2.387664	çapında	-0.4284247
-2.387664	çarpı	-0.4646287
-3.200577	çekintiler	-0.299934
-3.200577	çevresinde	-0.3007562
-2.899547	çok	-0.6013753
-3.200577	çözeltisi	-0.3007562
-2.899547	çıkan	-0.6015123
-2.899547	çıkardığı	-0.3881148
-3.024486	ödem	-0.4491473
-2.899547	öksürük	-0.3961576
-3.024486	ölçülen	-0.4761624
-3.200577	ölçülmüş	-0.3003453
-2.656509	ön	-0.8441392
-3.024486	önceden	-0.2985601
-3.200577	önerilere	-0.2988352
-3.200577	önerilerine	-0.3004823
-2.802637	önerilir	-0.670996
-3.200577	öyküsü	-0.2988352
-3.200577	öğrenildi	-0.273056
-2.802637	ünite	-0.4745136
-2.899547	üre-kreatinin	-0.3958827
-2.325516	üst	-0.4613777
-2.899547	üzere	-0.2996595
-3.024486	üzerine	-0.3000711
-2.656509	üç	-0.4718904
-3.200577	ısrarlı	-0.2982847
-3.200577	ıv	-0.3007562
-3.200577	şekel	-0.273056
-3.024486	şekeri	-0.4757508
-2.200577	şekilde	-0.4767461
-3.200577	şekilli	-0.2991101
-3.200577	şeklinde	-0.3000711
-3.024486	şikayet	-0.4765736
-2.656509	şikayeti	-0.8441392
-2.598517	şikayetleri	-0.6518421
-3.024486	şikayetlerinin	-0.298147
-3.200577	şişlik	-0.3006193

\2-grams:
-2.423246	<s> abdominal	0
-2.423246	<s> akciğer	0
-2.423246	<s> akciğerlerde
-2.423246	<s> alt	0
-2.423246	<s> ana	0
-2.423246	<s> asendan
-2.423246	<s> batın	0
-2.423246	<s> bazal	0
-2.423246	<s> başvurusuna	0
-1.821186	<s> bilateral	0
-2.423246	<s> bulgular	0
-2.423246	<s> büyüğü	0
-2.423246	<s> dahiliye	0
-2.423246	<s> dalak
-2.423246	<s> diafragma
-2.122216	<s> diğer	-0.3802113
-2.423246	<s> eski	0
-2.423246	<s> evde	0
-2.423246	<s> evinde	0
-2.423246	<s> fizik	0
-2.423246	<s> genel	0
-2.423246	<s> gereği
-2.423246	<s> güncel	0
-2.423246	<s> halsizlik
-1.645095	<s> hasta	-0.01459951
-1.645095	<s> hastadan	0
-2.423246	<s> hastamızın
-0.667371	<s> hastanın	-0.05306268
-2.122216	<s> hastaya	0
-2.423246	<s> hepsi
-1.578148	<s> her	0.05115252
-2.423246	<s> hiatal
-2.423246	<s> ilgili	0
-2.423246	<s> intra
-2.122216	<s> kalp
-2.423246	<s> karaciğer
-2.423246	<s> kardiyomegali
-2.122216	<s> kese
-2.122216	<s> klinik	0
-2.423246	<s> konsültasyon
-1.724276	<s> mediastende	0
-2.423246	<s> mesane
-2.423246	<s> mezenterik	0
-2.122216	<s> olası	-0.2552725
-1.821186	<s> oskültasyon	0.07918125
-2.423246	<s> pankreas
-2.423246	<s> parankim	0
-2.423246	<s> perika
-2.423246	<s> perikardial
-2.423246	<s> porselen
-1.946125	<s> pulmoner	0
-2.122216	<s> radyoloji	0
-1.946125	<s> safra	-0.30103
-1.277118	<s> sağ	-0.06621626
-2.423246	<s> sağda	0
-1.344065	<s> sol	-0.05030508
-2.122216	<s> solda	0
-2.423246	<s> tak	0
-1.645095	<s> takibinde	0
-2.423246	<s> takibine	0
-1.946125	<s> tedavi	0
-2.423246	<s> tetkik
-2.122216	<s> tiroid	0
-2.122216	<s> trakea	0
-2.423246	<s> çıkan	0
-1.946125	<s> öksürük	0
-2.423246	<s> üst
-2.423246	<s> ıv	0
-0.30103	abdomen usg	0
-0.1760913	abdominal aortada	0
-0.30103	adenomatöz karakterde	0
-1.113943	adet hiperdens	0
-1.113943	adet kist	0
-0.8129134	adet lap	-0.2730013
-1.113943	adet pulmoner	0
-1.113943	adet sekel	0
-1.113943	adet subplevral	0
-0.30103	adrenal gland	0
-0.1760913	af ile	-0.4366926
-0.30103	aircomb film	0
-1.544068	akciğer al	0
-1.544068	akciğer alanlarında	0
-0.7659168	akciğer alt	0.002705894
-1.066947	akciğer grafisinde	0
-1.544068	akciğer hastalığı	0
-1.243038	akciğer orta	-0.2218488
-1.544068	akciğer parankim	0
-1.544068	akciğer parankiminde	0
-0.544068	akciğer üst	-0.1249387
-0.60206	akciğerde büyüğü	0
-0.60206	akciğerde üst	0
-0.60206	akciğerlerde ağırlıklı	0
-0.60206	akciğerlerde plevra
-0.30103	aksilla ve	0
-0.30103	aksı bir	0
-0.30103	aktif infiltrasyon	0
-0.1249387	akut bir	-0.5606673
-0.30103	al orta	0
-0.7781513	alanda bronşektazik	0
-0.30103	alanda on	0
-0.30103	alanlar ve	0
-0.60206	alanlarda hafif	0
-0.60206	alanlarda retiküler	0
-0.30103	alanları </s>
-0.30103	alanlarında aktif	0
-0.1249387	aldığı çıkardığı	0
-1.361728	alt kalisiyel	0
-0.5166298	alt lob	-0.1684044
-1.361728	alt lobda	0
-1.361728	alt loblarda	0
-1.060698	alt lobta	0
-1.361728	alt paratrakeal	0
-1.361728	alt pırat	0
-1.361728	alt zonlarda	0
-1.041393	altı mg	0
-1.041393	altı mm	0
-0.7403627	altı on	-0.3836996
-1.041393	altı yedi	0
-1.041393	altı çarpı	0
-0.7781513	alınan kontrol	0
-0.30103	alınan pcr	0.09691
-0.1760913	alındı </s>
-0.30103	amfizematöz değişiklikler
-0.30103	ampisilin sulbaktam	0
-0.60206	ana bronşlar
-0.60206	ana vasküler	0
-0.60206	ancak nonspesifiktir	0
-0.60206	ancak yaşı	0
-0.30103	anekoik pelvik	0
-0.1760913	anlamlı farklılık	-0.2552725
-0.544068	anormallik izlenmediği	-0.09691002
-0.845098	anormallik tespit	0
-0.845098	anormallik veya	0
-0.30103	antepsin iki	0
-0.30103	anterobazal segmentte	0
-0.30103	anteromedial segmentte	0
-0.60206	antiaritmik antihipertansif	0
-0.60206	antiaritmik ve	0
-0.30103	antibiyoterapisine ampisilin	0
-0.7781513	antidiyabetik bph	0
-0.7781513	antidiyabetik demans	0
-0.7781513	antidiyabetik medikasyonun	0
-0.90309	antihipertansif antidiyabetik	0
-0.90309	antihipertansif antikoagulan	0
-0.90309	antihipertansif diüretik	0
-0.90309	antihipertansif levotiroksin	0
-0.60206	antikoagulan antidiyabetik	0
-0.60206	antikoagulan antihipertansif	0
-0.39794	aort ap	0
-0.69897	aort çapında	0
-0.60206	aorta çapı	0
-0.60206	aorta çapında
-0.60206	aortada renal	0
-0.60206	aortada ve	0
-0.30103	aortopulmoner ve	0
-0.1760913	ap çapında	-0.3444957
-0.1760913	apikal ve	-0.4686054
-0.1249387	apikoposterior segmentte	0
-0.30103	aralıkla mobilize	0
-0.30103	aralıklarla mobilize	0
-0.1249387	aralıkta seyretmekte	0.09691
-0.9542425	arasında ince	0
-0.3521825	arasında refakatli	0
-0.9542425	arasında servisimizde	0
-0.60206	arter trunkus	0
-0.60206	arter çapı	0
-0.30103	arteriovenöz malformasyon	0
-0.30103	arteriyel takibi	0
-0.845098	arterlerde genişleme
-0.544068	arterlerde kalsifik	-0.3521825
-0.845098	arterlerde ve	0
-0.30103	artmış olup	0
-0.30103	artmıştır </s>
-0.30103	artı bilateral	0
-0.5228788	artış </s>
-1	artış izlendi
-1	artış kırk	0
-1	artış çıkan	0
-0.60206	artışları izlenmiştir	0
-0.60206	artışları ve	0
-0.69897	artışı </s>
-0.39794	artışı durumunda	0
-0.30103	asendan aorta
-0.69897	atelektazik değişiklik
-0.39794	atelektazik değişiklikler	0
-0.30103	atelektaziler </s>
-0.1760913	aterom plakları	0
-0.69897	ateş ve	0
-0.39794	ateş yüksekliği	0
-0.30103	ayaklarda şişlik	0
-0.30103	azitromisin şeklinde	0
-0.30103	açıktır </s>
-0.30103	ağrıları </s>
-1.146128	ağrısı </s>
-1.146128	ağrısı bulantı
-1.146128	ağrısı genel	0
-1.146128	ağrısı gibi	0
-1.146128	ağrısı hırıltılı	0
-1.146128	ağrısı karın	0
-1.146128	ağrısı ve	0
-0.30103	ağırlıklı olarak	0
-0.60206	bakım koşullarında	0
-0.60206	bakım takibi	0
-0.30103	bal peteği	0
-0.30103	balonu izlendi
-0.30103	batın içinde	0
-0.90309	bazal segment	0
-0.20412	bazal segmentlerde	0
-0.30103	bazali zaten	0
-0.30103	bağlı kallüs	0
-0.1249387	başvurusuna göre	0
-0.39794	başvurusunda mevcut	-0.2552725
-0.69897	başvurusunda oldukça	0
-0.3521825	belirgin bir	-0.1183081
-1.255273	belirgin olan	0
-1.255273	belirgin olduğunun	0
-1.255273	belirgin şekilde	0
-0.9542425	belirgin şikayet	0
-0.30103	belirginleşme ve	0
-0.09691001	belirtildi </s>
-1	belirtilerek on	0
-1	belirtilerek ta	0
-0.5228788	belirtilerek taburcu	0.243038
-1	belirtilerek tarihinde	0
-0.7781513	belirtiyor mobilize	0
-0.30103	belirtiyor ve	0
-0.30103	belirttiği üzere	0
-0.30103	benzeri oval	0
-1.079181	beş cm	0
-0.60206	beş gün	0.243038
-0.7781513	beş mm	0
-0.7781513	beş çarpı	0
-1.342423	bilateral akciğerlerde	0
-1.342423	bilateral alt	0
-1.342423	bilateral ekspiratuvar	0
-0.8653014	bilateral expiratuvar	0
-1.342423	bilateral plevral
-1.342423	bilateral pretibial
-1.342423	bilateral ronküsleri	0
-0.6434527	bilateral solunum	-0.544068
-0.30103	bilindiğini belirttiği	0
-0.30103	bilinen kronik	0
-0.05799195	bin yirmi	-0.7269987
-1.041393	bir anormallik	0
-1.643453	bir antepsin	0
-1.166331	bir cm	0
-1.643453	bir dizi	0
-1.041393	bir iki	-0.6255411
-1.041393	bir kardiyak	-0.4436975
-1.643453	bir metpamid	0
-1.342423	bir mm	0
-1.643453	bir parankimal	0
-1.643453	bir pulmoner	0
-1.643453	bir radyolojik	0
-1.643453	bir refcon	0
-1.643453	bir ve	0
-1.643453	bir önerilir	0
-1.166331	bir ünite	0.07918123
-0.07918125	birkaç adet	-0.03659381
-0.60206	birlikte değerlendirilmesi
-0.60206	birlikte kardiyak	0
-0.1760913	biyokimya değerlerinde	0
-0.30103	biyokimyasındaki hipokalemi	0
-0.30103	boyut normal
-0.30103	boyutlarda izlenmiştir
-0.30103	boyutları tabiidir
-0.90309	boyutlarında adenomatöz	0
-0.90309	boyutlarında olmak	0
-0.90309	boyutlarında ovoid	0
-0.90309	boyutlarında yumuşak	0
-0.544068	boyutlu kalsifik	-0.3521825
-0.845098	boyutlu lap
-0.845098	boyutlu subplevral	0
-0.39794	boyutunda birkaç	0.30103
-0.69897	boyutunda olan	0
-0.60206	bozukluğu </s>
-0.60206	bozukluğu yaygın	0
-0.1760913	bph ile	-0.447158
-0.1760913	branş tarafından	0
-0.30103	bronkopnömoni </s>
-0.30103	bronşektazik değişiklikler	0
-0.30103	bronşial duvar	0
-0.30103	bronşlar açıktır
-0.30103	bt sinde	0
-0.90309	bulantı iştahsızlık	0
-0.90309	bulantı karın
-0.90309	bulantı nefes	0
-0.90309	bulantı tarifliyor	0
-0.06694679	bulgu izlenmediği	0.1249387
-0.845098	bulgular covid	0
-0.544068	bulgular izlendiği	0
-0.845098	bulgular oskültasyon	0
-0.30103	bulgularla birlikte
-0.30103	bulgularının da	0
-0.30103	bulunabilir </s>
-0.09691001	bulunan hastanın	-0.1197991
-0.1760913	bulunduğu tespit	0.30103
-0.30103	bulunuyor </s>
-0.30103	bunun için	0
-0.07918125	buzlu cam	0
-0.90309	böbrek alt	0
-0.90309	böbrek normal
-0.90309	böbrek orta	0
-0.90309	böbrek parankim	0
-0.30103	böbrekte büyüğü	0
-0.60206	bölgede kalsifik	0
-0.60206	bölgede çok	0
-0.30103	bölümde iki	0
-0.30103	büyüklükte olup
-0.30103	büyüklüğü ve
-1.146128	büyüğü bir	0
-0.845098	büyüğü iki	-0.4573772
-1.146128	büyüğü on	0
-1.146128	büyüğü paratrakeal	0
-0.845098	büyüğü sağ	0
-1.146128	büyüğü sağda	0
-0.60206	cam dansiteleri	0
-0.60206	cam dansitesinde	0
-0.90309	cam görünümleri	0
-0.60206	cerrahi pol	0
-0.60206	cerrahi tarafından	0
-0.30103	cidarında kalsifikasyonlar
-1.176091	cm olarak	0
-1.176091	cm sol	0
-1.176091	cm solda	0
-1.176091	cm yi	0
-0.5740313	cm çapında	0
-1.176091	cm ölçülen	0
-0.30103	covid on	0
-0.9542425	crp si	0
-0.6532125	crp sinde	0
-0.9542425	crp sinin	0
-0.9542425	crp yüksekliği	0
-1.322219	da daha	0
-1.322219	da devam	0
-0.845098	da değerlendirilmesi	-0.1346986
-0.7201593	da düzenli	0.4149733
-1.322219	da olduğu	0
-1.322219	da pozitif	0
-1.322219	da yapıldı	0
-1.322219	da yükseldiği	0
-1.322219	daha da	0
-1.322219	daha eritrosit	0
-1.021189	daha erken	0
-0.845098	daha rahat	0.07918123
-1.322219	daha stabil	0
-1.021189	daha transfüze	0.2218487
-1.322219	daha uygun	0
-1.021189	daha önceden	0
-1.079181	dahiliye kliniğine	0
-1.079181	dahiliye kontrolüne	0
-1.079181	dahiliye takibi	0
-0.60206	dahiliye tarafından	-0.1171134
-1.079181	dahiliye önerilerine	0
-0.30103	dalak büyüklüğü
-0.30103	dansite artışları	0
-0.60206	dansiteleri izlenmiştir	0
-0.60206	dansiteleri ve	0
-0.7781513	dansitesinde alanlar	0
-0.7781513	dansitesinde görüntüler	0
-0.7781513	dansitesinde nodüler	0
-0.60206	darlığı </s>
-0.60206	darlığı göğüs	0
-0.30103	dağılımlı buzlu	0
-1.431364	de biyokimya	0
-1.431364	de bulunan	0
-1.130334	de bulunduğu	0
-1.431364	de genel	0
-1.130334	de gerilediği	0
-1.431364	de izolasyon
-1.431364	de mevcut	0
-1.431364	de negatif	0
-1.431364	de uyuldu	0
-1.130334	de yüksek	0
-1.431364	de yükseldiği
-1.431364	de yükselme	0
-0.30103	demans ile	0
-0.30103	desmont tablet	0
-0.30103	desteği ile	0
-1.079181	devam edildi	0
-1.079181	devam edilmekte	0
-1.079181	devam edilmesi	0
-1.079181	devam edilmesine	0
-1.079181	devam etmekte	0
-1.079181	devam etmesi	0
-0.90309	devamı </s>
-0.20412	devamı sağlandı	0.1760913
-0.30103	değerinde de	0
-0.09691001	değerinin de	-0.1127043
-0.30103	değerlendirildiği ancak	0
-1.041393	değerlendirilmesi için
-1.041393	değerlendirilmesi sağlanarak	0
-0.7403627	değerlendirilmesi sağlandı	0.4771212
-1.041393	değerlendirilmesi suboptimaldir	0
-1.041393	değerlendirilmesi önerilir
-0.30103	değerlendirilmesinde aorta	0
-0.30103	değerlendirilmiştir </s>
-0.30103	değerlendirmesi için	0
-1.230449	değerlerinde bazali	0
-0.5314789	değerlerinde crp	0
-0.9294189	değerlerinde düşüş	0
-1.230449	değerlerinde hiponatremi	0
-0.7533277	değerlerinde ön	0.243038
-0.30103	değerlerinin daha	0
-0.30103	değişiklik </s>
-0.4259687	değişiklikler </s>
-0.90309	değişiklikler mevcuttur	0
-0.90309	değişiklikler ve	0
-0.30103	diafragma konturları
-0.30103	dizi enfeksiyonda	0
-0.30103	diüretik bph	0
-1	diğer kardiyak	0
-0.39794	diğer semptomatik	0
-0.69897	diğer taraftan	0
-0.30103	doku dansitesinde	0
-0.60206	dokuz mm	0
-0.60206	dokuz pnömonisinde	0
-0.30103	dolduran çok	0
-0.30103	dolu olduğu	0
-0.30103	dozluk inhalasyon	0
-0.30103	doğal görünümdedir
-0.1760913	durum bozukluğu	0
-0.30103	durumda </s>
-0.60206	durumu sebebi	0
-0.60206	durumu stabil
-0.1760913	durumunda daha	-0.4336556
-0.30103	duvar kalınlık	0
-0.1760913	duvarında kalsifikasyonlar	-0.30103
-0.60206	dört cm	0
-0.60206	dört on	0
-0.05799195	düzenlendi ve	-0.4510558
-0.30103	düzenlenen antiaritmik	0
-0.30103	düzenlenmesi sağlandı	0
-0.03476211	düzenli şekilde	-0.1589545
-0.30103	düzgün konturludur
-0.30103	düzgündür </s>
-0.30103	düşme öyküsü	0
-0.30103	düştüğü hiperat	0
-0.1249387	düşüklüğü nedeni	0.30103
-0.69897	düşüş eğilimi	0
-0.39794	düşüş sağlandığı	0
-0.30103	dışı hastalıkta	0
-0.01021917	edildi </s>
-0.30103	edilmediği raporlandı	0
-0.30103	edilmekte olan	0
-0.69897	edilmesi daha	0
-0.39794	edilmesi üzerine	0
-0.30103	edilmesine karar	0
-0.6690068	effüzyon </s>
-1.146128	effüzyon artmış	0
-1.146128	effüzyon effüzyon	0
-1.146128	effüzyon ile
-1.146128	effüzyon komşuluğunda	0
-1.146128	effüzyon saptanmamıştır
-0.30103	efüzyon ve	0
-0.06694679	ek şikayeti	0
-0.07918125	ekg sinde	-0.09938463
-0.30103	eklenmiş belirgin	0
-0.30103	eko ile	0
-0.60206	ekojenitesi normaldir	0
-0.60206	ekojenitesi tabii	0
-0.30103	ekostrüktürü normal
-0.30103	ekspiratuvar ronküs	0
-0.30103	elli mg	0
-0.1760913	en geniş	0
-0.30103	enfeksiyon dışı	0
-0.30103	enfeksiyonda ve	0
-0.30103	eritrosit süspansiyonu	-0.04575749
-0.7781513	eritrosit trans	0
-0.1760913	erken gelmesi	-0.3802113
-0.7781513	eski filmleriyle	0
-0.7781513	eski kırığa	0
-0.7781513	eski tarihli	0
-0.30103	esnasında daha	0
-0.30103	etken identifikasyonuna	0
-0.30103	etmekte olduğu	0
-0.30103	etmesi belirtildi	0
-0.7781513	evde de
-0.7781513	evde düzenli	0
-0.7781513	evde kendi	0
-0.30103	evinde oksijen	0
-0.1249387	expiratuvar ronküs	0.09691
-0.30103	extrahepatik safra
-0.1760913	eğilimi sağlandığı	-0.1091445
-0.1760913	eğiliminde </s>
-0.30103	eğiliminin devam	0
-0.30103	farhex gargara	0
-0.69897	farklılık izlenmediği	0
-0.39794	farklılık saptanmamıştır	0.3679768
-0.30103	fibrotik çekintiler
-0.30103	film kaplı	0
-0.30103	filmleriyle karşılaştırıldığında	0
-0.30103	fizik bulgular	0
-0.60206	flakon </s>
-0.60206	flakon kutu	0
-0.30103	flixotide nebules	0
-0.30103	formasyonları </s>
-0.30103	formda lenf	0
-0.30103	gargara notuss	0
-0.30103	gastroskopi yapılması	0
-0.30103	geldiğinin tespit	0
-0.69897	gelmesi belirtildi	0.2218487
-0.2218488	gelmesi belirtilerek	0
-0.4771213	genel cerrahi	0
-0.4771213	genel durum	0
-0.1760913	geniş yerinde	0
-0.7781513	genişleme izlenmiş	0
-0.7781513	genişleme pulmoner
-0.7781513	genişleme yoktur
-0.30103	gerek yaşı	0
-0.30103	gerekse de	0
-0.30103	gerektirdiğine kanaat	0
-0.30103	gereği halinde
-0.1760913	gerilediği tespit	0.30103
-0.1760913	gerileme eğiliminde	0
-0.30103	gerilemiş durumda	0
-0.30103	gerileyen hastanın	-0.672641
-0.60206	gerileyen ve	-0.4686054
-0.30103	getirilerek hasta	0
-0.30103	geçmeyen multiple	0
-0.30103	gibi şikayetleri	0
-0.1760913	gland lateral	0
-0.60206	glandda otuz	0
-0.60206	glandda üç	0
-0.69897	grafisinde belirgin	0
-0.39794	grafisinde radyolojik	-0.2552725
-0.1249387	göre daha	-0.5351132
-0.30103	görülebilir ancak	0
-0.30103	görülmediği öğrenildi	0
-0.30103	görülmemiştir </s>
-0.1760913	görülüyor </s>
-0.30103	görüntüler izlendi	0
-0.30103	görünüm saptanmamıştır
-0.1760913	görünümdedir </s>
-0.30103	görünümleri </s>
-0.30103	görünümü mevcuttur	0
-0.30103	gösteremediği tespit	0
-0.60206	göğüs ağrısı	0
-0.30103	göğüs hastalıkları	0
-0.06694679	gün sonra	0
-0.30103	güncel incelemede	0
-0.60206	hafif bal	0
-0.60206	hafif buzlu	0
-0.30103	hale geldiğinin	0
-0.30103	halinde ve
-0.60206	halsizlik ateş	0
-0.60206	halsizlik yan
-1.113943	hasta başvurusuna	0
-1.113943	hasta gerek	0
-1.113943	hasta ileri	0
-1.113943	hasta konsulte
-0.8129134	hasta rahat	-0.1760913
-1.113943	hasta sigara
-0.3521825	hastadan alınan	0
-0.9542425	hastadan net	0
-0.9542425	hastadan olası	0
-0.845098	hastalıkları izolasyon	0
-0.845098	hastalıkları kardiyoloji	0
-0.544068	hastalıkları servisine	0
-0.30103	hastalıkta bulunabilir	0
-0.30103	hastalığı </s>
-0.30103	hastamızın durumu
-2.0086	hastanın başvurusuna
-1.531479	hastanın başvurusunda	0
-2.0086	hastanın bunun	0
-2.0086	hastanın dahiliye	0
-1.40654	hastanın düzenli	0.4149733
-1.30963	hastanın ekg	0
-1.70757	hastanın evde	0
-2.0086	hastanın göğüs	0
-1.531479	hastanın hemogramındaki	0
-2.0086	hastanın hiponatremisinin
-2.0086	hastanın ileri	0
-2.0086	hastanın kardiyoloji	0
-1.30963	hastanın kendi	-0.3521825
-1.0086	hastanın kontrol	-0.1845244
-1.230449	hastanın medikal	0
-2.0086	hastanın medikasyonu	0
-1.531479	hastanın nt-probnp	0
-2.0086	hastanın on	0
-2.0086	hastanın rahat
-1.70757	hastanın sat	0
-1.70757	hastanın satürasyonu	0
-2.0086	hastanın sft	0
-2.0086	hastanın sıfır	0
-1.70757	hastanın tarihleri	0.30103
-2.0086	hastanın tekrarlayıcı	0
-1.40654	hastanın temel	0.3424227
-2.0086	hastanın yakınlarının	0
-1.70757	hastanın yirmi	-0.4336556
-2.0086	hastanın yoğun	0
-2.0086	hastanın ön	0
-1.70757	hastanın şikayetlerinin	0
-0.60206	hastaya bir	0
-0.60206	hastaya kardiyoloji	0
-0.30103	hattadır </s>
-0.30103	hava kisti	0
-0.60206	havasında normal	0
-0.60206	havasında pulse	0
-0.30103	hazımsızlık karın	0
-0.60206	hemitoraksta dört	0
-0.60206	hemitoraksta üç	0
-0.7781513	hemoglobin değerinde	0
-0.30103	hemoglobin düşüklüğü	0
-0.1249387	hemogramındaki hemoglobin	-0.30103
-0.30103	hemorajik kist	0
-0.30103	hepsi hastanın
-0.05115252	her iki	-0.2388821
-0.30103	herni </s>
-0.30103	hiatal herni
-0.60206	hiler bölgede	0
-0.60206	hiler yapıların	0
-0.30103	hilus doğal
-0.30103	hiperat hiponatremi	0
-0.30103	hiperdens kortikal	0
-0.30103	hipertansiyon </s>
-0.30103	hipodens lezyon	0
-0.30103	hipokalemi nedeni	0
-0.30103	hipokaleminin de	0
-0.60206	hiponatremi de	0
-0.60206	hiponatremi ile	0
-0.30103	hiponatremisinin de
-0.30103	homojen olup	0
-0.3679768	hırıltılı solunum	0
-0.544068	hırıltılı solunumu	0
-0.06694679	idame tedavisi	-0.447158
-0.30103	identifikasyonuna yönelik	0
-0.30103	idrar kültüründe	0
-1.352183	iki adet	0
-1.051152	iki akciğer	-0.06445798
-1.653213	iki akciğerde	0
-0.8081145	iki bin	0
-1.352183	iki böbrek	0
-1.352183	iki cm	-0.3424227
-1.653213	iki hilus
-1.653213	iki mm	0
-1.352183	iki sıfır	0
-1.653213	iki tarihinde	0
-1.176091	iki tarihleri	0.1760913
-1.653213	iki yirmi	0
-1.176091	iki çarpı	-0.4607309
-1.653213	iki ünite	0
-0.30103	ilaçlar malzemeler	0
-1.653213	ile antidiyabetik	0
-1.352183	ile bir	-0.4464524
-1.653213	ile birlikte	0
-1.352183	ile dahiliye	-0.3521825
-1.653213	ile dolu	0
-1.653213	ile hipokaleminin	0
-1.653213	ile hırıltılı	0
-1.653213	ile iki	0
-1.176091	ile ilgili	-0.359022
-1.352183	ile normal	-0.3802113
-1.653213	ile orta	0
-1.653213	ile potasyum	0
-1.653213	ile satürasyon	0
-1.653213	ile tüm	0
-1.653213	ile uygun	0
-1.051152	ile uyumlu	0
-1.653213	ile yardımsız	0
-1.352183	ile üre-kreatinin	-0.2552725
-0.39794	ileri takibi	-0.4045706
-0.69897	ileri takibine	0
-0.544068	ilgili branş	0
-0.3679768	ilgili ve	-0.5804489
-0.30103	imajı </s>
-0.30103	ince efüzyon	0
-0.30103	inceleme </s>
-0.30103	incelemede plevral	0
-0.30103	inci kostalarda	0
-0.39794	infiltrasyon lehinde	0.3679768
-0.69897	infiltrasyon veya	0
-0.30103	infiltrasyonlar </s>
-0.30103	inhalasyon çözeltisi	0
-0.1760913	interlobüler septalarda	0
-0.30103	interstisyel akciğer	0
-0.30103	intra ve
-0.30103	iprasal nebulizasyon	0
-0.7781513	istenen tetkikler	0
-0.7781513	istenen tit	0
-0.7781513	istenen toraks	0
-0.30103	istenmiş olan	0
-0.1760913	izlendi </s>
-0.9542425	izlendi porselen
-0.1760913	izlendiği tespit	0.30103
-0.30103	izlenebildiği kadarıyla
-0.30103	izlenen nodüllerde	0
-1.079181	izlenmediği bilinen	0
-0.2340832	izlenmediği tespit	-0.1249387
-1.079181	izlenmediği ve	0
-0.30103	izlenmektedir </s>
-0.30103	izlenmiş </s>
-0.243038	izlenmiştir </s>
-0.845098	izlenmiştir bronkopnömoni	0
-0.60206	izolasyon kurallarına
-0.60206	izolasyon servisinde	0
-0.30103	içeren flakon	0
-1.20412	için daha	0
-1.20412	için dahiliye	0
-1.20412	için göğüs	0
-1.20412	için istenen	0
-1.20412	için mediastinal	0
-1.20412	için nakil	0
-1.20412	için sonografik
-1.20412	için tek	0
-0.30103	içinde serbest	0
-0.30103	içmiyor </s>
-0.30103	iştahsızlık genel	0
-0.60206	kabalaşmış </s>
-0.90309	kabalaşmış artı	0
-0.60206	kabalaşmış bilateral	-0.4134522
-0.30103	kadarıyla normal
-0.60206	kalisiyel sistem
-0.60206	kalisiyel sistemde	0
-0.30103	kalkül izlendi	0
-0.30103	kalküller ile	0
-0.30103	kallüs formasyonları	0
-0.60206	kalp boyut
-0.60206	kalp boyutları
-0.60206	kalsifik aterom	0
-0.90309	kalsifik lap	0
-0.60206	kalsifik nodüler	-0.1760913
-0.4771213	kalsifikasyonlar </s>
-0.4771213	kalsifikasyonlar izlendi
-0.30103	kalsifiye nodül	0
-0.60206	kalınlaşmalar </s>
-0.60206	kalınlaşmalar kardiyojenik	0
-0.30103	kalınlık artışları	0
-0.30103	kalınlığı ve	0
-1.255273	kan biyokimya	0
-1.255273	kan biyokimyasındaki	0
-1.255273	kan de	0
-0.3521825	kan değerlerinde	-0.4227635
-0.9542425	kan şekeri	0
-0.30103	kanaat getirilerek	0
-0.30103	kaplayan lezyon	0
-0.30103	kaplayıcı kitle	0
-0.30103	kaplı tablet	0
-0.30103	karaciğer normal
-0.30103	karakterde nodüler	0
-0.30103	karar verildi	0
-0.9542425	kardiyak medikasyonun	0
-0.9542425	kardiyak medikasyonunun	0
-0.3521825	kardiyak patoloji	0
-0.30103	kardiyojenik pulmoner	0
-0.39794	kardiyoloji tarafından	0
-0.69897	kardiyoloji ve	0
-0.30103	kardiyomegali perikardiyal
-0.09691001	karın ağrısı	0
-0.30103	karşılaştırıldığında anlamlı	0
-0.90309	kendi kendine	0
-0.20412	kendi kullanmakta	0
-0.30103	kendine düşme	0
-0.7781513	kese </s>
-0.7781513	kese duvarında
-0.7781513	kese lümeninin
-1	kesesi </s>
-1	kesesi bulgularının	0
-1	kesesi cidarında
-1	kesesi duvarında
-1	kesesi lojunda	0
-0.30103	kesesinin kalküller	0
-0.30103	keseyi tamamen	0
-0.1760913	kist </s>
-0.30103	kisti izlenmiştir	0
-0.30103	kitle saptanmamıştır	0
-0.60206	klinik seyir	0
-0.60206	klinik ve
-0.30103	kliniğine nakil	0
-0.30103	koleksiyonu görülmemiştir	0
-0.1760913	komşuluğunda atelektazik	-0.2552725
-0.60206	konsantratörü bulunan	0
-0.60206	konsantratörü kullanımına	0
-0.30103	konsolidasyon alanları	0
-0.30103	konsulte edildi
-0.30103	konsültasyon notu
-0.30103	kontrast madde	0
-0.30103	kontrastlanma artışı	0
-0.30103	kontrastsız multislice
-0.7533277	kontrol akciğer	-0.5631419
-1.230449	kontrol kan	0
-1.230449	kontrol pcr	0
-0.4522977	kontrol temel	0.1962947
-1.230449	kontrol önerilir
-0.07918125	kontrole gelmesi	-0.3802113
-0.30103	kontrolü gastroskopi	0
-0.30103	kontrolüne gelmesi	0
-0.30103	konturları düzgündür
-0.30103	konturludur </s>
-0.30103	kortikal lezyon	0
-0.30103	kostalarda eski	0
-0.30103	koşullarında devam	0
-0.1760913	kronik af	0
-0.30103	krusta on	0
-0.30103	krusunda nodüler	0
-0.07918125	kullanmakta olduğu	-0.05478681
-0.30103	kullanımına da	0
-0.30103	kurallarına uyması
-0.30103	kutu flixotide	0
-0.30103	kültüründe belirgin	0
-0.7781513	kırk beş	0
-0.7781513	kırk iki	0
-0.7781513	kırk mm	0
-0.30103	kırığa bağlı	0
-0.30103	kısa aksı	0
-0.30103	laboratuar bulgularla
-0.4259687	lap </s>
-0.90309	lap saptanmadı
-0.90309	lap subkarinal	0
-0.60206	lateral krusta	0
-0.60206	lateral krusunda	0
-0.30103	laterobazal segmentte	0
-0.06694679	lehinde bulgu	0
-0.39794	lenf nodları	0
-0.69897	lenf nodu	0
-0.30103	levotiroksin tablet	0
-0.2498775	lezyon </s>
-1.20412	lezyon hemorajik	0
-1.20412	lezyon izlenmektedir	0
-1.20412	lezyon saptanmamıştır	0
-1.278754	lob anterobazal	0
-0.9777236	lob apikal	0
-0.8016323	lob apikoposterior	0
-0.5797836	lob bazal	0.05799194
-1.278754	lob laterobazal	0
-1.278754	lob posterior	0
-1.20412	lobda anteromedial	0
-1.20412	lobda büyüğü	0
-1.20412	lobda izlenen	0
-0.90309	lobda milimetrik	-0.2730013
-1.20412	lobda subsegmenter
-0.60206	lobda ve	-0.1332908
-0.60206	loblarda amfizematöz
-0.60206	loblarda interlobüler	0
-0.60206	lobta milimetrik	0
-0.60206	lobta yamalı	0
-0.30103	lojunda büyüğü	0
-0.30103	lokalizasyondadır </s>
-0.30103	loküle sıvı	0
-0.30103	lümeninde sonda
-0.30103	lümeninin değerlendirilmesi
-0.30103	madde verilmediği	0
-0.30103	malformasyon ile	0
-0.30103	malzemeler yapılan	0
-0.30103	manşet ralleri	0
-0.30103	me mobilize	0
-0.30103	mediasten orta
-0.4259687	mediastende büyüğü	-0.154902
-0.90309	mediastende kısa	0
-0.90309	mediastende patolojik
-0.30103	mediastinal ve	0
-0.06694679	medikal idame	0
-0.30103	medikasyonu yeniden	0
-0.30103	medikasyonun da	-0.6071996
-0.60206	medikasyonun düzenli	0.6368221
-0.30103	medikasyonunun düzenlenmesi	0
-0.30103	mesane lümeninde
-0.30103	metpamid üç	0
-0.69897	mevcut durumu	0
-0.39794	mevcut olan	0
-0.1760913	mevcuttur </s>
-0.9542425	mevcuttur interstisyel	0
-0.1760913	mezenterik arterlerde	0
-0.60206	mg prednol	0
-0.60206	mg yirmi	0
-0.4259687	milimetrik boyutlu	-0.07572071
-0.90309	milimetrik hava	0
-0.90309	milimetrik solid	0
-1.322219	mm </s>
-0.7201593	mm boyutlarında	0
-0.845098	mm boyutunda	0
-1.322219	mm sağ	0
-1.322219	mm subkarinal	0
-0.845098	mm çapında	0
-1.322219	mm ölçülmüş	0
-0.30103	mobil olamıyormuş	0
-0.09691001	mobilize olabiliyor	0
-0.30103	multiple sayıda	0
-0.30103	multislice inceleme
-0.30103	nabız ateş	0
-0.39794	nakil alındı	0
-0.69897	nakil verildi	0
-0.30103	nebules nebulizasyon	0
-0.60206	nebulizasyon aircomb	0
-0.60206	nebulizasyon için	0
-0.05799195	nedeni ile	-0.1356626
-0.1760913	nefes darlığı	0
-0.09691001	negatif olarak	-0.552842
-0.30103	net akciğer	0
-0.1760913	nodları </s>
-0.30103	nodu </s>
-0.7781513	nodül </s>
-0.7781513	nodül imajı	0
-0.7781513	nodül şekel	0
-1.255273	nodüler hipodens	0
-0.30103	nodüler lezyon	-0.2052495
-1.255273	nodüler odansite	0
-1.255273	nodüler plevral	0
-1.255273	nodüler tarzda	0
-0.30103	nodüllerde anlamlı	0
-0.30103	nonspesifiktir ve	0
-0.69897	normal aralıkta	0
-1.176091	normal boyutlarda
-1.176091	normal büyüklükte
-1.176091	normal görünümdedir
-1.176091	normal lokalizasyondadır
-0.8750613	normal olarak	0
-0.30103	normalden yüksek	0
-0.30103	normaldir </s>
-0.60206	notları sağ	0
-0.60206	notları çıkan
-0.30103	notu </s>
-0.30103	notuss elli	0
-0.1249387	nt-probnp değerinin	0.09691
-0.1760913	oda havasında	0
-0.30103	odansite </s>
-0.69897	oksijen desteği	0
-0.39794	oksijen konsantratörü	0
-0.1760913	oksimetre ile	0
-0.30103	olabilecek kontrastlanma	0
-0.30103	olabiliyor </s>
-0.7781513	olabiliyor ve	0
-0.30103	olacağı için	0
-0.30103	olamıyormuş </s>
-1.113943	olan bilateral	0
-1.113943	olan birkaç	0
-1.113943	olan hastanın	0
-0.8129134	olan ronküsleri	0
-1.113943	olan tetkikleri	0
-1.113943	olan üre-kreatinin	0
-1.322219	olarak değerlendirilmiştir	0
-1.322219	olarak istenen	0
-1.322219	olarak izlenmiştir
-1.322219	olarak mobil	0
-0.544068	olarak raporlandığı	0
-1.322219	olarak santral	0
-1.322219	olarak uyum	0
-1.322219	olarak ölçülen	0
-0.39794	olası belirgin	-0.4259687
-0.69897	olası etken	0
-0.30103	oldukça belirgin	0
-1.230449	olduğu antiaritmik	0
-0.9294189	olduğu antihipertansif	0
-1.230449	olduğu antikoagulan	0
-1.230449	olduğu desmont	0
-0.9294189	olduğu görülüyor	0
-0.6283889	olduğu tespit	0.07918125
-0.09691001	olduğunu belirtiyor	0
-0.30103	olduğunun tespit	0
-0.1760913	olmak üzere	0
-0.1760913	olması nedeni	0.4259687
-0.06694679	olmazsa on	-0.453121
-0.90309	olup artmıştır	0
-0.90309	olup düzgün
-0.90309	olup komşuluğunda	0
-0.90309	olup yer	0
-0.8893017	on altı	-0.05897786
-0.7132105	on beş	-0.1180993
-0.7132105	on bir	-0.5383909
-1.491362	on dokuz	0
-1.01424	on gün	0.243038
-1.491362	on iki	0
-1.491362	on sekiz	0
-1.491362	on üç	0
-0.9542425	orta bölümde	0
-0.9542425	orta hattadır
-0.3521825	orta lobda	-0.1760913
-0.07918125	oskültasyon bilateral	-0.2560031
-0.60206	otuz sekiz	0
-0.60206	otuz yedi	0
-0.30103	oval şekilli	0
-0.30103	ovoid formda	0
-0.30103	pankreas izlenebildiği
-0.30103	parakardiak yağ
-0.845098	parankim değerlendirmesi	0
-0.544068	parankim ekojenitesi	0
-0.845098	parankim kalınlığı	0
-0.1760913	parankimal infiltrasyon	-0.2552725
-0.30103	parankiminde subplevral	0
-0.30103	paratrakeal alanda	-0.30103
-0.7781513	paratrakeal subkarinal	0
-0.09691001	patoloji lehinde	0.146128
-0.30103	patolojik boyutlu
-0.09691001	pcr testi	0
-0.30103	pelvik genişleme	0
-0.60206	performansı gerekse	0
-0.60206	performansı nedeni	0
-0.30103	peribronşial infiltrasyonlar	0
-0.30103	perika parakardiak
-0.30103	perikardial effüzyon
-0.30103	perikardiyal effüzyon
-0.30103	peteği görünümü	0
-0.1760913	plakları </s>
-0.3521825	planda belirgin	-0.4436975
-0.9542425	planda dahiliye	0
-0.9542425	planda karın	0
-0.60206	plevra tabanlı
-0.60206	plevra yaprakları	0
-0.20412	plevral effüzyon	-0.004409122
-0.90309	plevral kalınlaşmalar	0
-0.30103	pnömonisinde görülebilir	0
-0.30103	pol kontrolü	0
-0.69897	porselen kese
-0.39794	porselen safra	-0.1760913
-0.69897	posterior segment	0
-0.39794	posterior segmentte	0
-0.30103	potasyum replasmanı	0
-0.30103	pozitif olarak	0
-0.30103	prednol on	0
-0.30103	pretibial ödem
-0.30103	progas iki	0
-0.30103	progresyon veya	0
-0.8750613	pulmoner arter	0
-1.176091	pulmoner arterlerde
-1.176091	pulmoner hipertansiyon
-1.176091	pulmoner nodül	0
-1.176091	pulmoner parankimal	0
-1.176091	pulmoner trunkus
-1.176091	pulmoner ödem	0
-0.1760913	pulse oksimetre	0
-0.30103	pırat paratrakeal	0
-0.1760913	radyoloji notları	0
-0.69897	radyolojik progresyon	0
-0.39794	radyolojik regresyon	0
-0.60206	rahat olduğu	-0.4227636
-0.30103	rahat olduğunu	0
-0.30103	ralleri bilateral	0
-0.30103	raporlandı </s>
-0.06694679	raporlandığı tespit	-0.06694679
-0.09691001	refakatli şekilde	-0.6320232
-0.30103	refcon üç	0
-0.60206	regresyon eğilimi	0
-0.60206	regresyon eğiliminin	0
-0.30103	rekonsültasyonu önerilir
-0.30103	renal arterlerde	0
-0.30103	replasmanı da	0
-0.30103	retiküler dansite	0
-0.7781513	reçete farhex	0
-0.7781513	reçete flakon	0
-0.7781513	reçete iprasal	0
-0.09691001	ronküs </s>
-0.7781513	ronküsleri gerileme	0
-0.7781513	ronküsleri ile	0
-0.7781513	ronküsleri ve	0
-0.30103	safra kesesi	0
-1	safra kesesinin	0
-1	safra yollarında
-0.30103	santral dağılımlı	0
-0.30103	saptanmadı </s>
-0.06694679	saptanmamıştır </s>
-0.60206	sat düzenli	0
-0.60206	sat satürasyonu	0
-0.30103	satürasyon nabız	0
-0.39794	satürasyonu oda	0
-0.69897	satürasyonu oksijen	0
-0.90309	sayıda kalkül	0
-0.90309	sayıda lap	0
-0.90309	sayıda lenf	0
-0.90309	sayıda nodüler	0
-1.531479	sağ adrenal	0
-0.6863809	sağ akciğer	-0.2155998
-1.531479	sağ akciğerde	0
-1.531479	sağ aksilla	0
-1.531479	sağ alt	0
-1.531479	sağ böbrek	0
-1.531479	sağ böbrekte	0
-1.531479	sağ hemitoraksta	0
-1.531479	sağ hiler	0
-1.230449	sağ lobda	-0.4191293
-1.531479	sağ pulmoner	0
-1.531479	sağ sürrenal	0
-1.230449	sağ üst	0
-0.60206	sağda alt	0
-0.60206	sağda en	0
-0.30103	sağlanarak yapılan	0
-0.05115252	sağlandı </s>
-0.845098	sağlandığı hemoglobin	0
-0.243038	sağlandığı tespit	0.07918125
-0.30103	sebebi ile	0
-0.60206	segment ile	0
-0.60206	segment segmentlerinde	0
-1	segmentlerde bronşial	0
-1	segmentlerde hafif	0
-1	segmentlerde nodüler	0
-1	segmentlerde subplevral	0
-1	segmentlerde subsegmental	0
-0.30103	segmentlerinde subplevral	0
-1.176091	segmentte iki	0
-1.176091	segmentte kırk	0
-1.176091	segmentte milimetrik	0
-1.176091	segmentte sekel	0
-1.176091	segmentte sekiz	0
-0.8750613	segmentte subplevral	0
-1.176091	segmentte yedi	0
-0.60206	sekel benzeri	0
-0.60206	sekel değişiklikler	0
-1	sekiz inci	0
-0.69897	sekiz mm	0
-1	sekiz sıfır	0
-0.69897	sekiz çarpı	0
-0.09691001	semptomatik medikasyonun	0
-0.60206	septalarda belirginleşme	0
-0.60206	septalarda kalınlaşmalar	0
-0.30103	serbest veya	0
-0.07918125	servisimizde yatışı	0
-0.30103	servisinde takibine	0
-0.60206	servisine nakil	0
-0.60206	servisine yatırıldı	0
-0.07918125	sesleri kabalaşmış	0
-0.30103	seviyede yirmi	0
-0.30103	seyir uygulanan	0
-0.09691001	seyretmekte </s>
-0.30103	sft ye	0
-0.30103	si ile	0
-0.30103	sigara içmiyor
-0.6690068	sinde akut	0
-1.146128	sinde belirgin	0
-1.146128	sinde düşüş	0
-1.146128	sinde ile	0
-1.146128	sinde kronik	0
-1.146128	sinde ön	0
-0.30103	sinin düştüğü	0
-0.30103	sistem tabiidir
-0.30103	sistemde yirmi	0
-0.30103	skapula çevresinde	0
-0.3245111	sol akciğer	-0.4750482
-1.278754	sol altı	0
-1.278754	sol böbrek	0
-1.278754	sol hemitoraksta	0
-0.9777236	sol sürrenal	-0.2552725
-0.7781513	solda en	0
-0.7781513	solda plevra	0
-0.7781513	solda plevral
-0.30103	solid nodül	0
-1.079181	solunum ateş	0
-1.079181	solunum bulantı	0
-1.079181	solunum halsizlik	0
-0.3802112	solunum sesleri	0
-0.60206	solunumu belirgin	0
-0.60206	solunumu gerileme	0
-0.30103	sonda balonu
-0.30103	sonografik kontrol
-0.90309	sonra göğüs	0
-0.20412	sonra kontrole	0
-0.30103	sonucunda safra	0
-0.7781513	sonucunun da	0
-0.30103	sonucunun negatif	0.09691
-0.30103	sonuçlarla rekonsültasyonu
-0.60206	stabil hale	0
-0.60206	stabil seyretmekte
-0.7781513	subkarinal aortopulmoner	0
-0.7781513	subkarinal bölgede	0
-0.7781513	subkarinal seviyede	0
-0.30103	suboptimaldir </s>
-1.079181	subplevral alanda	0
-0.7781513	subplevral alanlarda	0
-1.079181	subplevral milimetrik	0
-1.079181	subplevral nodüler	0
-0.7781513	subplevral yerleşimli	0
-0.30103	subsegmental atelektaziler	0
-0.30103	subsegmenter atelektazik
-0.30103	sulbaktam azitromisin	0
-0.69897	sürrenal gland	0
-0.39794	sürrenal glandda	0
-0.4771213	süspansiyonu daha	-0.4336556
-0.4771213	süspansiyonu transfüze	0.2218487
-0.845098	sıfır sekiz	0
-0.243038	sıfır yedi	-0.08813609
-0.30103	sıvı koleksiyonu	0
-0.30103	ta tarihinde	0
-0.30103	tabanlı fibrotik
-0.30103	tabii ve	0
-0.1760913	tabiidir </s>
-0.544068	tablet </s>
-0.845098	tablet ile	0
-0.845098	tablet ve	0
-0.06694679	taburcu edildi	0.7883704
-0.1249387	taburculuk talebinde	0
-0.30103	tak hastanın	0
-1.113943	takibi esnasında	0
-1.113943	takibi gerektirdiğine	0
-0.8129134	takibi ve	-0.4686054
-0.4149733	takibi yapıldı	0.06694679
-0.06694679	takibinde şikayetleri	-0.3679768
-0.69897	takibine devam	0
-0.39794	takibine ve	-0.4686054
-0.39794	talebinde bulunan	0.2218487
-0.69897	talebinde bulunuyor	0
-0.30103	tamamen dolduran	0
-0.30103	tamamlanarak ilgili	0
-0.30103	tansiyon arteriyel	0
-0.1760913	taraftan hastanın	0
-0.6690068	tarafından da	-0.5351132
-1.146128	tarafından değerlendirildiği	0
-1.146128	tarafından düzenlenen	0
-1.146128	tarafından istenen	0
-1.146128	tarafından istenmiş	0
-1.146128	tarafından yapılan	0
-0.1760913	tarifliyor olması	0
-0.1249387	tarihinde taburcu	0.243038
-0.07918125	tarihleri arasında	-0.1127043
-0.30103	tarihli eski	0
-0.30103	tarzda buzlu	0
-0.1249387	tedavi reçete	0
-0.2218488	tedavisi düzenlendi	0.05799194
-0.69897	tedavisi için	0
-0.60206	tedavisine devam	0
-0.60206	tedavisine yoğun	0
-0.30103	tek dozluk	0
-0.30103	teknik olarak	0
-0.30103	tekrarlayıcı hazımsızlık	0
-0.04139268	temel kan	-0.1597008
-0.07918125	tespit edildi	0.1421068
-1.556303	tespit edilmediği	0
-1.255273	tespit edilmesi	-0.2552725
-0.09691001	testi sonucunun	0
-0.60206	tetkik kontrastsız
-0.60206	tetkik tetkikler	0
-0.60206	tetkikler </s>
-0.60206	tetkikler ile	0
-0.30103	tetkikleri tamamlanarak	0
-0.1760913	tiroid sağ	-0.4507923
-0.30103	tit ve	0
-0.30103	toraks bt	0
-0.1760913	trakea ve
-0.30103	trans süspansiyonu	0
-0.09691001	transfüze edildi	0.9344985
-0.30103	transtorasik eko	0
-0.30103	troponin değerinin	0
-0.60206	trunkus çapı	0
-0.60206	trunkus çapında
-0.30103	tüm abdomen	0
-0.30103	usg sonucunda	0
-0.30103	uygulanan ilaçlar	0
-0.7781513	uygun görülmediği	0
-0.7781513	uygun olacağı	0
-0.7781513	uygun şekilde	0
-0.30103	uyması belirtildi
-0.30103	uyuldu </s>
-0.30103	uyum gösteremediği	0
-0.544068	uyumlu bulgular	-0.3309932
-0.845098	uyumlu görünüm
-0.845098	uyumlu olabilecek	0
-0.30103	vasküler yapıların	0
-2.012837	ve abdominal	0
-1.535716	ve alt	-0.0642409
-2.012837	ve ana
-2.012837	ve antibiyoterapisine	0
-2.012837	ve aralıkla	0
-2.012837	ve aralıklarla	0
-2.012837	ve bir	0
-2.012837	ve bulantı	0
-2.012837	ve dahiliye	0
-1.313867	ve diğer	-0.146128
-1.234686	ve ek	0
-2.012837	ve ekostrüktürü
-2.012837	ve enfeksiyon	0
-2.012837	ve extrahepatik
-2.012837	ve her	0
-2.012837	ve hiler	0
-2.012837	ve homojen	0
-2.012837	ve hırıltılı	0
-2.012837	ve idrar	0
-2.012837	ve interlobüler	0
-2.012837	ve kalsifikasyonlar	0
-2.012837	ve kan	0
-2.012837	ve konsolidasyon	0
-2.012837	ve laboratuar
-2.012837	ve me	0
-2.012837	ve mediasten
-2.012837	ve mezenterik	0
-2.012837	ve parankim	0
-1.711807	ve performansı	0
-2.012837	ve peribronşial	0
-1.711807	ve posterior	-0.2552725
-2.012837	ve sağ	0
-2.012837	ve skapula	0
-2.012837	ve sol	0
-2.012837	ve sonuçlarla
-1.711807	ve taburculuk	0.1249387
-2.012837	ve tansiyon	0
-1.711807	ve tedavisi	-0.3802113
-1.711807	ve tedavisine	0
-2.012837	ve troponin	0
-1.711807	ve yer	-0.3899711
-2.012837	ve zofer	0
-2.012837	ve ısrarlı	0
-0.1760913	verildi </s>
-0.30103	verilmediği için	0
-0.90309	veya farklılık	0
-0.90309	veya loküle	0
-0.90309	veya yeni	0
-0.90309	veya yer	0
-0.30103	vücut ağrıları	0
-0.30103	yakınlarının da	0
-0.30103	yamalı buzlu	0
-0.30103	yan ağrısı
-0.30103	yaprakları arasında	0
-0.7781513	yapılan tetkik	0
-0.7781513	yapılan transtorasik	0
-0.7781513	yapılan önerilere	0
-0.60206	yapıların değerlendirilmesi	0
-0.60206	yapıların değerlendirilmesinde	0
-0.06694679	yapıldı </s>
-0.30103	yapılması progas	0
-0.30103	yardımsız olarak	0
-0.30103	yastıkcığında artış
-0.30103	yatırıldı </s>
-0.07918125	yatışı mevcuttur	-0.30103
-0.30103	yaygın vücut	0
-0.30103	yağ yastıkcığında
-0.1760913	yaşı ve	-0.4686054
-0.30103	ye teknik	0
-1.20412	yedi </s>
-0.90309	yedi iki	-0.4036923
-0.7269987	yedi mm	0
-0.90309	yedi on	0
-1.20412	yedi sekiz	0
-1.20412	yedi sıfır	0
-0.30103	yeni eklenmiş	0
-0.60206	yeniden düzenlendi	0
-0.60206	yeniden göğüs	0
-1.041393	yer buzlu	0
-1.041393	yer kaplayan	0
-1.041393	yer kaplayıcı	0
-1.041393	yer nodüler	0
-0.7403627	yer yer	0
-0.60206	yerinde beş	0
-0.60206	yerinde bir	0
-0.1760913	yerleşimli nodüler	-0.1760913
-0.30103	yi geçmeyen	0
-1.322219	yirmi dört	0
-0.4771213	yirmi iki	-0.2120889
-1.322219	yirmi sekiz	0
-1.322219	yirmi tablet	0
-1.021189	yirmi yedi	0
-1.322219	yirmi çarpı	0
-1.322219	yirmi üç	0
-0.30103	yoktur </s>
-0.30103	yollarında genişleme
-0.1760913	yoğun bakım	0
-0.30103	yumuşak doku	0
-0.30103	yönelik olarak	0
-0.7781513	yüksek olan	0
-0.7781513	yüksek olarak	0
-0.7781513	yüksek olduğu	0
-0.7781513	yüksekliği ayaklarda	0
-0.7781513	yüksekliği bulantı	0
-0.7781513	yüksekliği de	0
-0.1760913	yükseldiği tespit	0.30103
-0.30103	yükselme sağlandığı	0
-0.30103	zaten normalden	0
-0.30103	zofer iki	0
-0.30103	zonlarda manşet	0
-0.7781513	çapı kırk	0
-0.7781513	çapı normal	0
-0.7781513	çapı otuz	0
-1.278754	çapında anekoik	0
-0.5797836	çapında artış	-0.04921803
-0.9777236	çapında birkaç	0.30103
-1.278754	çapında kalsifiye	0
-1.278754	çapında nodüler	0
-1.278754	çapında olmak	0
-1.278754	çapında çok	0
-1.255273	çarpı altı	0
-0.5563025	çarpı bir	0
-1.255273	çarpı dokuz	0
-0.7781513	çarpı on	-0.1284271
-1.255273	çarpı yedi	0
-1.255273	çarpı yirmi	0
-0.30103	çekintiler izlendi
-0.30103	çevresinde arteriovenöz	0
-0.1249387	çok sayıda	0
-0.30103	çözeltisi içeren	0
-0.1249387	çıkan aort	0
-0.39794	çıkardığı takibi	-0.2662679
-0.69897	çıkardığı ve	0
-0.1760913	ödem </s>
-0.69897	öksürük göğüs	0
-0.39794	öksürük hırıltılı	-0.2340832
-0.1760913	ölçülen plevral	-0.05115253
-0.30103	ölçülmüş olup	0
-0.06694679	ön planda	0
-0.60206	önceden bilindiğini	0
-0.60206	önceden de	0
-0.30103	önerilere de	0
-0.30103	önerilerine uygun	0
-0.09691001	önerilir </s>
-0.30103	öyküsü de	0
-0.30103	öğrenildi </s>
-0.7781513	ünite daha	0
-0.30103	ünite eritrosit	0.07918123
-0.39794	üre-kreatinin değerlerinde	-0.4227636
-0.69897	üre-kreatinin değerlerinin	0
-1.322219	üst alt	0
-1.322219	üst kalisiyel
-0.544068	üst lob	-0.219557
-0.845098	üst lobda	0
-1.322219	üst loblarda
-1.322219	üst paratrakeal	0
-1.322219	üst ve	0
-0.7781513	üzere keseyi	0
-0.7781513	üzere lenf	0
-0.7781513	üzere porselen	0
-0.60206	üzerine ileri	0
-0.60206	üzerine yeniden	0
-0.6532125	üç cm	0
-0.9542425	üç mm	0
-0.4771213	üç çarpı	-0.08051959
-0.30103	ısrarlı şekilde	0
-0.30103	ıv kontrast	0
-0.30103	şekel </s>
-0.1760913	şekeri takibi	-0.2662679
-0.9700368	şekilde aldığı	0
-0.6690068	şekilde devamı	0
-1.447158	şekilde gerilemiş	0
-1.447158	şekilde hastanın	0
-1.447158	şekilde kan
-1.447158	şekilde oksijen	0
-1.447158	şekilde pulse	0
-0.845098	şekilde servisimizde	0.07918125
-1.447158	şekilde taburculuk	0
-0.30103	şekilli nodüler	0
-0.30103	şeklinde devam	0
-0.1760913	şikayet artışı	-0.2552725
-0.06694679	şikayeti olmazsa	0
-0.1760913	şikayetleri gerileyen	0
-0.9542425	şikayetleri tarifliyor	0
-0.60206	şikayetlerinin belirgin	0
-0.60206	şikayetlerinin ön	0
-0.30103	şişlik nefes	0

\3-grams:
-0.30103	tüm abdomen usg	0
-0.1760913	<s> abdominal aortada	0
-0.1760913	ve abdominal aortada	0
-0.30103	boyutlarında adenomatöz karakterde	0
-1.150537	birkaç adet kist	0
-0.6532125	birkaç adet lap	0
-1.150537	birkaç adet pulmoner	0
-1.150537	birkaç adet sekel	0
-1.113943	iki adet hiperdens	0
-1.113943	iki adet subplevral	0
-0.30103	sağ adrenal gland	0
-0.1760913	kronik af ile	0
-0.30103	nebulizasyon aircomb film	0
-1.544068	<s> akciğer alanlarında	0
-0.544068	iki akciğer alt	0
-1.608526	iki akciğer parankiminde	0
-1.544068	interstisyel akciğer hastalığı	0
-0.1249387	kontrol akciğer grafisinde	0
-1.544068	net akciğer parankim	0
-1.759668	sağ akciğer al	0
-0.69897	sağ akciğer orta	0
-0.39794	sağ akciğer üst	0.04575748
-0.4393327	sol akciğer alt	0.008773913
-0.3424227	sol akciğer üst	-0.1760913
-0.60206	iki akciğerde büyüğü	0
-0.60206	sağ akciğerde üst	0
-0.60206	bilateral akciğerlerde ağırlıklı	0
-0.30103	sağ aksilla ve	0
-0.30103	kısa aksı bir	0
-0.30103	alanlarında aktif infiltrasyon	0
-0.1249387	sinde akut bir	0
-0.30103	akciğer al orta	0
-0.1249387	paratrakeal alanda on	0
-0.7781513	subplevral alanda bronşektazik	0
-0.30103	dansitesinde alanlar ve	0
-0.60206	subplevral alanlarda hafif	0
-0.60206	subplevral alanlarda retiküler	0
-0.30103	akciğer alanlarında aktif	0
-0.1249387	şekilde aldığı çıkardığı	0
-0.5166298	<s> alt lob	0
-0.5228788	akciğer alt lob	0.07918123
-1.359022	akciğer alt lobda	0
-1.359022	akciğer alt loblarda	0
-1.057992	akciğer alt lobta	0
-1.361728	bilateral alt zonlarda	0
-1.361728	böbrek alt kalisiyel	0
-1.361728	sağ alt pırat	0
-0.5166298	sağda alt lob	0
-0.39794	ve alt lob	-0.1760913
-1.124939	ve alt lobta	0
-1.361728	üst alt paratrakeal	0
-1.100371	on altı mg	0
-0.544068	on altı on	0
-1.100371	on altı çarpı	0
-1.041393	sol altı yedi	0
-1.041393	çarpı altı mm	0
-0.7781513	hastadan alınan kontrol	0
-0.30103	hastadan alınan pcr	0
-0.1760913	nakil alındı </s>
-0.30103	antibiyoterapisine ampisilin sulbaktam	0
-0.60206	<s> ana vasküler	0
-0.60206	değerlendirildiği ancak yaşı	0
-0.60206	görülebilir ancak nonspesifiktir	0
-0.30103	çapında anekoik pelvik	0
-0.1760913	karşılaştırıldığında anlamlı farklılık	0
-0.1760913	nodüllerde anlamlı farklılık	0
-0.544068	bir anormallik izlenmediği	0
-0.845098	bir anormallik tespit	0
-0.845098	bir anormallik veya	0
-0.30103	bir antepsin iki	0
-0.30103	lob anterobazal segmentte	0
-0.30103	lobda anteromedial segmentte	0
-0.60206	düzenlenen antiaritmik ve	0
-0.60206	olduğu antiaritmik antihipertansif	0
-0.30103	ve antibiyoterapisine ampisilin	0
-0.7781513	antihipertansif antidiyabetik demans	0
-0.7781513	antikoagulan antidiyabetik bph	0
-0.7781513	ile antidiyabetik medikasyonun	0
-0.90309	antiaritmik antihipertansif antikoagulan	0
-0.90309	antikoagulan antihipertansif diüretik	0
-0.90309	olduğu antihipertansif antidiyabetik	0
-0.90309	olduğu antihipertansif levotiroksin	0
-0.60206	antihipertansif antikoagulan antidiyabetik	0
-0.60206	olduğu antikoagulan antihipertansif	0
-0.39794	çıkan aort ap	0
-0.69897	çıkan aort çapında	0
-0.60206	değerlendirilmesinde aorta çapı	0
-0.60206	abdominal aortada renal	0
-0.60206	abdominal aortada ve	0
-0.30103	subkarinal aortopulmoner ve	0
-0.1760913	aort ap çapında	0
-0.1760913	lob apikal ve	0
-0.1249387	lob apikoposterior segmentte	0
-0.30103	ve aralıkla mobilize	0
-0.30103	ve aralıklarla mobilize	0
-0.1249387	normal aralıkta seyretmekte	0
-0.243038	tarihleri arasında refakatli	0
-1.066947	tarihleri arasında servisimizde	0
-0.9542425	yaprakları arasında ince	0
-0.60206	pulmoner arter trunkus	0
-0.60206	pulmoner arter çapı	0
-0.30103	çevresinde arteriovenöz malformasyon	0
-0.30103	tansiyon arteriyel takibi	0
-0.544068	mezenterik arterlerde kalsifik	0
-0.845098	mezenterik arterlerde ve	0
-0.544068	renal arterlerde kalsifik	0
-0.30103	effüzyon artmış olup	0
-0.30103	kabalaşmış artı bilateral	0
-0.4259687	çapında artış </s>
-1.049218	çapında artış kırk	0
-1.049218	çapında artış çıkan	0
-0.60206	dansite artışları izlenmiştir	0
-0.60206	kalınlık artışları ve	0
-0.1760913	şikayet artışı durumunda	0
-0.1760913	komşuluğunda atelektazik değişiklikler	0
-0.1760913	kalsifik aterom plakları	0
-0.39794	halsizlik ateş yüksekliği	0
-0.69897	nabız ateş ve	0
-0.39794	solunum ateş yüksekliği	0
-0.30103	yüksekliği ayaklarda şişlik	0
-0.30103	sulbaktam azitromisin şeklinde	0
-1.146128	göğüs ağrısı hırıltılı	0
-1.146128	göğüs ağrısı karın	0
-1.146128	karın ağrısı genel	0
-1.146128	karın ağrısı gibi	0
-1.146128	karın ağrısı ve	0
-0.30103	akciğerlerde ağırlıklı olarak	0
-0.60206	yoğun bakım koşullarında	0
-0.60206	yoğun bakım takibi	0
-0.30103	hafif bal peteği	0
-0.30103	<s> batın içinde	0
-0.20412	<s> bazal segmentlerde	0
-0.8450981	lob bazal segment	0
-0.243038	lob bazal segmentlerde	0
-0.30103	değerlerinde bazali zaten	0
-0.30103	kırığa bağlı kallüs	0
-0.1249387	<s> başvurusuna göre	0
-0.1249387	hasta başvurusuna göre	0
-0.39794	hastanın başvurusunda mevcut	0
-0.69897	hastanın başvurusunda oldukça	0
-0.3521825	eklenmiş belirgin bir	0
-0.3521825	grafisinde belirgin bir	0
-0.3521825	kültüründe belirgin bir	0
-0.1760913	olası belirgin şikayet	0
-1.255273	oldukça belirgin olan	0
-0.09691001	planda belirgin bir	-0.1413291
-0.3521825	sinde belirgin bir	0
-1.255273	solunumu belirgin şekilde	0
-1.255273	şikayetlerinin belirgin olduğunun	0
-0.30103	septalarda belirginleşme ve	0
-0.1760913	gelmesi belirtildi </s>
-1	gelmesi belirtilerek on	0
-1	gelmesi belirtilerek ta	0
-0.5228788	gelmesi belirtilerek taburcu	0
-1	gelmesi belirtilerek tarihinde	0
-0.7781513	olduğunu belirtiyor mobilize	0
-0.30103	olduğunu belirtiyor ve	0
-0.30103	bilindiğini belirttiği üzere	0
-0.30103	sekel benzeri oval	0
-0.7781513	kırk beş mm	0
-0.4771213	on beş gün	0
-0.8962506	on beş mm	0
-0.6532125	on beş çarpı	0
-1.079181	yerinde beş cm	0
-1.342423	<s> bilateral akciğerlerde	0
-1.342423	artı bilateral ekspiratuvar	0
-0.1760913	kabalaşmış bilateral expiratuvar	0.1249387
-1.342423	olan bilateral ronküsleri	0
-1.598426	oskültasyon bilateral alt	0
-0.243038	oskültasyon bilateral solunum	0.07918125
-0.6434527	ralleri bilateral solunum	0
-0.30103	önceden bilindiğini belirttiği	0
-0.30103	izlenmediği bilinen kronik	0
-0.05799195	iki bin yirmi	0
-1.166331	aksı bir cm	0
-0.1249387	akut bir kardiyak	0.09691
-0.5118834	belirgin bir anormallik	0
-1.159701	belirgin bir kardiyak	0
-1.761761	belirgin bir parankimal	0
-1.761761	belirgin bir pulmoner	0
-1.761761	belirgin bir radyolojik	0
-1.166331	büyüğü bir cm	0
-1.166331	hastaya bir ünite	0
-0.1760913	ile bir ünite	-0.2552725
-0.30103	on bir iki	0
-0.60206	on bir mm	0
-1.643453	ve bir dizi	0
-1.166331	yerinde bir cm	0
-1.643453	çarpı bir antepsin	0
-1.643453	çarpı bir metpamid	0
-1.643453	çarpı bir refcon	0
-1.643453	çarpı bir ve	0
-1.643453	çarpı bir önerilir	0
-0.1760913	boyutunda birkaç adet	-0.3679768
-0.07918125	olan birkaç adet	0
-0.1760913	çapında birkaç adet	0
-0.60206	ile birlikte kardiyak	0
-0.1760913	de biyokimya değerlerinde	0
-0.1760913	kan biyokimya değerlerinde	0
-0.30103	kan biyokimyasındaki hipokalemi	0
-0.90309	mm boyutlarında adenomatöz	0
-0.90309	mm boyutlarında olmak	0
-0.90309	mm boyutlarında ovoid	0
-0.90309	mm boyutlarında yumuşak	0
-0.39794	milimetrik boyutlu kalsifik	0
-0.9208187	milimetrik boyutlu subplevral	0
-0.39794	mm boyutunda birkaç	0
-0.69897	mm boyutunda olan	0
-0.60206	durum bozukluğu yaygın	0
-0.1760913	antidiyabetik bph ile	0
-0.1760913	diüretik bph ile	0
-0.1760913	ilgili branş tarafından	0
-0.30103	alanda bronşektazik değişiklikler	0
-0.30103	segmentlerde bronşial duvar	0
-0.30103	toraks bt sinde	0
-0.90309	solunum bulantı nefes	0
-0.90309	ve bulantı tarifliyor	0
-0.90309	yüksekliği bulantı iştahsızlık	0
-0.06694679	lehinde bulgu izlenmediği	0
-0.845098	<s> bulgular covid	0
-0.845098	fizik bulgular oskültasyon	0
-0.1760913	uyumlu bulgular izlendiği	0
-0.30103	kesesi bulgularının da	0
-0.09691001	de bulunan hastanın	0
-0.09691001	konsantratörü bulunan hastanın	0
-0.1760913	talebinde bulunan hastanın	-0.3309932
-0.1760913	de bulunduğu tespit	0
-0.30103	hastanın bunun için	0
-0.07918125	dağılımlı buzlu cam	0
-0.07918125	hafif buzlu cam	0
-0.07918125	tarzda buzlu cam	0
-0.07918125	yamalı buzlu cam	0
-0.07918125	yer buzlu cam	0
-0.90309	iki böbrek parankim	0
-0.90309	sağ böbrek orta	0
-0.90309	sol böbrek alt	0
-0.30103	sağ böbrekte büyüğü	0
-0.60206	hiler bölgede çok	0
-0.60206	subkarinal bölgede kalsifik	0
-0.30103	orta bölümde iki	0
-1.146128	<s> büyüğü paratrakeal	0
-1.146128	akciğerde büyüğü sağda	0
-0.845098	böbrekte büyüğü iki	0
-0.845098	lobda büyüğü iki	0
-1.146128	lojunda büyüğü bir	0
-1.30103	mediastende büyüğü on	0
-0.39794	mediastende büyüğü sağ	0
-0.60206	buzlu cam dansiteleri	0
-0.60206	buzlu cam dansitesinde	0
-0.90309	buzlu cam görünümleri	0
-0.60206	genel cerrahi pol	0
-0.60206	genel cerrahi tarafından	0
-1.176091	beş cm ölçülen	0
-1.176091	bir cm solda	0
-1.176091	bir cm yi	0
-0.5740313	bir cm çapında	0
-1.176091	dört cm sol	0
-0.1760913	iki cm çapında	0
-1.176091	üç cm olarak	0
-0.5740313	üç cm çapında	0
-0.30103	bulgular covid on	0
-0.9542425	değerlerinde crp si	0
-0.6532125	değerlerinde crp sinde	0
-0.9542425	değerlerinde crp sinin	0
-0.9542425	değerlerinde crp yüksekliği	0
-1.322219	bulgularının da olduğu	0
-1.322219	daha da yükseldiği	0
-1.322219	kullanımına da devam	0
-0.09691001	medikasyonun da düzenli	0
-1.322219	replasmanı da yapıldı	0
-1.322219	sonucunun da pozitif	0
-0.1249387	tarafından da değerlendirilmesi	0
-1.322219	yakınlarının da daha	0
-1.021189	da daha önceden	0
-1.322219	değerlerinin daha da	0
-0.1760913	durumunda daha erken	0
-1.322219	edilmesi daha uygun	0
-1.322219	esnasında daha stabil	0
-0.1249387	göre daha rahat	0
-1.021189	için daha önceden	0
-0.1760913	süspansiyonu daha transfüze	0
-1.322219	ünite daha eritrosit	0
-1.079181	<s> dahiliye önerilerine	0
-0.60206	hastanın dahiliye tarafından	0
-0.1760913	ile dahiliye tarafından	-0.2552725
-1.079181	için dahiliye kliniğine	0
-1.079181	planda dahiliye takibi	0
-1.079181	ve dahiliye kontrolüne	0
-0.30103	retiküler dansite artışları	0
-0.60206	cam dansiteleri izlenmiştir	0
-0.60206	cam dansiteleri ve	0
-0.7781513	cam dansitesinde alanlar	0
-0.7781513	cam dansitesinde görüntüler	0
-0.7781513	doku dansitesinde nodüler	0
-0.60206	nefes darlığı göğüs	0
-0.30103	santral dağılımlı buzlu	0
-1.431364	değerinde de yükselme	0
-1.544068	değerinin de negatif	0
-0.544068	değerinin de yüksek	0
-1.431364	gerekse de mevcut	0
-1.130334	hipokaleminin de gerilediği	0
-1.130334	hiponatremi de bulunduğu	0
-1.431364	kan de biyokimya	0
-1.130334	yüksekliği de bulunduğu	0
-1.431364	önceden de genel	0
-1.431364	önerilere de uyuldu	0
-1.431364	öyküsü de bulunan	0
-0.30103	antidiyabetik demans ile	0
-0.30103	olduğu desmont tablet	0
-0.30103	oksijen desteği ile	0
-1.079181	da devam etmesi	0
-1.079181	eğiliminin devam etmekte	0
-1.079181	koşullarında devam edilmesi	0
-1.079181	takibine devam edildi	0
-1.079181	tedavisine devam edilmekte	0
-1.079181	şeklinde devam edilmesine	0
-0.20412	şekilde devamı sağlandı	0
-0.30103	hemoglobin değerinde de	0
-0.1249387	nt-probnp değerinin de	-0.07572071
-0.09691001	troponin değerinin de	0
-0.30103	tarafından değerlendirildiği ancak	0
-1.176091	da değerlendirilmesi sağlanarak	0
-0.39794	da değerlendirilmesi sağlandı	0
-1.041393	yapıların değerlendirilmesi suboptimaldir	0
-0.30103	yapıların değerlendirilmesinde aorta	0
-0.30103	parankim değerlendirmesi için	0
-1.230449	biyokimya değerlerinde bazali	0
-1.230449	biyokimya değerlerinde hiponatremi	0
-0.30103	kan değerlerinde crp	0
-0.5228788	kan değerlerinde ön	0
-0.1760913	üre-kreatinin değerlerinde düşüş	0
-0.30103	üre-kreatinin değerlerinin daha	0
-0.90309	atelektazik değişiklikler mevcuttur	0
-0.90309	sekel değişiklikler ve	0
-0.30103	bir dizi enfeksiyonda	0
-0.30103	antihipertansif diüretik bph	0
-0.1760913	<s> diğer taraftan	0
-1.146128	ve diğer kardiyak	0
-0.243038	ve diğer semptomatik	0
-0.30103	yumuşak doku dansitesinde	0
-0.60206	on dokuz pnömonisinde	0
-0.60206	çarpı dokuz mm	0
-0.30103	tamamen dolduran çok	0
-0.30103	ile dolu olduğu	0
-0.30103	tek dozluk inhalasyon	0
-0.1760913	genel durum bozukluğu	0
-0.60206	mevcut durumu sebebi	0
-0.1760913	artışı durumunda daha	0
-0.30103	bronşial duvar kalınlık	0
-0.60206	hemitoraksta dört cm	0
-0.60206	yirmi dört on	0
-0.06694679	tedavisi düzenlendi ve	-0.3679768
-0.05799195	yeniden düzenlendi ve	0
-0.30103	tarafından düzenlenen antiaritmik	0
-0.30103	medikasyonunun düzenlenmesi sağlandı	0
-0.09691001	da düzenli şekilde	-0.5099137
-0.03476211	evde düzenli şekilde	0
-0.09691001	hastanın düzenli şekilde	-0.2167091
-0.1760913	medikasyonun düzenli şekilde	-0.288065
-0.03476211	sat düzenli şekilde	0
-0.30103	kendine düşme öyküsü	0
-0.30103	sinin düştüğü hiperat	0
-0.1249387	hemoglobin düşüklüğü nedeni	0
-0.69897	değerlerinde düşüş eğilimi	0
-0.39794	değerlerinde düşüş sağlandığı	0
-0.39794	sinde düşüş sağlandığı	0
-0.30103	enfeksiyon dışı hastalıkta	0
-0.06694679	taburcu edildi </s>
-0.01424044	tespit edildi </s>
-0.09691001	transfüze edildi </s>
-0.30103	tespit edilmediği raporlandı	0
-0.30103	devam edilmekte olan	0
-0.69897	devam edilmesi daha	0
-0.1760913	tespit edilmesi üzerine	0
-0.30103	devam edilmesine karar	0
-1.146128	effüzyon effüzyon komşuluğunda	0
-0.6532125	plevral effüzyon </s>
-1.150537	plevral effüzyon artmış	0
-1.150537	plevral effüzyon effüzyon	0
-0.30103	ince efüzyon ve	0
-0.06694679	ve ek şikayeti	0
-0.07918125	hastanın ekg sinde	0
-0.30103	yeni eklenmiş belirgin	0
-0.30103	transtorasik eko ile	0
-0.60206	parankim ekojenitesi normaldir	0
-0.60206	parankim ekojenitesi tabii	0
-0.30103	bilateral ekspiratuvar ronküs	0
-0.30103	notuss elli mg	0
-0.1760913	sağda en geniş	0
-0.1760913	solda en geniş	0
-0.30103	ve enfeksiyon dışı	0
-0.30103	dizi enfeksiyonda ve	0
-0.30103	daha eritrosit süspansiyonu	0
-0.39794	ünite eritrosit süspansiyonu	0
-0.69897	ünite eritrosit trans	0
-0.1760913	daha erken gelmesi	0
-0.7781513	<s> eski tarihli	0
-0.7781513	kostalarda eski kırığa	0
-0.7781513	tarihli eski filmleriyle	0
-0.30103	takibi esnasında daha	0
-0.30103	olası etken identifikasyonuna	0
-0.30103	devam etmekte olduğu	0
-0.30103	devam etmesi belirtildi	0
-0.7781513	<s> evde kendi	0
-0.7781513	hastanın evde düzenli	0
-0.30103	<s> evinde oksijen	0
-0.1249387	bilateral expiratuvar ronküs	0
-0.1760913	düşüş eğilimi sağlandığı	0
-0.1760913	regresyon eğilimi sağlandığı	0
-0.1760913	gerileme eğiliminde </s>
-0.30103	regresyon eğiliminin devam	0
-0.30103	reçete farhex gargara	0
-0.1760913	anlamlı farklılık saptanmamıştır	0
-0.69897	veya farklılık izlenmediği	0
-0.30103	aircomb film kaplı	0
-0.30103	eski filmleriyle karşılaştırıldığında	0
-0.30103	<s> fizik bulgular	0
-0.60206	reçete flakon kutu	0
-0.30103	kutu flixotide nebules	0
-0.30103	ovoid formda lenf	0
-0.30103	farhex gargara notuss	0
-0.30103	kontrolü gastroskopi yapılması	0
-0.30103	hale geldiğinin tespit	0
-0.1760913	erken gelmesi belirtildi	0
-0.07918125	kontrole gelmesi belirtilerek	0.04575747
-0.2218488	kontrolüne gelmesi belirtilerek	0
-0.4771213	<s> genel cerrahi	0
-0.4771213	ağrısı genel durum	0
-0.4771213	de genel cerrahi	0
-0.4771213	iştahsızlık genel durum	0
-0.1760913	en geniş yerinde	0
-0.7781513	pelvik genişleme izlenmiş	0
-0.30103	hasta gerek yaşı	0
-0.30103	performansı gerekse de	0
-0.30103	takibi gerektirdiğine kanaat	0
-0.1760913	de gerilediği tespit	0
-0.1760913	ronküsleri gerileme eğiliminde	0
-0.1760913	solunumu gerileme eğiliminde	0
-0.30103	şekilde gerilemiş durumda	0
-0.30103	şikayetleri gerileyen hastanın	0
-0.60206	şikayetleri gerileyen ve	0
-0.30103	kanaat getirilerek hasta	0
-0.30103	yi geçmeyen multiple	0
-0.30103	ağrısı gibi şikayetleri	0
-0.1760913	adrenal gland lateral	0
-0.1760913	sürrenal gland lateral	0
-0.60206	sürrenal glandda otuz	0
-0.60206	sürrenal glandda üç	0
-0.69897	akciğer grafisinde belirgin	0
-0.39794	akciğer grafisinde radyolojik	0
-0.1249387	başvurusuna göre daha	0
-0.30103	pnömonisinde görülebilir ancak	0
-0.30103	uygun görülmediği öğrenildi	0
-0.1760913	olduğu görülüyor </s>
-0.30103	dansitesinde görüntüler izlendi	0
-0.30103	peteği görünümü mevcuttur	0
-0.30103	uyum gösteremediği tespit	0
-0.60206	darlığı göğüs ağrısı	0
-0.30103	hastanın göğüs hastalıkları	0
-0.30103	için göğüs hastalıkları	0
-0.30103	sonra göğüs hastalıkları	0
-0.30103	yeniden göğüs hastalıkları	0
-0.60206	öksürük göğüs ağrısı	0
-0.1249387	beş gün sonra	-0.1760913
-0.1249387	on gün sonra	0.20412
-0.30103	<s> güncel incelemede	0
-0.60206	alanlarda hafif buzlu	0
-0.60206	segmentlerde hafif bal	0
-0.30103	stabil hale geldiğinin	0
-0.60206	solunum halsizlik ateş	0
-1.128543	<s> hasta başvurusuna	0
-1.128543	<s> hasta gerek	0
-0.7403627	<s> hasta rahat	0
-1.113943	getirilerek hasta ileri	0
-0.3521825	<s> hastadan alınan	0
-0.9542425	<s> hastadan net	0
-0.9542425	<s> hastadan olası	0
-0.845098	göğüs hastalıkları izolasyon	0
-0.845098	göğüs hastalıkları kardiyoloji	0
-0.544068	göğüs hastalıkları servisine	0
-0.30103	dışı hastalıkta bulunabilir	0
-1.447158	<s> hastanın başvurusunda	0
-2.061663	<s> hastanın bunun	0
-2.061663	<s> hastanın dahiliye	0
-1.322219	<s> hastanın düzenli	0
-1.225309	<s> hastanın ekg	0
-1.623249	<s> hastanın evde	0
-2.061663	<s> hastanın göğüs	0
-1.447158	<s> hastanın hemogramındaki	0
-2.061663	<s> hastanın ileri	0
-2.061663	<s> hastanın kardiyoloji	0
-1.322219	<s> hastanın kendi	0.07918125
-0.9242793	<s> hastanın kontrol	0
-1.623249	<s> hastanın nt-probnp	0.1249387
-2.061663	<s> hastanın on	0
-1.623249	<s> hastanın sat	0
-1.760633	<s> hastanın satürasyonu	0
-2.061663	<s> hastanın sft	0
-2.061663	<s> hastanın sıfır	0
-1.623249	<s> hastanın tarihleri	0
-2.061663	<s> hastanın tekrarlayıcı	0
-1.322219	<s> hastanın temel	0
-1.760633	<s> hastanın yirmi	0
-2.061663	<s> hastanın yoğun	0
-2.061663	<s> hastanın ön	0
-1.760633	<s> hastanın şikayetlerinin	0
-0.544068	bulunan hastanın medikal	0.3679768
-1.827369	bulunan hastanın satürasyonu	0
-1.827369	bulunan hastanın yirmi	0
-0.09691001	gerileyen hastanın medikal	0.146128
-1.70757	olan hastanın şikayetlerinin	0
-1.30963	tak hastanın kendi	0
-1.531479	taraftan hastanın nt-probnp	0
-2.0086	taraftan hastanın yakınlarının	0
-2.0086	şekilde hastanın medikasyonu	0
-0.60206	<s> hastaya bir	0
-0.60206	<s> hastaya kardiyoloji	0
-0.30103	milimetrik hava kisti	0
-0.60206	oda havasında normal	0
-0.60206	oda havasında pulse	0
-0.30103	tekrarlayıcı hazımsızlık karın	0
-0.60206	sağ hemitoraksta dört	0
-0.60206	sol hemitoraksta üç	0
-0.1249387	hemogramındaki hemoglobin düşüklüğü	0
-0.7781513	sağlandığı hemoglobin değerinde	0
-0.1249387	hastanın hemogramındaki hemoglobin	0
-0.30103	lezyon hemorajik kist	0
-0.05799195	<s> her iki	0.03778856
-0.05115252	ve her iki	0
-0.60206	sağ hiler bölgede	0
-0.60206	ve hiler yapıların	0
-0.30103	düştüğü hiperat hiponatremi	0
-0.30103	adet hiperdens kortikal	0
-0.30103	nodüler hipodens lezyon	0
-0.30103	biyokimyasındaki hipokalemi nedeni	0
-0.30103	ile hipokaleminin de	0
-0.60206	değerlerinde hiponatremi de	0
-0.60206	hiperat hiponatremi ile	0
-0.30103	ve homojen olup	0
-0.3679768	ağrısı hırıltılı solunum	0
-0.544068	ile hırıltılı solunumu	0
-0.544068	ve hırıltılı solunumu	0
-0.1760913	öksürük hırıltılı solunum	0
-0.06694679	medikal idame tedavisi	0
-0.30103	etken identifikasyonuna yönelik	0
-0.30103	ve idrar kültüründe	0
-1.176091	antepsin iki çarpı	0
-0.09691001	bir iki bin	0.20412
-1.352183	bölümde iki adet	0
-0.1760913	büyüğü iki cm	0
-0.4771213	her iki akciğer	0
-1.892095	her iki akciğerde	0
-0.7781513	her iki böbrek	0
-1.653213	ile iki ünite	0
-1.653213	kırk iki mm	0
-0.8081145	on iki bin	0
-1.176091	progas iki çarpı	0
-1.352183	segmentte iki adet	0
-0.1760913	yedi iki bin	0.4259687
-0.7403627	yirmi iki sıfır	0
-1.865301	yirmi iki tarihinde	0
-0.5642715	yirmi iki tarihleri	0
-1.865301	yirmi iki yirmi	0
-1.176091	zofer iki çarpı	0
-0.30103	uygulanan ilaçlar malzemeler	0
-0.1760913	af ile uyumlu	-0.3309932
-0.1760913	bph ile ilgili	0.1249387
-1.176091	demans ile ilgili	0
-1.352183	desteği ile normal	0
-1.653213	eko ile birlikte	0
-1.653213	hiponatremi ile hipokaleminin	0
-1.653213	kalküller ile dolu	0
-1.051152	malformasyon ile uyumlu	0
-0.7781513	nedeni ile bir	0
-0.7781513	nedeni ile dahiliye	0
-1.788875	nedeni ile iki	0
-1.788875	nedeni ile potasyum	0
-1.788875	nedeni ile uygun	0
-1.352183	oksimetre ile normal	0
-1.653213	oksimetre ile satürasyon	0
-1.653213	ronküsleri ile hırıltılı	0
-1.653213	sebebi ile yardımsız	0
-1.653213	segment ile orta	0
-1.352183	si ile üre-kreatinin	0
-1.352183	sinde ile üre-kreatinin	0
-1.653213	tablet ile antidiyabetik	0
-1.653213	tetkikler ile tüm	0
-0.39794	hasta ileri takibi	0
-0.69897	hastanın ileri takibine	0
-0.39794	üzerine ileri takibi	0
-0.544068	<s> ilgili branş	0
-0.1249387	ile ilgili ve	0
-0.544068	tamamlanarak ilgili branş	0
-0.30103	arasında ince efüzyon	0
-0.30103	güncel incelemede plevral	0
-0.30103	sekiz inci kostalarda	0
-0.69897	aktif infiltrasyon veya	0
-0.1760913	parankimal infiltrasyon lehinde	0
-0.30103	dozluk inhalasyon çözeltisi	0
-0.1760913	loblarda interlobüler septalarda	0
-0.1760913	ve interlobüler septalarda	0
-0.30103	mevcuttur interstisyel akciğer	0
-0.30103	reçete iprasal nebulizasyon	0
-0.7781513	için istenen toraks	0
-0.7781513	olarak istenen tit	0
-0.7781513	tarafından istenen tetkikler	0
-0.30103	tarafından istenmiş olan	0
-0.1760913	bulgular izlendiği tespit	0
-0.30103	lobda izlenen nodüllerde	0
-0.1760913	anormallik izlenmediği tespit	0.4259687
-0.9542425	bulgu izlenmediği bilinen	0
-0.3521825	bulgu izlenmediği tespit	0.20412
-0.9542425	bulgu izlenmediği ve	0
-0.2340832	farklılık izlenmediği tespit	0
-0.845098	dansiteleri izlenmiştir bronkopnömoni	0
-0.60206	hastalıkları izolasyon servisinde	0
-0.30103	çözeltisi içeren flakon	0
-1.20412	bunun için daha	0
-1.20412	değerlendirmesi için istenen	0
-1.20412	nebulizasyon için tek	0
-1.20412	olacağı için nakil	0
-1.20412	tedavisi için dahiliye	0
-1.20412	tedavisi için göğüs	0
-1.20412	verilmediği için mediastinal	0
-0.30103	batın içinde serbest	0
-0.30103	bulantı iştahsızlık genel	0
-0.60206	sesleri kabalaşmış </s>
-0.90309	sesleri kabalaşmış artı	0
-0.60206	sesleri kabalaşmış bilateral	0
-0.60206	alt kalisiyel sistemde	0
-0.30103	sayıda kalkül izlendi	0
-0.30103	kesesinin kalküller ile	0
-0.30103	bağlı kallüs formasyonları	0
-0.1760913	arterlerde kalsifik aterom	0
-0.1760913	boyutlu kalsifik nodüler	0
-0.90309	bölgede kalsifik lap	0
-0.1760913	duvarında kalsifikasyonlar izlendi
-0.30103	çapında kalsifiye nodül	0
-0.60206	septalarda kalınlaşmalar kardiyojenik	0
-0.30103	duvar kalınlık artışları	0
-0.30103	parankim kalınlığı ve	0
-1.255273	kontrol kan biyokimyasındaki	0
-1.414973	temel kan biyokimya	0
-1.414973	temel kan de	0
-0.2108534	temel kan değerlerinde	0
-0.9542425	ve kan şekeri	0
-0.30103	gerektirdiğine kanaat getirilerek	0
-0.30103	yer kaplayan lezyon	0
-0.30103	yer kaplayıcı kitle	0
-0.30103	film kaplı tablet	0
-0.30103	adenomatöz karakterde nodüler	0
-0.30103	edilmesine karar verildi	0
-0.09691001	bir kardiyak patoloji	0
-0.9542425	birlikte kardiyak medikasyonunun	0
-0.9542425	diğer kardiyak medikasyonun	0
-0.30103	kalınlaşmalar kardiyojenik pulmoner	0
-0.69897	hastalıkları kardiyoloji ve	0
-0.39794	hastanın kardiyoloji tarafından	0
-0.39794	hastaya kardiyoloji tarafından	0
-0.09691001	ağrısı karın ağrısı	0
-0.09691001	hazımsızlık karın ağrısı	0
-0.09691001	planda karın ağrısı	0
-0.30103	filmleriyle karşılaştırıldığında anlamlı	0
-0.90309	evde kendi kendine	0
-0.07918125	hastanın kendi kullanmakta	0
-0.30103	kendi kendine düşme	0
-1	safra kesesi bulgularının	0
-1	safra kesesi lojunda	0
-0.30103	safra kesesinin kalküller	0
-0.30103	üzere keseyi tamamen	0
-0.30103	hava kisti izlenmiştir	0
-0.30103	kaplayıcı kitle saptanmamıştır	0
-0.60206	<s> klinik seyir	0
-0.30103	dahiliye kliniğine nakil	0
-0.30103	sıvı koleksiyonu görülmemiştir	0
-0.1760913	effüzyon komşuluğunda atelektazik	0
-0.1760913	olup komşuluğunda atelektazik	0
-0.60206	oksijen konsantratörü bulunan	0
-0.60206	oksijen konsantratörü kullanımına	0
-0.30103	ve konsolidasyon alanları	0
-0.30103	ıv kontrast madde	0
-0.30103	olabilecek kontrastlanma artışı	0
-1.230449	alınan kontrol pcr	0
-0.6368221	hastanın kontrol akciğer	0
-1.414973	hastanın kontrol kan	0
-0.3357921	hastanın kontrol temel	0
-0.07918125	sonra kontrole gelmesi	0
-0.30103	pol kontrolü gastroskopi	0
-0.30103	dahiliye kontrolüne gelmesi	0
-0.30103	hiperdens kortikal lezyon	0
-0.30103	inci kostalarda eski	0
-0.30103	bakım koşullarında devam	0
-0.1760913	bilinen kronik af	0
-0.1760913	sinde kronik af	0
-0.30103	lateral krusta on	0
-0.30103	lateral krusunda nodüler	0
-0.07918125	kendi kullanmakta olduğu	0
-0.30103	konsantratörü kullanımına da	0
-0.30103	flakon kutu flixotide	0
-0.30103	idrar kültüründe belirgin	0
-0.7781513	artış kırk mm	0
-0.7781513	segmentte kırk beş	0
-0.7781513	çapı kırk iki	0
-0.30103	eski kırığa bağlı	0
-0.30103	mediastende kısa aksı	0
-0.1760913	adet lap </s>
-0.90309	sayıda lap subkarinal	0
-0.60206	gland lateral krusta	0
-0.60206	gland lateral krusunda	0
-0.30103	lob laterobazal segmentte	0
-0.1760913	infiltrasyon lehinde bulgu	0.3679768
-0.09691001	patoloji lehinde bulgu	0.146128
-0.39794	formda lenf nodları	0
-0.69897	sayıda lenf nodu	0
-0.39794	üzere lenf nodları	0
-0.30103	antihipertansif levotiroksin tablet	0
-1.20412	kaplayan lezyon saptanmamıştır	0
-1.20412	kortikal lezyon hemorajik	0
-0.1383027	nodüler lezyon </s>
-1.409369	nodüler lezyon izlenmektedir	0
-1.447158	alt lob anterobazal	0
-0.30103	alt lob bazal	0
-1.447158	alt lob laterobazal	0
-0.6532125	üst lob apikal	0
-0.4771213	üst lob apikoposterior	0
-1.498311	üst lob posterior	0
-1.20412	alt lobda anteromedial	0
-0.30103	orta lobda ve	0
-0.1760913	sağ lobda milimetrik	0
-1.20412	üst lobda büyüğü	0
-1.20412	üst lobda izlenen	0
-0.60206	üst lobda ve	0
-0.60206	alt loblarda interlobüler	0
-0.60206	alt lobta milimetrik	0
-0.60206	alt lobta yamalı	0
-0.30103	kesesi lojunda büyüğü	0
-0.30103	veya loküle sıvı	0
-0.30103	kontrast madde verilmediği	0
-0.30103	arteriovenöz malformasyon ile	0
-0.30103	ilaçlar malzemeler yapılan	0
-0.30103	zonlarda manşet ralleri	0
-0.30103	ve me mobilize	0
-0.4259687	<s> mediastende büyüğü	0
-0.90309	<s> mediastende kısa	0
-0.30103	için mediastinal ve	0
-0.06694679	hastanın medikal idame	0
-0.30103	hastanın medikasyonu yeniden	0
-0.60206	antidiyabetik medikasyonun düzenli	0
-0.30103	kardiyak medikasyonun da	0
-0.30103	semptomatik medikasyonun da	0.09691
-0.60206	semptomatik medikasyonun düzenli	0
-0.30103	kardiyak medikasyonunun düzenlenmesi	0
-0.30103	bir metpamid üç	0
-0.1760913	başvurusunda mevcut olan	0
-0.69897	de mevcut durumu	0
-0.9542425	görünümü mevcuttur interstisyel	0
-0.07918125	yatışı mevcuttur </s>
-0.1760913	<s> mezenterik arterlerde	0
-0.1760913	ve mezenterik arterlerde	0
-0.60206	altı mg yirmi	0
-0.60206	elli mg prednol	0
-0.1760913	lobda milimetrik boyutlu	-0.2552725
-0.90309	lobta milimetrik hava	0
-0.4259687	segmentte milimetrik boyutlu	0
-0.90309	subplevral milimetrik solid	0
-1.322219	altı mm subkarinal	0
-0.7201593	beş mm boyutlarında	0
-0.845098	beş mm boyutunda	0
-0.7201593	bir mm boyutlarında	0
-0.845098	bir mm boyutunda	0
-0.7201593	dokuz mm boyutlarında	0
-1.322219	iki mm sağ	0
-0.7201593	sekiz mm boyutlarında	0
-0.845098	sekiz mm çapında	0
-0.845098	yedi mm boyutunda	0
-0.845098	yedi mm çapında	0
-1.322219	yedi mm ölçülmüş	0
-0.845098	üç mm çapında	0
-0.30103	olarak mobil olamıyormuş	0
-0.09691001	aralıkla mobilize olabiliyor	0
-0.09691001	aralıklarla mobilize olabiliyor	0
-0.09691001	belirtiyor mobilize olabiliyor	0
-0.09691001	me mobilize olabiliyor	0
-0.30103	geçmeyen multiple sayıda	0
-0.30103	satürasyon nabız ateş	0
-0.39794	için nakil alındı	0
-0.69897	kliniğine nakil verildi	0
-0.39794	servisine nakil alındı	0
-0.30103	flixotide nebules nebulizasyon	0
-0.60206	iprasal nebulizasyon için	0
-0.60206	nebules nebulizasyon aircomb	0
-0.1249387	düşüklüğü nedeni ile	-0.1426675
-0.05799195	hipokalemi nedeni ile	0
-0.1760913	olması nedeni ile	-0.39794
-0.05799195	performansı nedeni ile	0
-0.1760913	bulantı nefes darlığı	0
-0.1760913	şişlik nefes darlığı	0
-0.09691001	de negatif olarak	0
-0.1249387	sonucunun negatif olarak	0.09691
-0.30103	hastadan net akciğer	0
-0.1760913	lenf nodları </s>
-0.7781513	pulmoner nodül imajı	0
-0.7781513	solid nodül şekel	0
-0.30103	dansitesinde nodüler lezyon	0
-0.1760913	kalsifik nodüler lezyon	0
-0.30103	karakterde nodüler lezyon	0
-1.255273	krusunda nodüler hipodens	0
-0.30103	sayıda nodüler lezyon	0
-1.255273	segmentlerde nodüler tarzda	0
-1.255273	subplevral nodüler odansite	0
-1.255273	yer nodüler plevral	0
-0.1760913	yerleşimli nodüler lezyon	0.08715016
-0.30103	çapında nodüler lezyon	0
-0.30103	şekilli nodüler lezyon	0
-0.30103	izlenen nodüllerde anlamlı	0
-0.30103	ancak nonspesifiktir ve	0
-0.69897	havasında normal aralıkta	0
-0.1760913	ile normal aralıkta	0.1249387
-0.8750613	çapı normal olarak	0
-0.30103	zaten normalden yüksek	0
-0.60206	radyoloji notları sağ	0
-0.30103	gargara notuss elli	0
-0.1249387	hastanın nt-probnp değerinin	0
-0.1760913	satürasyonu oda havasında	0
-0.39794	evinde oksijen konsantratörü	0
-0.69897	satürasyonu oksijen desteği	0
-0.39794	şekilde oksijen konsantratörü	0
-0.1760913	pulse oksimetre ile	0
-0.30103	uyumlu olabilecek kontrastlanma	0
-0.30103	mobilize olabiliyor </s>
-0.7781513	mobilize olabiliyor ve	0
-0.30103	uygun olacağı için	0
-0.8129134	belirgin olan ronküsleri	0
-1.113943	boyutunda olan birkaç	0
-1.113943	edilmekte olan hastanın	0
-1.113943	istenmiş olan tetkikleri	0
-1.113943	mevcut olan bilateral	0
-0.8129134	mevcut olan ronküsleri	0
-1.113943	yüksek olan üre-kreatinin	0
-1.322219	ağırlıklı olarak santral	0
-1.322219	cm olarak ölçülen	0
-0.09691001	negatif olarak raporlandığı	0.146128
-1.322219	normal olarak değerlendirilmiştir	0
-0.544068	pozitif olarak raporlandığı	0
-1.322219	teknik olarak uyum	0
-1.322219	yardımsız olarak mobil	0
-1.322219	yönelik olarak istenen	0
-0.544068	yüksek olarak raporlandığı	0
-0.1760913	<s> olası belirgin	0
-0.69897	hastadan olası etken	0
-0.30103	başvurusunda oldukça belirgin	0
-0.6283889	da olduğu tespit	0
-0.6283889	dolu olduğu tespit	0
-0.6283889	etmekte olduğu tespit	0
-1.285236	kullanmakta olduğu antiaritmik	0
-0.6532125	kullanmakta olduğu antihipertansif	0
-1.285236	kullanmakta olduğu antikoagulan	0
-1.285236	kullanmakta olduğu desmont	0
-0.1760913	rahat olduğu görülüyor	0
-0.6283889	yüksek olduğu tespit	0
-0.09691001	rahat olduğunu belirtiyor	0
-0.30103	belirgin olduğunun tespit	0
-0.1760913	boyutlarında olmak üzere	0
-0.1760913	çapında olmak üzere	0
-0.1760913	tarifliyor olması nedeni	0
-0.06694679	şikayeti olmazsa on	0
-0.90309	artmış olup komşuluğunda	0
-0.90309	homojen olup yer	0
-0.90309	ölçülmüş olup artmıştır	0
-0.7132105	alanda on beş	0
-1.491362	alanda on sekiz	0
-1.491362	alanda on üç	0
-0.1760913	altı on bir	-0.1760913
-0.8893017	belirtilerek on altı	0
-0.8893017	büyüğü on altı	0
-1.491362	covid on dokuz	0
-0.7132105	dört on bir	0
-0.8893017	hastanın on altı	0
-0.7132105	krusta on beş	0
-0.4259687	olmazsa on beş	-0.4259687
-0.4259687	olmazsa on gün	0
-0.8893017	prednol on altı	0
-0.7132105	yedi on bir	0
-1.491362	yedi on iki	0
-0.8416376	çarpı on beş	0
-0.39794	çarpı on bir	-0.3521825
-0.1760913	akciğer orta lobda	0
-0.3521825	al orta lobda	0
-0.9542425	böbrek orta bölümde	0
-0.3521825	ile orta lobda	0
-0.09691001	<s> oskültasyon bilateral	-0.3309932
-0.07918125	bulgular oskültasyon bilateral	0
-0.60206	glandda otuz sekiz	0
-0.60206	çapı otuz yedi	0
-0.30103	benzeri oval şekilli	0
-0.30103	boyutlarında ovoid formda	0
-0.544068	<s> parankim ekojenitesi	0
-0.845098	akciğer parankim değerlendirmesi	0
-0.845098	böbrek parankim kalınlığı	0
-0.544068	ve parankim ekojenitesi	0
-0.1760913	bir parankimal infiltrasyon	0
-0.1760913	pulmoner parankimal infiltrasyon	0
-0.30103	akciğer parankiminde subplevral	0
-0.7781513	alt paratrakeal subkarinal	0
-0.30103	büyüğü paratrakeal alanda	0
-0.30103	pırat paratrakeal alanda	0
-0.30103	üst paratrakeal alanda	0
-0.09691001	kardiyak patoloji lehinde	0
-0.1249387	alınan pcr testi	0.09691
-0.09691001	kontrol pcr testi	0
-0.30103	anekoik pelvik genişleme	0
-0.60206	ve performansı gerekse	0
-0.60206	ve performansı nedeni	0
-0.30103	ve peribronşial infiltrasyonlar	0
-0.30103	bal peteği görünümü	0
-0.1760913	aterom plakları </s>
-0.3521825	ön planda belirgin	0
-0.9542425	ön planda dahiliye	0
-0.9542425	ön planda karın	0
-0.60206	solda plevra yaprakları	0
-0.20412	incelemede plevral effüzyon	0
-0.90309	nodüler plevral kalınlaşmalar	0
-0.1760913	ölçülen plevral effüzyon	0
-0.30103	dokuz pnömonisinde görülebilir	0
-0.30103	cerrahi pol kontrolü	0
-0.39794	üzere porselen safra	0
-0.69897	lob posterior segment	0
-0.1760913	ve posterior segmentte	0
-0.30103	ile potasyum replasmanı	0
-0.30103	da pozitif olarak	0
-0.30103	mg prednol on	0
-0.30103	yapılması progas iki	0
-0.30103	radyolojik progresyon veya	0
-0.8750613	<s> pulmoner arter	0
-1.176091	adet pulmoner nodül	0
-1.176091	bir pulmoner parankimal	0
-1.176091	kardiyojenik pulmoner ödem	0
-0.8750613	sağ pulmoner arter	0
-0.1760913	havasında pulse oksimetre	0
-0.1760913	şekilde pulse oksimetre	0
-0.30103	alt pırat paratrakeal	0
-0.1760913	<s> radyoloji notları	0
-0.69897	bir radyolojik progresyon	0
-0.1760913	grafisinde radyolojik regresyon	0
-0.39794	daha rahat olduğunu	0.2218487
-0.1760913	hasta rahat olduğunu	0.2218487
-0.30103	manşet ralleri bilateral	0
-0.06694679	olarak raporlandığı tespit	0
-0.09691001	arasında refakatli şekilde	0
-0.30103	bir refcon üç	0
-0.60206	radyolojik regresyon eğilimi	0
-0.60206	radyolojik regresyon eğiliminin	0
-0.30103	aortada renal arterlerde	0
-0.30103	potasyum replasmanı da	0
-0.30103	alanlarda retiküler dansite	0
-0.7781513	tedavi reçete farhex	0
-0.7781513	tedavi reçete flakon	0
-0.7781513	tedavi reçete iprasal	0
-0.1249387	expiratuvar ronküs </s>
-0.7781513	bilateral ronküsleri gerileme	0
-0.7781513	olan ronküsleri ile	0
-0.7781513	olan ronküsleri ve	0
-0.1249387	<s> safra kesesi	0
-0.1760913	porselen safra kesesi	0
-1	sonucunda safra kesesinin	0
-0.30103	olarak santral dağılımlı	0
-0.1760913	farklılık saptanmamıştır </s>
-0.60206	hastanın sat düzenli	0
-0.60206	hastanın sat satürasyonu	0
-0.30103	ile satürasyon nabız	0
-0.39794	hastanın satürasyonu oda	0
-0.69897	hastanın satürasyonu oksijen	0
-0.39794	sat satürasyonu oda	0
-0.90309	multiple sayıda lenf	0
-0.90309	çok sayıda kalkül	0
-0.90309	çok sayıda lap	0
-0.90309	çok sayıda nodüler	0
-1.597695	<s> sağ adrenal	0
-0.4973246	<s> sağ akciğer	0
-1.597695	<s> sağ aksilla	0
-1.597695	<s> sağ böbrek	0
-1.597695	<s> sağ böbrekte	0
-1.597695	<s> sağ hemitoraksta	0
-1.597695	<s> sağ sürrenal	0
-1.296665	<s> sağ üst	0
-1.531479	büyüğü sağ alt	0
-1.230449	büyüğü sağ üst	0
-1.531479	mm sağ pulmoner	0
-1.531479	notları sağ akciğerde	0
-0.1760913	tiroid sağ lobda	0
-1.531479	ve sağ hiler	0
-0.60206	<s> sağda en	0
-0.60206	büyüğü sağda alt	0
-0.30103	değerlendirilmesi sağlanarak yapılan	0
-0.07918125	devamı sağlandı </s>
-0.1760913	değerlendirilmesi sağlandı </s>
-0.845098	düşüş sağlandığı hemoglobin	0
-0.243038	düşüş sağlandığı tespit	0
-0.1760913	eğilimi sağlandığı tespit	0.2218487
-0.243038	yükselme sağlandığı tespit	0
-0.30103	durumu sebebi ile	0
-0.60206	bazal segment segmentlerinde	0
-0.60206	posterior segment ile	0
-1	bazal segmentlerde bronşial	0
-1	bazal segmentlerde hafif	0
-1	bazal segmentlerde nodüler	0
-1	bazal segmentlerde subplevral	0
-1	bazal segmentlerde subsegmental	0
-0.30103	segment segmentlerinde subplevral	0
-1.176091	anterobazal segmentte yedi	0
-1.176091	anteromedial segmentte sekiz	0
-1.176091	apikoposterior segmentte milimetrik	0
-1.176091	apikoposterior segmentte sekel	0
-0.8750613	apikoposterior segmentte subplevral	0
-0.8750613	laterobazal segmentte subplevral	0
-1.176091	posterior segmentte iki	0
-1.176091	posterior segmentte kırk	0
-0.60206	adet sekel benzeri	0
-0.60206	segmentte sekel değişiklikler	0
-0.69897	on sekiz çarpı	0
-0.69897	otuz sekiz çarpı	0
-0.69897	segmentte sekiz mm	0
-1	sıfır sekiz sıfır	0
-1	yedi sekiz inci	0
-0.69897	yirmi sekiz mm	0
-0.09691001	diğer semptomatik medikasyonun	0
-0.60206	interlobüler septalarda belirginleşme	0
-0.60206	interlobüler septalarda kalınlaşmalar	0
-0.30103	içinde serbest veya	0
-0.07918125	arasında servisimizde yatışı	0
-0.09691001	şekilde servisimizde yatışı	0.07918125
-0.30103	izolasyon servisinde takibine	0
-0.60206	hastalıkları servisine nakil	0
-0.60206	hastalıkları servisine yatırıldı	0
-0.07918125	solunum sesleri kabalaşmış	0
-0.30103	subkarinal seviyede yirmi	0
-0.30103	klinik seyir uygulanan	0
-0.1249387	aralıkta seyretmekte </s>
-0.30103	hastanın sft ye	0
-0.30103	crp si ile	0
-1.146128	bt sinde ön	0
-1.146128	crp sinde düşüş	0
-1.146128	crp sinde ile	0
-0.4259687	ekg sinde akut	0
-1.245513	ekg sinde belirgin	0
-1.245513	ekg sinde kronik	0
-0.30103	crp sinin düştüğü	0
-0.30103	kalisiyel sistemde yirmi	0
-0.30103	ve skapula çevresinde	0
-0.30103	<s> sol akciğer	0.04139266
-1.329059	<s> sol altı	0
-1.329059	<s> sol böbrek	0
-0.90309	<s> sol sürrenal	0
-1.278754	cm sol hemitoraksta	0
-0.3245111	ve sol akciğer	0
-0.7781513	<s> solda plevra	0
-0.7781513	cm solda en	0
-0.30103	milimetrik solid nodül	0
-0.07918125	bilateral solunum sesleri	0
-1.079181	hırıltılı solunum ateş	0
-1.079181	hırıltılı solunum bulantı	0
-1.079181	hırıltılı solunum halsizlik	0
-0.60206	hırıltılı solunumu belirgin	0
-0.60206	hırıltılı solunumu gerileme	0
-0.90309	gün sonra göğüs	0
-0.20412	gün sonra kontrole	0
-0.30103	usg sonucunda safra	0
-0.7781513	testi sonucunun da	0
-0.30103	testi sonucunun negatif	0
-0.60206	daha stabil hale	0
-0.7781513	lap subkarinal bölgede	0
-0.7781513	mm subkarinal seviyede	0
-0.7781513	paratrakeal subkarinal aortopulmoner	0
-0.7781513	adet subplevral yerleşimli	0
-1.079181	boyutlu subplevral nodüler	0
-0.7781513	parankiminde subplevral alanlarda	0
-1.079181	segmentlerde subplevral alanda	0
-0.7781513	segmentlerinde subplevral alanlarda	0
-1.079181	segmentte subplevral milimetrik	0
-0.7781513	segmentte subplevral yerleşimli	0
-0.30103	segmentlerde subsegmental atelektaziler	0
-0.30103	ampisilin sulbaktam azitromisin	0
